t 0.023796 -0.094386 0.106388 0.146596 0.047999 -0.084198 0.135531 0.077774 -0.012895 -0.084462 -0.017258 -0.096198 -0.020168 0.050795 -0.240172 -0.053032 0.07143 -0.095121 0.020574 0.071349 -0.142601 -0.516289 0.048333 -0.000973 -0.050602 -0.104847 0.059942 0.003809 -0.01929 -0.012102 -0.002317 0.066182 0.031666 0.058845 0.026226 0.045731 0.225825 0.119801 0.013635 0.004548 0.074991 0.099905 0.051211 -0.088561 0.101223 -0.048407 -0.194742 0.046888 -0.064838 -0.052231 0.033495 -0.028849 0.015802 -0.169855 -0.04988 0.057755 0.093601 -0.040556 -0.089726 -0.067541 -0.054101 -0.037436 0.180282 -0.019302 -0.038047 0.130097 0.043096 -0.119148 -0.116345 -0.013565 -0.115647 0.007679 -0.046511 -0.120567 -0.043024 -0.187288 0.047981 0.097065 0.071646 0.048543 0.028745 0.090989 0.12688 -0.066891 -0.024756 -0.023096 0.141834 0.112023 -0.170437 0.210402 -0.00797 -0.039517 -0.051123 -0.021284 0.117126 -0.041701 0.063268 0.07778 0.045833 0.064114 -0.053652 0.017528 0.030892 -0.058355 -0.042869 0.102065 -0.021294 -0.399939 0.121408 0.045989 0.034942 0.107735 0.021865 -0.123869 0.046042 0.058031 0.027454 -0.039532 0.121962 0.039933 -0.052519 -0.026273 -0.154901 -0.069687 -0.213568 0.277156 -0.008207 -0.077648 -0.168107 0.072498 0.022828 0.018859 -0.101822 0.116011 -0.080775 -0.105009 -0.006797 0.083001 0.132275 -0.034511 -0.046689 -0.02364 -0.030782 0.033024 -0.327577 -0.084568 0.048271 0.157793 -0.025722 -0.078067 -0.057906 -0.120169 0.023022 0.025006 -0.144929 0.024182 0.069699 -0.042964 0.030779 0.276674 0.005441 -0.014577 0.030591 -0.027385 -0.010626 -0.082819 0.039892 -0.051474 0.097276 -0.222576 -0.044181 0.00105 -0.095591 0.025453 -0.009996 -0.076382 0.104541 0.130816 -0.028913 0.077213 -0.284308 0.058127 0.083602 -0.044831 0.029322 0.16073 0.096473 -0.023806 -0.037598 -0.064651 0.108957 -0.131651 0.052746 -0.025079 -0.069618 -0.118086 0.038299 -0.003033 0.020885 -0.140834
h -0.004612 -0.133533 0.125905 0.167342 0.028463 -0.080393 0.174056 0.062053 0.011003 -0.088404 -0.023792 -0.137084 -0.006309 0.031915 -0.247028 -0.046346 0.065982 -0.156756 0.00687 0.074196 -0.164053 -0.595784 0.053554 0.003464 -0.073528 -0.105056 0.058667 0.006339 -0.028913 -0.017899 0.00114 0.057147 0.014135 0.059447 0.042341 0.069326 0.246882 0.130354 0.008133 0.011963 0.017228 0.108643 0.011348 -0.104327 0.091245 -0.062167 -0.207395 0.049266 -0.052269 -0.076305 0.072404 -0.015672 0.03982 -0.229321 -0.077077 0.053706 0.089666 -0.038191 -0.052649 -0.084821 -0.066801 -0.02009 0.185324 0.013233 -0.06089 0.102703 0.01074 -0.143417 -0.112741 0.011145 -0.130124 -0.021931 -0.073208 -0.12323 -0.009625 -0.230965 0.061682 0.133903 0.079482 0.087026 0.048667 0.11835 0.096594 -0.056135 -0.028933 -0.019563 0.133047 0.12819 -0.238899 0.247691 -0.022833 -0.068627 -0.11044 -0.054811 0.085034 -0.012238 0.025421 0.090518 0.051083 0.070563 -0.042691 -0.000837 0.024246 -0.04932 -0.021363 0.079356 -0.011148 -0.411683 0.1307 0.05123 0.048943 0.149297 0.00608 -0.132955 0.005767 0.056972 0.025876 -0.023593 0.121732 0.090547 -0.06792 0.006333 -0.170915 -0.05245 -0.156147 0.290969 -0.044845 -0.081283 -0.138827 0.082718 0.072061 -0.006269 -0.13196 0.148771 -0.076341 -0.105722 0.012661 0.111486 0.134914 -0.032711 -0.017877 -0.022542 -0.057961 0.051141 -0.372146 -0.082234 0.065256 0.148407 -0.014232 -0.062254 -0.042753 -0.123149 0.031642 0.045504 -0.158618 0.057072 0.067416 -0.05627 0.010928 0.268613 -0.005637 0.005945 0.042968 -0.04944 -0.015625 -0.083442 0.033081 -0.028229 0.14884 -0.274442 -0.034171 -0.01621 -0.10974 0.005657 -0.029733 -0.073944 0.09405 0.114763 -0.014897 0.058956 -0.376788 0.081309 0.064271 -0.05893 0.001517 0.134915 0.085 -0.005252 -0.038419 -0.108248 0.146008 -0.121657 0.06006 -0.032436 -0.077095 -0.077017 0.030333 -0.027112 0.009998 -0.173824
e 0.01436 -0.112985 0.102773 0.152237 0.036524 -0.078489 0.148022 0.060207 -0.004577 -0.077014 -0.015313 -0.103314 -0.014868 0.047606 -0.241097 -0.048651 0.070028 -0.106376 0.013366 0.075615 -0.142184 -0.538776 0.04723 0.002126 -0.065811 -0.104153 0.058149 -0.015622 -0.023312 -0.013651 -0.005782 0.07579 0.033756 0.05547 0.031498 0.043773 0.226278 0.116608 0.007146 0.006963 0.056065 0.106631 0.031796 -0.098335 0.097451 -0.053 -0.180478 0.054517 -0.062327 -0.062378 0.037256 -0.02023 0.005465 -0.17509 -0.051776 0.05389 0.079018 -0.042154 -0.072571 -0.071516 -0.043223 -0.026117 0.180557 -0.020121 -0.043404 0.124363 0.032024 -0.118276 -0.121943 -0.004771 -0.121825 0.002825 -0.046762 -0.115145 -0.036235 -0.196267 0.043965 0.091572 0.069366 0.065651 0.029802 0.093759 0.123064 -0.057559 -0.022589 -0.018458 0.130904 0.111544 -0.211678 0.199234 -0.005167 -0.045791 -0.064612 -0.012939 0.099639 -0.031452 0.055018 0.082075 0.032751 0.067003 -0.050036 0.011372 0.024945 -0.060149 -0.043875 0.098959 -0.017292 -0.382531 0.114831 0.030456 0.03894 0.122832 0.012751 -0.134206 0.034469 0.045753 0.026925 -0.045269 0.127948 0.058731 -0.056983 -0.014847 -0.153463 -0.084885 -0.197584 0.26832 -0.013561 -0.082552 -0.153763 0.070671 0.036731 -0.005588 -0.100283 0.113872 -0.057991 -0.091624 0.008356 0.084637 0.129496 -0.029996 -0.035542 -0.027791 -0.039742 0.040925 -0.336456 -0.070844 0.061622 0.153868 -0.01877 -0.073749 -0.052204 -0.126483 0.016996 0.02786 -0.152573 0.031745 0.064526 -0.043499 0.034466 0.286931 -0.011153 -0.019031 0.034713 -0.024661 -0.0133 -0.083036 0.046478 -0.04701 0.11016 -0.242692 -0.035357 0.003947 -0.095138 0.040927 -0.013328 -0.078073 0.104084 0.122972 -0.017325 0.075582 -0.298149 0.058236 0.074359 -0.047295 0.018329 0.151027 0.0976 -0.021612 -0.03822 -0.063388 0.112999 -0.126501 0.041597 -0.026285 -0.072904 -0.114174 0.043448 0.0029 0.02269 -0.156511
, 0.051155 -0.341959 0.056242 0.05101 0.076195 -0.103526 0.010567 0.088774 -0.104182 0.15835 -0.064244 -0.066521 -0.051752 -0.014088 -0.335652 0.102559 0.044302 -0.003068 -0.151141 0.0478 -0.198179 -0.701653 -0.199767 -0.112009 -0.424506 -0.129912 0.119929 -0.05062 -0.097343 0.103895 0.106325 -0.104794 0.185357 -0.118665 0.005816 0.050198 0.352494 -0.021004 -0.052133 0.24819 0.350592 0.116786 0.193674 -0.380684 0.106459 0.142565 -0.180803 0.240648 -0.175302 -0.151871 -0.07571 -0.301113 0.095252 0.284644 0.093085 -0.011078 0.091382 0.085185 -0.071673 -0.126454 -0.107901 0.048094 0.103556 -0.06872 0.119499 -0.043906 -0.070127 -0.053439 -0.170821 -0.196965 -0.292655 0.079538 -0.057985 -0.296836 0.151 -0.061068 0.295956 0.128086 0.096437 0.156845 -0.001838 0.06194 0.018429 0.025519 0.000307 -0.19005 0.417513 0.016879 -0.227102 0.423919 0.00198 -0.192102 -0.003049 -0.0067 0.519688 0.023805 0.188659 -0.059038 -0.146341 0.114768 -0.157414 -0.030643 0.038413 0.046043 -0.089163 0.166589 0.214144 -0.358522 0.149187 0.063249 0.129021 0.251396 0.081688 -0.038652 -0.127693 -0.090838 -0.139328 -0.02067 0.337162 -0.390356 -0.048335 -0.341279 -0.065341 -0.008617 -0.287241 0.117077 -0.017659 -0.142918 -0.274215 -0.054888 0.052768 0.071551 -0.218751 0.181821 -0.170708 0.021609 0.097506 0.046447 0.170416 0.04969 -0.217428 -0.230883 -0.054183 0.1918 -0.642921 -0.166577 0.229832 0.380022 -0.122926 -0.12151 0.049002 -0.114854 0.233063 -0.230697 -0.206131 0.071849 -0.034936 -0.125185 -0.036837 0.170354 -0.072514 -0.125864 0.080949 -0.070259 -0.173053 0.042967 -0.131098 -0.029752 -0.128113 -0.245961 -0.003813 0.062004 -0.302643 0.151922 0.003591 -0.239583 0.282226 0.094725 -0.163724 -0.168542 -0.250332 0.319863 0.224306 0.126888 0.158419 0.287114 0.033498 0.146259 -0.132037 -0.303107 0.00785 -0.057043 0.042401 -0.001087 0.040307 -0.123662 0.070689 -0.056915 -0.204753 -0.23312
. 0.152269 0.002233 -0.028723 0.050829 0.032707 -0.088373 0.256171 -0.170214 -0.086142 0.096351 -0.121857 -0.098611 0.204986 -0.279761 -0.155859 0.059373 0.125819 -0.27766 0.175786 -0.031589 -0.276563 -0.632296 -0.103721 0.096099 -0.265237 -0.109659 -0.094145 0.183062 -0.024774 0.14038 0.076229 -0.104101 0.143527 -0.027263 -0.015549 0.185202 0.313817 0.041301 -0.1521 -0.107095 0.195221 0.083017 0.219364 -0.247158 0.019661 0.032588 -0.203229 0.201043 -0.149236 0.042433 -0.093265 -0.253479 0.228312 0.145764 -0.022639 0.173823 -0.033463 0.108786 -0.088112 -0.128787 -0.218731 -0.175992 0.277255 -0.095775 -0.046426 -0.0553 0.104845 -0.083459 0.018545 -0.081779 -0.297605 -0.027636 -0.143499 -0.250704 0.113526 -0.141612 0.195727 0.135612 0.001415 0.253978 -0.067716 -0.027942 0.125693 -0.006884 -0.1523 -0.054463 0.326274 0.080825 -0.18492 0.573445 -0.035492 -0.104619 -0.036916 0.085633 0.366531 -0.06544 0.013046 0.007657 -0.136187 0.109166 -0.245971 -0.025243 -0.160793 0.139727 -0.021362 0.190015 0.147871 -0.327602 0.0697 -0.070729 0.102028 0.175487 -0.046408 0.090493 -0.065671 -0.180553 -0.092545 -0.005805 0.370861 -0.03657 -0.090455 -0.360013 -0.085076 -0.096113 -0.113175 0.247536 -0.081515 0.009836 -0.326938 0.007467 0.018432 -0.010444 -0.305033 0.039878 -0.100753 -0.081117 -0.008147 0.084782 0.089096 -0.009478 -0.045876 -0.059296 -0.095089 0.076994 -0.430496 -0.224906 0.114123 0.29615 -0.159676 -0.053079 0.167545 -0.019691 0.152647 0.147884 -0.350268 0.184638 0.069808 -0.072113 -0.079061 0.232692 0.02988 -0.241018 0.018392 0.029756 -0.053365 -0.144257 0.004939 0.055049 -0.074559 -0.231376 0.031435 0.046422 -0.278609 0.015984 -0.097561 -0.079527 0.341788 0.233497 -0.135861 -0.010066 -0.37495 0.249206 0.133305 0.005521 0.043223 0.088299 0.141897 -0.089218 -0.075029 -0.309073 0.027509 -0.045806 0.080723 -0.020669 -0.093408 -0.028412 -0.128236 -0.051239 0.049564 -0.131698
o 0.008694 -0.102817 0.111896 0.149666 0.043086 -0.090488 0.147822 0.069446 -0.005554 -0.087281 -0.025192 -0.115436 -0.009326 0.043351 -0.233424 -0.049581 0.069154 -0.111064 0.010963 0.069408 -0.15053 -0.569553 0.042637 0.014625 -0.049141 -0.090755 0.058972 -0.014947 -0.019109 -0.013605 -0.012223 0.071586 0.019263 0.047242 0.029371 0.043781 0.237496 0.132628 0.008336 0.012061 0.045941 0.102699 0.041058 -0.10218 0.103029 -0.042355 -0.190709 0.051614 -0.064657 -0.060483 0.036483 -0.021979 0.020861 -0.185351 -0.053852 0.054797 0.081802 -0.045677 -0.068443 -0.065642 -0.051213 -0.039206 0.190367 -0.016963 -0.049754 0.114117 0.027331 -0.128165 -0.114992 -0.004966 -0.129812 -0.002828 -0.051119 -0.125502 -0.037466 -0.20464 0.066814 0.112688 0.070647 0.056701 0.024971 0.093647 0.121309 -0.0642 -0.028544 -0.018163 0.142562 0.129357 -0.20425 0.225889 -0.014325 -0.049213 -0.080001 -0.025358 0.115777 -0.036697 0.058305 0.084282 0.030876 0.06637 -0.054675 0.010849 0.019971 -0.069776 -0.035616 0.090974 -0.013008 -0.396789 0.124019 0.051687 0.044436 0.128661 0.017795 -0.12373 0.028858 0.049283 0.027256 -0.043644 0.120915 0.059297 -0.05418 -0.023074 -0.156099 -0.075244 -0.204757 0.277885 -0.021939 -0.088551 -0.154935 0.08318 0.039455 -0.001937 -0.115649 0.133216 -0.070344 -0.104428 0.012217 0.090635 0.121142 -0.037046 -0.027279 -0.018383 -0.041808 0.039943 -0.363897 -0.085054 0.061846 0.154425 -0.01999 -0.073814 -0.060191 -0.125068 0.029578 0.032504 -0.150994 0.028277 0.074378 -0.064179 0.027346 0.27161 -0.002634 -0.014765 0.031503 -0.029739 -0.015212 -0.076125 0.049034 -0.042783 0.115288 -0.237422 -0.046091 -0.010795 -0.097515 0.028108 -0.013621 -0.077209 0.117229 0.145508 -0.016415 0.070509 -0.317463 0.063139 0.068883 -0.053148 0.028595 0.153295 0.103716 -0.027862 -0.046173 -0.078795 0.119871 -0.118825 0.045529 -0.045777 -0.083328 -0.099336 0.031842 -0.028629 0.020602 -0.158921
f 0.010289 -0.116927 0.092348 0.154278 0.05102 -0.074278 0.132421 0.059051 -0.001278 -0.067117 -0.019386 -0.092724 -0.003267 0.041962 -0.233175 -0.035559 0.06271 -0.10174 0.016712 0.07275 -0.142683 -0.544595 0.057007 -0.00566 -0.075314 -0.09838 0.058697 -0.002624 -0.026373 -0.018043 -0.00273 0.077016 0.026467 0.041878 0.033079 0.039751 0.221218 0.108568 0.004172 0.012153 0.072302 0.108882 0.038985 -0.097406 0.105163 -0.057848 -0.189106 0.055301 -0.061217 -0.061484 0.031794 -0.040083 0.006221 -0.168333 -0.058564 0.044298 0.087364 -0.03524 -0.078428 -0.082674 -0.048457 -0.039056 0.162074 -0.028587 -0.033868 0.110007 0.042577 -0.116795 -0.121619 -0.002758 -0.103467 0.012846 -0.048077 -0.129023 -0.037265 -0.203924 0.057738 0.086886 0.069898 0.050943 0.018567 0.092948 0.146755 -0.063632 -0.018913 -0.015218 0.128389 0.114877 -0.199513 0.196878 -0.010846 -0.054733 -0.072526 -0.007047 0.121411 -0.025428 0.062093 0.078291 0.038176 0.072447 -0.055864 0.012058 0.030676 -0.06571 -0.042947 0.103405 -0.013373 -0.399063 0.11859 0.026205 0.026894 0.112095 0.007728 -0.132476 0.035815 0.045693 0.044554 -0.044808 0.137767 0.045404 -0.066143 -0.039058 -0.154133 -0.067752 -0.19954 0.283115 -0.013289 -0.084359 -0.15444 0.070672 0.026124 -0.000425 -0.101407 0.107542 -0.080538 -0.097836 -0.002083 0.093905 0.135687 -0.023143 -0.04559 -0.02392 -0.03373 0.03122 -0.336106 -0.080997 0.057959 0.166298 -0.016516 -0.075579 -0.049973 -0.124204 0.030993 0.040694 -0.149052 0.027659 0.056245 -0.046989 0.041519 0.278769 0.000285 -0.003986 0.041081 -0.030272 -0.022416 -0.083073 0.042961 -0.035152 0.108948 -0.233132 -0.027731 0.002736 -0.105417 0.023939 -0.013264 -0.072266 0.086476 0.123552 -0.038844 0.079269 -0.288041 0.046121 0.082708 -0.050527 0.018453 0.144441 0.084891 -0.025785 -0.042169 -0.071986 0.130708 -0.135273 0.048373 -0.025073 -0.068282 -0.109536 0.037846 -0.007294 0.018714 -0.155889
a -0.013878 -0.10844 0.125777 0.172489 0.033929 -0.079296 0.15801 0.074937 0.004021 -0.100754 -0.030486 -0.122421 -0.01161 0.036701 -0.248971 -0.055496 0.072042 -0.12907 0.001527 0.067069 -0.153055 -0.579738 0.041717 0.022776 -0.062896 -0.100057 0.062494 0.001201 -0.017082 -0.02054 -0.008963 0.053313 0.002644 0.038043 0.039656 0.05795 0.231557 0.126576 0.019315 -0.00021 0.023832 0.101955 0.012001 -0.09849 0.088091 -0.050457 -0.214965 0.051021 -0.058828 -0.070565 0.056079 -0.024615 0.037002 -0.234958 -0.080661 0.057588 0.080358 -0.062466 -0.062347 -0.071328 -0.061861 -0.046272 0.199783 0.014456 -0.05425 0.109721 0.009203 -0.143134 -0.122751 -0.020828 -0.136739 -0.010816 -0.062346 -0.117565 -0.029536 -0.216919 0.075783 0.133902 0.079044 0.072909 0.033894 0.105583 0.112693 -0.066474 -0.019774 -0.00956 0.131038 0.134115 -0.239665 0.261025 -0.029513 -0.057874 -0.098083 -0.064591 0.098205 -0.028694 0.046497 0.081855 0.039773 0.060216 -0.042205 0.011701 0.024248 -0.075134 -0.02741 0.080504 -0.006585 -0.399512 0.138598 0.058329 0.045223 0.14662 0.025812 -0.127465 0.017151 0.049154 0.030995 -0.02385 0.125294 0.082038 -0.055674 0.002764 -0.169324 -0.05794 -0.177722 0.287157 -0.039909 -0.099068 -0.144754 0.077423 0.064694 -0.003174 -0.139421 0.167695 -0.083126 -0.112546 0.01847 0.097584 0.125184 -0.042557 -0.019378 -0.019947 -0.052629 0.039669 -0.380241 -0.086687 0.07141 0.156722 -0.007558 -0.072031 -0.06395 -0.123629 0.043081 0.034933 -0.158793 0.041535 0.085151 -0.05688 0.017942 0.270193 -0.004722 -0.014367 0.036164 -0.038363 -0.008142 -0.056789 0.057404 -0.038112 0.141363 -0.253775 -0.055235 -0.021363 -0.096035 -0.000641 -0.010449 -0.085314 0.106635 0.133208 -0.013711 0.058268 -0.353969 0.082989 0.067019 -0.067381 0.010134 0.159109 0.087342 -0.020005 -0.044977 -0.101842 0.136727 -0.107937 0.036844 -0.053848 -0.10429 -0.070186 0.039471 -0.049536 0.012321 -0.172046
n 0.008586 -0.106655 0.119405 0.154443 0.037849 -0.073759 0.159139 0.068883 -0.004275 -0.076253 -0.013875 -0.103452 -0.021469 0.043971 -0.236647 -0.049288 0.080877 -0.115467 0.012092 0.067898 -0.140467 -0.547803 0.050403 0.013099 -0.05958 -0.091916 0.057455 -0.005353 -0.014557 -0.011043 -0.014226 0.064021 0.025728 0.063565 0.02958 0.048451 0.22684 0.130604 0.009748 0.006975 0.050712 0.099961 0.035215 -0.099482 0.105443 -0.045947 -0.196417 0.059416 -0.060929 -0.056753 0.043592 -0.02034 0.025766 -0.192602 -0.0642 0.059899 0.086739 -0.041081 -0.071961 -0.067898 -0.051714 -0.033882 0.178075 0.003763 -0.042526 0.127332 0.02711 -0.112892 -0.127529 -0.00727 -0.126843 -0.008729 -0.048681 -0.117691 -0.032238 -0.192815 0.055174 0.112273 0.074148 0.064481 0.027012 0.105157 0.117921 -0.060865 -0.024694 -0.01918 0.139537 0.123494 -0.204463 0.232957 -0.019404 -0.060507 -0.076723 -0.028624 0.09199 -0.027449 0.052149 0.083818 0.044582 0.068311 -0.05286 0.01543 0.020907 -0.065552 -0.046447 0.089533 -0.006737 -0.387584 0.119006 0.045443 0.041506 0.127631 0.01974 -0.126067 0.038827 0.051708 0.02019 -0.040819 0.119889 0.066828 -0.059447 -0.008349 -0.159643 -0.064134 -0.196986 0.279241 -0.021553 -0.084147 -0.152171 0.075277 0.045547 0.008799 -0.104873 0.135707 -0.072734 -0.088966 0.013159 0.084294 0.129556 -0.037963 -0.026084 -0.016039 -0.046634 0.043906 -0.344127 -0.080948 0.057259 0.147641 -0.026164 -0.072893 -0.060169 -0.117637 0.025282 0.029654 -0.152155 0.027439 0.073444 -0.047517 0.021295 0.27986 -0.00041 -0.010841 0.035324 -0.035213 -0.016259 -0.065202 0.047196 -0.041202 0.119463 -0.233544 -0.045698 0.000537 -0.102438 0.015597 -0.011126 -0.084178 0.106052 0.131848 -0.022977 0.060785 -0.318525 0.067067 0.072377 -0.054032 0.010324 0.159169 0.100268 -0.020966 -0.038797 -0.073216 0.119185 -0.119817 0.044179 -0.027525 -0.071338 -0.099944 0.045871 -0.020168 0.013432 -0.164639
d -0.000132 -0.123496 0.111192 0.15876 0.025946 -0.077467 0.144692 0.073235 -0.007381 -0.080047 -0.011947 -0.11789 -0.002354 0.034127 -0.246258 -0.044591 0.063942 -0.104783 0.014941 0.06909 -0.137716 -0.522006 0.046814 -0.000642 -0.065429 -0.11279 0.049646 -0.004201 -0.022507 -0.020497 -0.01259 0.063141 0.032636 0.064001 0.031111 0.045136 0.213569 0.100638 0.02141 0.01273 0.049016 0.100223 0.02409 -0.089198 0.09361 -0.056611 -0.192196 0.050672 -0.067574 -0.066017 0.038931 -0.024523 0.014584 -0.184556 -0.060678 0.054309 0.07015 -0.053291 -0.082371 -0.076745 -0.055869 -0.036673 0.181134 -0.016826 -0.035722 0.111213 0.018335 -0.125789 -0.126819 -0.023459 -0.121018 -0.00443 -0.059806 -0.116516 -0.048505 -0.209616 0.048621 0.100976 0.078397 0.057733 0.031357 0.087392 0.112684 -0.064433 -0.004623 -0.008759 0.124272 0.098642 -0.218641 0.208489 -0.02953 -0.048858 -0.060202 -0.023849 0.097024 -0.024129 0.046556 0.073306 0.039892 0.06622 -0.03933 -0.004199 0.0216 -0.05257 -0.043218 0.098764 -0.019273 -0.394248 0.114139 0.028443 0.040678 0.12333 0.005648 -0.121678 0.043919 0.049796 0.029824 -0.031143 0.126328 0.041566 -0.061034 -0.00538 -0.148984 -0.076275 -0.192075 0.259772 -0.011106 -0.079505 -0.147414 0.072621 0.033936 -0.003325 -0.09086 0.110625 -0.058815 -0.093537 0.00644 0.092228 0.134147 -0.029872 -0.043861 -0.03207 -0.029379 0.033299 -0.320504 -0.069104 0.054832 0.155118 -0.016112 -0.082984 -0.056523 -0.117122 0.014902 0.034533 -0.164028 0.03958 0.046501 -0.041174 0.030836 0.270674 -0.005228 0.005956 0.039294 -0.015554 -0.017879 -0.076077 0.047845 -0.035172 0.094966 -0.242644 -0.037483 0.00551 -0.09356 0.026956 -0.004954 -0.073646 0.099125 0.116675 -0.024173 0.071094 -0.297472 0.074991 0.064639 -0.053904 0.016075 0.148631 0.083126 -0.025821 -0.046791 -0.070895 0.125459 -0.134147 0.038872 -0.019692 -0.06527 -0.104143 0.038311 -0.00469 0.011098 -0.156803
i 0.006231 -0.10462 0.123344 0.152826 0.04306 -0.074818 0.132072 0.08162 -0.003223 -0.071236 -0.020267 -0.090257 -0.01773 0.048655 -0.243402 -0.04376 0.071243 -0.105706 0.010532 0.052744 -0.14208 -0.546303 0.047459 0.011623 -0.061169 -0.094457 0.064117 -0.006132 -0.01039 -0.011421 -0.016152 0.061108 0.027151 0.049014 0.031349 0.05675 0.225603 0.117118 0.00798 0.00934 0.059762 0.09865 0.030271 -0.096113 0.1054 -0.053278 -0.206765 0.061106 -0.060603 -0.058481 0.035527 -0.026779 0.02269 -0.198952 -0.064655 0.050047 0.099421 -0.053179 -0.075564 -0.072124 -0.058572 -0.040253 0.185299 0.002292 -0.04012 0.124919 0.034659 -0.113792 -0.126657 -0.011837 -0.12093 0.004204 -0.054926 -0.119563 -0.0428 -0.200687 0.056631 0.107778 0.06902 0.057934 0.027136 0.101853 0.123431 -0.068755 -0.018437 -0.013229 0.15113 0.121054 -0.200875 0.228797 -0.011077 -0.055475 -0.070226 -0.030402 0.110356 -0.040666 0.060912 0.084174 0.039943 0.071162 -0.047808 0.009827 0.018203 -0.072611 -0.040704 0.099632 -0.011787 -0.400946 0.131367 0.045857 0.053659 0.124411 0.026086 -0.131904 0.044231 0.055592 0.026278 -0.028736 0.113667 0.058406 -0.053017 -0.002223 -0.164203 -0.063876 -0.208948 0.288586 -0.016188 -0.087058 -0.159373 0.078159 0.037894 0.020751 -0.124909 0.141694 -0.078932 -0.104443 0.006374 0.081544 0.126275 -0.049567 -0.030254 -0.021492 -0.047182 0.038321 -0.349974 -0.090054 0.053906 0.149908 -0.019256 -0.077841 -0.07408 -0.117396 0.026231 0.03187 -0.160564 0.025027 0.073489 -0.051711 0.026144 0.288359 0.003564 -0.013357 0.038496 -0.034822 -0.014928 -0.072862 0.053492 -0.045859 0.117615 -0.231821 -0.051331 -0.004993 -0.097545 0.01656 -0.013673 -0.087834 0.098364 0.139161 -0.024744 0.077462 -0.305184 0.058513 0.079265 -0.056075 0.023701 0.170039 0.094248 -0.022051 -0.040483 -0.083079 0.112712 -0.127164 0.044181 -0.03392 -0.077031 -0.11219 0.050271 -0.022282 0.011541 -0.159883
" 0.001032 0.31201 -0.59768 -0.12583 -0.27524 0.29145 -0.30431 0.037122 0.94468 0.088085 -0.096273 0.40542 -0.6524 0.37716 0.53001 -0.30819 -0.27478 0.81041 0.53635 0.08759 0.35288 2.8857 -0.12505 -0.035968 0.1355 -0.29932 0.56154 -0.59429 -0.34991 0.68559 -0.11537 0.088894 -0.29829 -0.20768 0.6911 0.068548 -0.50814 -0.97722 0.035782 -0.54053 -0.16178 0.47542 -0.71652 0.31939 -0.049291 0.32565 0.5551 -0.42967 1.0137 0.30304 0.44503 0.46987 0.074292 -0.35762 -0.13736 -0.16066 -0.28606 0.000124 -0.043422 -0.36702 0.40895 -0.40467 -0.51635 0.28044 -0.27625 -0.20352 0.084837 0.078145 0.32895 0.20482 0.17551 -0.2309 -0.066328 0.46467 -0.38932 -0.23018 -0.098122 -0.12376 -0.028503 0.040342 0.71158 -0.27804 0.10137 0.51113 -0.42648 -0.12535 -0.39139 0.29972 0.1868 -0.58113 0.38192 0.1654 0.33566 -0.47696 -0.24135 -0.33114 0.34815 -0.087061 -0.16406 -0.1023 0.53301 0.45604 0.33281 -0.33851 0.30248 -0.15048 -0.33033 0.6668 -0.28609 1.0374 -0.70909 -0.084268 0.47584 -0.16125 0.19906 0.51991 0.026676 -0.25567 -0.32363 0.13236 0.54006 0.093419 0.12268 -0.62967 0.000749 -0.53441 0.25609 0.39963 0.80527 -0.41176 0.18955 0.024526 -0.20222 0.33781 0.007872 -0.64424 -0.5309 0.027875 0.088964 0.29687 -0.038186 0.77967 -0.069213 -0.58387 1.1816 0.60791 -0.4021 -0.32223 -0.071283 -0.022764 -0.46393 0.99797 -0.15308 0.4712 0.73921 -0.12487 -0.38275 -0.39598 0.12852 -0.4951 0.19752 -0.25436 0.16616 -0.18135 0.16374 -0.16194 -0.32013 -0.33111 0.53662 0.53301 -0.32166 -0.64362 1.0576 -0.18019 -0.40932 -0.16084 -1.0094 0.22972 0.5431 0.05891 1.7502 -0.19753 -0.05401 0.016083 -0.55523 -0.20231 -0.32613 -0.38783 0.61428 -0.11216 0.42319 -0.44729 -0.35638 -0.32698 -0.12662 -0.28858 0.08092 0.14493 0.052563 0.75007
' -0.013976 -0.10081 0.045112 0.244422 -0.006559 -0.155234 0.145707 0.014067 0.043385 -0.078354 -0.07455 -0.209459 -0.094977 0.0409 -0.253844 -0.062394 -0.000585 0.020038 -0.021449 0.080823 -0.102449 -0.633803 0.09823 0.096674 -0.090617 -0.006694 0.035715 -0.003378 -0.061789 0.004465 -0.018782 0.090629 -0.015476 -0.042462 0.024442 0.121487 0.302678 0.118181 0.008768 -0.032497 0.072075 0.13634 -0.035027 -0.077244 0.133063 0.03934 -0.170861 0.091096 -0.063823 -0.072597 0.012144 0.04274 0.091643 -0.168183 -0.113631 0.085401 0.107772 -0.085344 -0.077494 -0.216657 0.025133 -0.116749 0.148046 0.022028 -0.108936 0.088435 0.006715 -0.196835 -0.097199 -0.004599 -0.199765 0.014086 -0.006457 -0.146274 0.030814 -0.312198 0.055369 0.127423 0.140297 0.089208 0.070322 0.0524 0.22194 -0.070362 -0.061155 -0.036561 0.12615 0.269209 -0.29712 0.270429 -0.043335 -0.000438 -0.111758 -0.067196 0.075593 -0.10969 0.043347 0.131181 -0.008896 -0.013311 -0.138449 0.069447 0.118908 -0.066794 0.054971 0.149472 0.005773 -0.412568 0.165582 0.071353 0.031149 0.186219 0.058846 -0.043148 -0.000244 -0.036878 0.061482 -0.078374 0.120738 0.147336 -0.048638 -0.02705 -0.166369 -0.092465 -0.119764 0.245716 -0.093388 -0.167309 -0.077974 0.008456 0.094767 -0.080726 -0.162329 0.162032 -0.139397 -0.138612 0.01089 0.143407 0.080142 0.01595 -0.021354 -0.049659 -0.170963 -0.044071 -0.426028 -0.060032 0.148361 0.149909 -0.00156 -0.030144 0.013795 -0.104005 0.034868 -0.0084 -0.15849 0.083661 0.091589 -0.154925 0.079254 0.289845 -0.044442 -0.156982 0.052971 -0.020336 0.008635 -0.059308 0.085481 -0.077029 0.155411 -0.338406 -0.085399 -0.093965 -0.02587 0.021369 -0.053327 -0.072019 0.052049 0.21937 0.045975 0.118541 -0.320866 0.060133 0.104845 -0.077275 -0.055759 0.103067 0.089991 -0.088299 0.031247 -0.075894 0.087638 -0.171384 0.04588 -0.076097 -0.1434 -0.019988 0.121603 -0.056046 0.077837 -0.125658
s 0.015297 -0.110009 0.108228 0.155708 0.031026 -0.075044 0.140933 0.087354 -0.023557 -0.048557 -0.016385 -0.100963 -0.038777 0.045491 -0.260375 -0.04314 0.06368 -0.08951 0.002601 0.070291 -0.148811 -0.538374 0.042895 -0.01195 -0.066191 -0.109733 0.06067 -0.01402 -0.017972 -0.022482 -0.001779 0.065403 0.017639 0.065942 0.029068 0.047632 0.217529 0.118792 0.022067 0.010763 0.077373 0.108897 0.042715 -0.099538 0.104315 -0.045606 -0.180028 0.039549 -0.066278 -0.054244 0.024373 -0.026224 0.010306 -0.166267 -0.050181 0.0374 0.084217 -0.040887 -0.068466 -0.070722 -0.045593 -0.017708 0.186098 -0.00792 -0.040817 0.12944 0.034854 -0.113353 -0.107003 -0.022721 -0.112366 0.004041 -0.05233 -0.13329 -0.034563 -0.20283 0.049271 0.117311 0.075815 0.053806 0.029418 0.114059 0.107749 -0.050508 -0.026912 -0.009262 0.142063 0.106888 -0.203085 0.201604 -0.006515 -0.053911 -0.047092 -0.027943 0.113785 -0.041374 0.062038 0.080775 0.026661 0.053877 -0.032316 0.013136 0.01864 -0.067058 -0.034478 0.117687 -0.012081 -0.400574 0.135467 0.039285 0.040657 0.117467 0.037388 -0.123863 0.052701 0.062429 0.027643 -0.030086 0.120087 0.040654 -0.03951 0.00104 -0.159597 -0.057216 -0.201773 0.261009 -0.018592 -0.066275 -0.136092 0.070068 0.014266 0.017047 -0.119098 0.116515 -0.079947 -0.107664 -0.002312 0.077612 0.132207 -0.05068 -0.037273 -0.043676 -0.036267 0.033483 -0.34315 -0.065603 0.058096 0.165811 -0.018564 -0.071451 -0.052794 -0.115472 0.012836 0.021358 -0.145369 0.03543 0.062028 -0.045031 0.025972 0.293526 -0.008227 -0.000176 0.038859 -0.02622 -0.015426 -0.072485 0.048023 -0.045223 0.095251 -0.235757 -0.051304 0.00694 -0.10157 0.052041 -0.019223 -0.072093 0.089795 0.125271 -0.035401 0.07315 -0.30099 0.049989 0.067248 -0.040121 0.033683 0.161569 0.108971 -0.014513 -0.049079 -0.072032 0.105865 -0.122068 0.04682 -0.028321 -0.072599 -0.121606 0.036537 -0.00296 0.018219 -0.121651
r 0.003096 -0.110916 0.105467 0.158476 0.041283 -0.079831 0.155116 0.062506 0.004498 -0.087347 -0.013082 -0.108166 -0.011423 0.048752 -0.239931 -0.056364 0.074883 -0.112599 0.013993 0.07505 -0.14771 -0.552702 0.049444 0.004985 -0.062428 -0.103512 0.055654 -0.008651 -0.018374 -0.013997 -0.006729 0.073161 0.022592 0.041859 0.030764 0.040881 0.232635 0.123008 0.00865 0.002004 0.046738 0.101269 0.025483 -0.094242 0.10102 -0.055239 -0.193109 0.053691 -0.054863 -0.064508 0.039451 -0.014501 0.017244 -0.188927 -0.059151 0.054167 0.079951 -0.042361 -0.069391 -0.075921 -0.048731 -0.034399 0.1817 -0.019444 -0.03797 0.116857 0.029167 -0.128118 -0.122496 -0.004714 -0.129306 -0.001394 -0.054792 -0.117455 -0.033883 -0.202769 0.055653 0.108826 0.06884 0.066817 0.030009 0.097337 0.114158 -0.057362 -0.023215 -0.019472 0.126983 0.121717 -0.211675 0.217945 -0.015489 -0.052924 -0.076492 -0.025148 0.10101 -0.026887 0.053723 0.078626 0.033052 0.066186 -0.051273 0.009129 0.024319 -0.062862 -0.043082 0.095962 -0.013586 -0.386642 0.126851 0.04272 0.040277 0.128501 0.010813 -0.133447 0.02959 0.042296 0.028078 -0.044757 0.127579 0.056424 -0.055377 -0.017131 -0.150935 -0.071334 -0.187869 0.273222 -0.026281 -0.082206 -0.150502 0.074007 0.044495 -0.003502 -0.108029 0.127395 -0.063618 -0.093657 0.014891 0.090592 0.126532 -0.035157 -0.034262 -0.024578 -0.042868 0.038063 -0.352371 -0.075614 0.063649 0.158178 -0.011711 -0.070737 -0.05058 -0.126191 0.024325 0.021913 -0.148313 0.035723 0.066175 -0.050074 0.026736 0.275996 -0.008741 -0.016225 0.028448 -0.024311 -0.016503 -0.077189 0.045676 -0.045494 0.122301 -0.244743 -0.040428 -0.004867 -0.094926 0.02777 -0.009114 -0.078272 0.107212 0.126324 -0.015825 0.071883 -0.318911 0.057201 0.076208 -0.044859 0.01254 0.145102 0.097214 -0.023467 -0.043684 -0.072909 0.120123 -0.119844 0.038252 -0.036122 -0.083525 -0.098049 0.037982 -0.011161 0.023019 -0.159094
- 0.012874 -0.191464 0.081533 0.065961 0.02204 -0.210857 0.16065 0.041062 -0.070694 -0.093499 -0.056834 -0.125755 -0.018753 0.039753 -0.225272 -0.074128 0.130409 -0.176228 0.009748 0.121263 -0.106909 -0.621243 0.117648 -0.054971 -0.057962 -0.116695 0.109124 0.117714 0.012346 -0.021225 0.088059 0.008463 0.123977 0.07397 0.01469 0.04628 0.274384 0.132071 0.056035 -0.076065 0.129085 0.148602 0.135845 -0.1693 0.101283 -0.008565 -0.304872 0.076937 -0.184303 -0.06981 -0.008423 -0.09548 0.029705 -0.116986 -0.108992 0.076047 0.121616 -0.027383 -0.142413 -0.097487 -0.126508 -0.095327 0.171461 -0.168568 -0.008312 0.149994 0.180173 -0.191438 -0.098056 -0.121489 -0.138012 0.030755 0.000922 -0.195748 -0.020512 -0.188299 0.063838 0.147804 0.081448 0.021275 -0.021985 0.067911 0.188377 -0.072598 -0.047034 -0.035913 0.190873 0.085731 -0.112038 0.326316 -0.030523 0.032774 -0.085537 0.078721 0.261586 -0.140305 0.024333 0.108067 0.088484 0.140441 -0.123269 0.019738 0.076366 -0.110845 -0.054416 0.172563 -0.032645 -0.554091 0.129252 0.046174 -0.029023 0.075006 -0.025878 -0.032456 -0.001376 0.087492 0.039708 -0.113653 0.170253 -0.063084 -0.158532 -0.146872 -0.160415 -0.090077 -0.247793 0.345429 0.049784 -0.12352 -0.190056 0.137587 0.044401 0.06907 -0.073603 0.089408 -0.108273 -0.109381 -0.043305 0.077356 0.114705 0.031458 -0.118227 -0.078253 0.00558 0.095797 -0.302883 -0.193134 0.064689 0.258401 -0.084576 -0.097836 -0.06931 -0.165247 0.074528 0.014495 -0.199881 -0.003166 0.125861 -0.069371 0.0338 0.284407 0.029102 -0.00626 -0.020144 -0.027332 0.000927 -0.123268 -0.028795 -0.081999 0.008134 -0.209662 -0.022153 -0.037618 -0.157209 0.071234 -0.01338 -0.015258 0.168031 0.161213 -0.137189 0.067196 -0.289682 0.11101 0.15953 -0.032133 0.126617 0.177022 0.145319 0.008568 -0.030481 -0.08905 0.081758 -0.179644 0.154337 -0.043572 -0.066403 -0.115917 0.019172 -0.003678 -0.002635 -0.133632
w 0.021575 -0.105391 0.099205 0.173259 0.031184 -0.06265 0.166844 0.03858 -0.010691 -0.070209 0.001454 -0.146693 0.009382 0.016874 -0.24066 -0.040747 0.052001 -0.166033 0.023834 0.122031 -0.14394 -0.579901 0.047164 -0.000301 -0.040681 -0.089837 0.059947 0.016457 -0.038371 -0.021502 -0.000959 0.068952 0.014967 0.097079 0.038633 0.042349 0.250765 0.175844 0.03189 0.031178 0.039113 0.118014 0.029966 -0.107771 0.098572 -0.040525 -0.164744 0.022953 -0.054947 -0.065491 0.065922 -0.030135 0.048591 -0.190157 -0.065979 0.065008 0.069558 -0.015088 -0.047754 -0.063664 -0.040828 0.010584 0.186983 -0.039017 -0.052265 0.101947 0.029491 -0.12114 -0.073939 -0.000159 -0.135892 -0.052471 -0.051937 -0.136425 -0.009277 -0.18493 0.065008 0.13535 0.094077 0.076266 0.016363 0.112814 0.130753 -0.050045 -0.052344 -0.058762 0.099368 0.121976 -0.191706 0.207891 -0.009416 -0.056547 -0.101162 -0.044884 0.089282 -0.020397 0.016717 0.065362 0.024045 0.057762 -0.044049 0.033793 0.012257 -0.026291 -0.022988 0.088606 0.0049 -0.402866 0.09532 0.049635 -0.00153 0.124111 0.000434 -0.12714 -0.013489 0.039161 0.037937 -0.015298 0.107681 0.062197 -0.076194 -0.034278 -0.154979 -0.089598 -0.166473 0.274835 -0.061581 -0.071453 -0.150361 0.06642 0.052047 -0.022278 -0.094094 0.116076 -0.079788 -0.10193 0.001283 0.125291 0.148754 0.001644 -0.031038 -0.033402 -0.040538 0.072392 -0.339525 -0.066122 0.042251 0.156615 -0.024916 -0.069441 -0.014774 -0.11743 0.032057 0.062609 -0.122999 0.051933 0.054522 -0.060599 0.026008 0.250576 0.001939 0.001991 0.067736 -0.025984 -0.001781 -0.108878 0.035164 -0.030072 0.130698 -0.274334 -0.008628 0.015343 -0.1337 0.000614 -0.030074 -0.076267 0.117692 0.114233 -0.042599 0.01241 -0.356315 0.112235 0.052989 -0.06244 0.009963 0.126358 0.103547 -0.011773 -0.035789 -0.076098 0.152636 -0.10855 0.052863 -0.025682 -0.070248 -0.097133 1.8e-05 -0.005624 0.026794 -0.1523
b -0.006388 -0.120135 0.105332 0.176256 0.039621 -0.073707 0.164807 0.059861 -0.00313 -0.087392 -0.026147 -0.128425 0.000553 0.030802 -0.24837 -0.051094 0.069166 -0.137876 0.007346 0.076948 -0.162094 -0.588775 0.041396 0.009866 -0.075806 -0.114104 0.044035 -0.016146 -0.027831 -0.02297 -0.008979 0.071792 0.012614 0.052155 0.033371 0.049961 0.238036 0.131124 0.00949 0.009716 0.032035 0.109184 0.016024 -0.103349 0.100383 -0.058758 -0.193597 0.051149 -0.057126 -0.071752 0.058684 -0.016038 0.030322 -0.214876 -0.064815 0.052124 0.070748 -0.042836 -0.063921 -0.071058 -0.046402 -0.034049 0.189218 -0.014695 -0.052211 0.104955 0.008068 -0.13424 -0.122232 0.002781 -0.126743 -0.01073 -0.072356 -0.123509 -0.027969 -0.214364 0.070743 0.124605 0.079387 0.069665 0.022942 0.100063 0.117505 -0.059629 -0.028869 -0.015585 0.12274 0.132346 -0.232521 0.224167 -0.020302 -0.061883 -0.092019 -0.043958 0.097602 -0.023477 0.041936 0.073673 0.031296 0.051587 -0.043977 0.01214 0.032512 -0.06221 -0.040637 0.090592 -0.013709 -0.390311 0.129061 0.041836 0.025253 0.141913 0.009122 -0.134593 0.014519 0.043661 0.030651 -0.036392 0.136581 0.070872 -0.058984 -0.002567 -0.156999 -0.071223 -0.179157 0.280373 -0.034851 -0.091985 -0.146143 0.077518 0.044735 -0.016092 -0.114518 0.140453 -0.065706 -0.101665 0.013821 0.095857 0.130237 -0.020434 -0.019916 -0.022781 -0.043435 0.048694 -0.372726 -0.075381 0.078158 0.151919 -0.00699 -0.067889 -0.038395 -0.130033 0.027718 0.033957 -0.15065 0.046343 0.069448 -0.060168 0.023307 0.266196 -0.011332 -0.009792 0.039281 -0.032212 -0.01887 -0.077816 0.046207 -0.024911 0.129984 -0.269123 -0.046724 0.003501 -0.1075 0.011845 -0.010489 -0.079807 0.10107 0.12114 -0.022203 0.060555 -0.346906 0.0748 0.061108 -0.049096 0.00179 0.137318 0.09289 -0.017397 -0.039116 -0.086522 0.140837 -0.104561 0.039844 -0.035403 -0.079296 -0.080234 0.026803 -0.026592 0.018767 -0.16743
y 0.025164 -0.125453 0.121741 0.152602 0.029044 -0.083114 0.158357 0.067323 0.001412 -0.094825 -0.010782 -0.127733 -0.012802 0.014823 -0.250103 -0.040849 0.060497 -0.134632 0.018153 0.059273 -0.143366 -0.574569 0.036939 0.009573 -0.056587 -0.105656 0.06484 0.00182 -0.036538 -0.016616 -0.022868 0.066517 0.029695 0.074925 0.031871 0.035307 0.220736 0.119264 -0.001698 0.028845 0.023177 0.104107 0.023501 -0.103382 0.099909 -0.056855 -0.187995 0.041497 -0.062768 -0.05873 0.057852 -0.036545 0.013181 -0.20391 -0.046424 0.036512 0.074245 -0.052366 -0.066227 -0.070931 -0.075538 -0.014856 0.182369 -0.001171 -0.052436 0.104067 0.028313 -0.132379 -0.127339 0.024771 -0.116179 -0.009899 -0.058652 -0.106208 -0.049644 -0.219237 0.04606 0.107324 0.074667 0.081366 0.035937 0.104222 0.096305 -0.07099 0.009109 -0.019052 0.140771 0.109625 -0.218663 0.232996 -0.022005 -0.045589 -0.087399 -0.031008 0.086419 -0.015719 0.045136 0.08757 0.05099 0.076598 -0.041663 0.015241 0.017348 -0.044935 -0.029165 0.083058 -0.031177 -0.403513 0.103271 0.045955 0.05612 0.132476 0.005724 -0.144365 0.010118 0.04566 0.00516 -0.032313 0.123885 0.071252 -0.070431 0.011851 -0.164981 -0.067731 -0.191164 0.283239 -0.018058 -0.077053 -0.142179 0.081689 0.050062 -0.007485 -0.107078 0.138795 -0.074462 -0.099031 0.019528 0.088828 0.143404 -0.044828 -0.025125 -0.009118 -0.056707 0.045155 -0.339031 -0.079921 0.048599 0.130448 -0.02259 -0.074908 -0.043596 -0.1293 0.023174 0.054496 -0.164412 0.023714 0.075837 -0.036737 0.010318 0.279769 0.020146 -0.002097 0.042224 -0.029274 -0.016819 -0.099714 0.038027 -0.020068 0.119003 -0.263122 -0.027242 0.008174 -0.10395 0.017255 -0.015756 -0.069895 0.094802 0.113374 -0.015029 0.065933 -0.3284 0.070994 0.04965 -0.056298 0.013349 0.166665 0.100432 -0.011329 -0.031304 -0.090264 0.140113 -0.137442 0.05506 -0.03211 -0.060927 -0.103814 0.034093 -0.010161 0.020641 -0.185087
( 0.62088 0.585545 0.177208 0.235121 -0.076745 0.163208 -0.31167 0.078391 -0.013701 -0.217599 0.207202 -0.127782 0.266426 -0.126913 -0.224433 0.284676 -0.31012 -0.387937 -0.248283 0.201192 -0.622106 -0.568019 -0.371069 0.330004 0.291537 0.147213 0.045139 -0.138245 0.154347 0.128281 0.04707 0.483834 0.123479 0.045974 0.006064 -0.148081 0.429025 0.680012 0.137562 0.269051 -0.04906 -0.140242 0.464981 -0.072355 -0.04129 -0.003775 -0.196011 0.13079 -0.170717 -0.17602 0.288587 -0.171868 0.165834 0.604252 -0.102089 0.173526 0.056867 -0.118464 0.456305 -0.031547 -0.322646 0.089959 0.945274 -0.221618 -0.26952 -0.376044 0.269062 0.368808 0.379698 -0.009885 -0.466659 -0.116232 0.063785 -0.474762 0.039185 0.061692 -0.327677 -0.017393 0.225294 0.165701 0.402524 0.056154 0.592467 -0.266678 -0.079797 -0.291799 0.241095 -0.029543 -0.381143 0.132815 0.043752 0.162455 0.08369 -0.23997 0.152432 0.122366 -0.043954 -0.220065 -0.328227 0.403644 -0.329716 -0.042335 0.136853 -0.008504 -0.007782 -0.003284 -0.153796 -0.450338 0.398261 -0.091023 0.279072 0.173053 0.159606 0.290551 -0.254694 -0.355881 0.279145 0.547013 0.265989 0.18131 0.103919 -0.11147 -0.103259 -0.295099 -0.124652 0.375818 -0.299805 -0.331732 -0.412584 -0.182002 0.168235 -0.031878 0.112096 -0.347358 0.235258 -0.355388 -0.19864 0.290825 0.118456 0.006828 0.161442 -0.125626 -0.012085 -0.206877 -0.363899 0.288287 -0.286768 0.736876 -0.369982 -0.206844 0.028741 0.110184 -0.147655 0.076635 0.246123 0.203231 0.059811 -0.090249 0.132718 -0.235473 0.028265 -0.096506 -0.159718 0.007853 -0.019863 -0.341423 0.198209 0.360855 -0.085778 -0.228985 -0.292773 -0.021297 -0.333144 0.204101 -0.030799 0.315985 0.439084 0.397846 0.129198 0.005448 -0.349474 0.464196 -0.042064 -0.254481 0.016392 -0.240497 0.079159 -0.111633 -0.255264 -0.092619 -0.174409 -0.154897 0.334622 -0.360605 -0.170248 -0.417338 -0.397446 -0.302391 0.163228 -0.200063
) 0.617326 0.5846 0.186524 0.227418 -0.075161 0.166569 -0.308004 0.079659 -0.015109 -0.222739 0.197399 -0.126308 0.260904 -0.13272 -0.218302 0.281304 -0.297719 -0.38395 -0.247988 0.19338 -0.613871 -0.555556 -0.362569 0.327675 0.300932 0.150636 0.049559 -0.14035 0.158386 0.122645 0.040371 0.488507 0.118283 0.045805 0.014416 -0.157852 0.429588 0.678623 0.137446 0.273854 -0.046441 -0.142667 0.459122 -0.070894 -0.035421 -0.005113 -0.197503 0.139136 -0.179379 -0.180337 0.285075 -0.174085 0.164826 0.606744 -0.103783 0.179859 0.06265 -0.1196 0.457139 -0.021947 -0.327198 0.091955 0.940247 -0.230725 -0.266256 -0.365607 0.269044 0.362056 0.380756 -0.006072 -0.461134 -0.113262 0.054268 -0.479048 0.028483 0.062986 -0.327375 -0.025275 0.222463 0.163754 0.406097 0.061839 0.591404 -0.262736 -0.077845 -0.292026 0.247232 -0.031977 -0.374494 0.137797 0.05128 0.169254 0.092655 -0.251801 0.152557 0.123159 -0.041356 -0.228122 -0.337056 0.397154 -0.327071 -0.033499 0.133366 -0.018821 -0.009141 -0.008413 -0.157139 -0.458973 0.397538 -0.095254 0.274005 0.17573 0.154881 0.296268 -0.249309 -0.353045 0.272266 0.549539 0.267786 0.172907 0.097657 -0.108115 -0.10648 -0.284357 -0.127868 0.375843 -0.299429 -0.333966 -0.409029 -0.183118 0.179947 -0.027811 0.10931 -0.35459 0.227221 -0.357967 -0.199707 0.290617 0.113952 -0.006415 0.172637 -0.114727 -0.010116 -0.210787 -0.355077 0.295631 -0.28215 0.730903 -0.366228 -0.215354 0.025472 0.109705 -0.161196 0.076541 0.24782 0.204072 0.060328 -0.092795 0.134689 -0.225808 0.027356 -0.099053 -0.163642 -0.001563 -0.025172 -0.337193 0.204819 0.370711 -0.088202 -0.238138 -0.293853 -0.018188 -0.320345 0.206846 -0.029912 0.313886 0.440985 0.390561 0.113888 0.001146 -0.347692 0.454083 -0.031433 -0.247496 0.004882 -0.234634 0.079409 -0.098954 -0.253917 -0.081397 -0.173156 -0.165601 0.339603 -0.359922 -0.182627 -0.419141 -0.387415 -0.295182 0.156141 -0.20026
m -0.003065 -0.102521 0.110319 0.161408 0.043091 -0.080703 0.15863 0.066958 0.001289 -0.094155 -0.02934 -0.11375 -0.003615 0.043933 -0.245067 -0.056744 0.064446 -0.117876 0.009033 0.07609 -0.155244 -0.570219 0.038384 0.009407 -0.066979 -0.099686 0.064202 0.004722 -0.020642 -0.010967 -0.008626 0.067948 0.018875 0.038596 0.03613 0.055106 0.23707 0.123911 0.01292 0.005949 0.040223 0.103997 0.029713 -0.101449 0.088385 -0.048529 -0.203685 0.051963 -0.059014 -0.077149 0.046992 -0.032839 0.02327 -0.205578 -0.065557 0.052021 0.091858 -0.042271 -0.070219 -0.079899 -0.052289 -0.034865 0.194652 -0.007846 -0.053779 0.100046 0.022604 -0.131265 -0.123328 -0.003643 -0.127246 0.00411 -0.054128 -0.121335 -0.029056 -0.210864 0.068035 0.115486 0.069768 0.070188 0.025289 0.090488 0.117726 -0.061403 -0.018934 -0.019225 0.130619 0.135193 -0.214665 0.236383 -0.017176 -0.054687 -0.081785 -0.034854 0.105518 -0.023866 0.044258 0.084236 0.044221 0.061262 -0.052847 0.013653 0.022432 -0.057759 -0.036867 0.091282 -0.014909 -0.406758 0.128101 0.052564 0.044001 0.133081 0.014882 -0.130109 0.020533 0.054174 0.030635 -0.029127 0.131361 0.066242 -0.066002 -0.021398 -0.160803 -0.06451 -0.187148 0.287097 -0.024579 -0.091739 -0.15757 0.084432 0.044591 -0.000974 -0.128453 0.148632 -0.071255 -0.112885 0.009603 0.09924 0.128975 -0.029536 -0.032293 -0.021872 -0.04749 0.042149 -0.367215 -0.087212 0.055546 0.162888 -0.012532 -0.075186 -0.050865 -0.118507 0.03475 0.041725 -0.159062 0.037998 0.070174 -0.061951 0.020136 0.272697 -0.007937 -0.010064 0.041567 -0.037334 -0.010013 -0.075559 0.045423 -0.03952 0.127178 -0.242262 -0.037756 -0.005642 -0.098363 0.006965 -0.022317 -0.077928 0.105516 0.133932 -0.021816 0.067034 -0.334115 0.074902 0.083372 -0.057244 0.022313 0.1401 0.088764 -0.023994 -0.03954 -0.098333 0.124667 -0.11081 0.0548 -0.03825 -0.08708 -0.091552 0.04212 -0.033959 0.020154 -0.171838
` 0.377176 0.390016 -0.037023 -0.112878 -0.122756 0.185138 -0.45704 0.225153 -0.149478 0.220852 0.126573 0.155486 0.017962 -0.079142 0.029508 0.022538 -0.382874 0.559308 -0.003434 0.265259 0.462382 1.290022 0.124773 0.187658 -0.094608 -0.001096 0.073016 -0.12957 0.026379 -0.059441 -0.283096 -0.075144 -0.075758 -0.126446 -0.231424 -0.016069 -0.173074 -0.196206 -0.001602 0.385216 0.199362 0.125309 -0.417655 0.206547 -0.180282 0.127716 0.244522 -0.096028 0.079546 -0.000171 0.29357 0.126828 -0.01303 -0.333848 -0.009339 -0.289888 -0.010686 -0.186238 -0.28973 0.148592 0.261432 -0.314804 -0.129916 0.029953 -0.392958 0.098327 -0.026606 0.426498 0.28634 0.283176 0.308982 -0.129206 0.206873 0.069004 -0.604194 -0.080974 -0.038214 0.100828 -0.217504 -0.111109 -0.022416 -0.26882 0.157377 0.433599 -0.474606 -0.334883 -0.323925 -0.152809 0.072492 -0.895948 0.140428 0.065562 0.29628 -0.114012 -0.264984 0.161363 0.142251 0.058786 -0.006661 -0.005655 0.033244 0.082472 0.484688 0.19748 0.24928 -0.029635 -0.287558 0.64596 -0.221296 0.166798 0.077507 0.080654 -0.020472 0.047369 -0.172531 0.05033 0.105246 -0.108472 -0.224071 0.096798 0.196642 0.060532 0.319662 -0.311229 -0.287835 0.062148 -0.055732 -0.171716 0.210236 -0.328087 -0.091178 -0.063342 -0.246266 0.122792 -0.111708 -0.470648 0.288664 -0.058453 -0.090436 -0.203354 0.108662 0.050279 0.271781 -0.369154 0.834764 0.170573 0.266839 -0.021626 -0.082909 0.343762 0.40772 0.606852 -0.298777 0.260768 0.233638 -0.040487 0.154674 0.002354 0.22783 0.315551 0.129368 -0.139988 0.097782 -0.215031 0.198007 -0.36045 0.2585 -0.018352 -0.013468 -0.308367 0.107596 -0.046638 0.228066 0.087304 -0.086565 -0.257047 -0.250592 0.07529 0.141067 0.695872 0.48232 -0.254496 -0.333032 0.266829 -0.354316 -0.393828 0.221324 -0.019327 -0.084131 -0.035828 -0.315238 -0.041976 0.253515 -0.124787 0.061346 -0.381011 0.121146 0.305356 0.30615 0.406705
v -8.8e-05 -0.089129 0.142813 0.170738 0.024784 -0.101025 0.150818 0.07206 0.013121 -0.067635 -0.026703 -0.107654 -0.02034 0.025793 -0.239077 -0.027643 0.062301 -0.104486 0.004759 0.055901 -0.176275 -0.557724 0.028963 0.006372 -0.082241 -0.092624 0.067063 -0.010268 -0.024591 -0.019413 -0.0521 0.071128 0.00386 0.009218 0.03251 0.055331 0.230985 0.127465 0.006127 0.004567 0.02741 0.083861 0.017837 -0.108288 0.088904 -0.061071 -0.195294 0.041966 -0.071038 -0.084187 0.052473 -0.012821 0.020414 -0.18928 -0.083413 0.040839 0.076201 -0.048849 -0.048625 -0.052952 -0.093362 -0.038028 0.209508 -0.019144 -0.035994 0.134958 -0.002247 -0.140829 -0.10936 -0.016091 -0.147926 -2.9e-05 -0.055765 -0.135232 -0.031964 -0.197656 0.065256 0.12091 0.060406 0.055159 0.030535 0.100655 0.130709 -0.065967 -0.005491 -0.000939 0.149362 0.141056 -0.220912 0.260998 -0.02889 -0.060417 -0.085985 -0.036446 0.124071 -0.052019 0.049595 0.085152 0.041648 0.051143 -0.039597 0.016822 0.020984 -0.085602 -0.029529 0.072437 0.009377 -0.410078 0.148358 0.054491 0.050559 0.149106 0.018611 -0.13908 0.02539 0.044963 0.005709 -0.033235 0.133888 0.087623 -0.068328 -0.018943 -0.134965 -0.067873 -0.20159 0.287533 -0.050826 -0.11169 -0.155808 0.059075 0.0515 -0.022772 -0.13173 0.149983 -0.073867 -0.070242 0.035048 0.086574 0.10993 -0.037095 -0.019088 -0.022286 -0.048037 0.048479 -0.343318 -0.070517 0.0431 0.162735 -0.028298 -0.071531 -0.061026 -0.132365 0.04647 0.038229 -0.16062 0.011 0.06573 -0.057528 0.026836 0.285647 -0.011893 -0.009396 0.001215 -0.013916 -0.022747 -0.078209 0.056892 -0.029194 0.150447 -0.249352 -0.034365 -0.012992 -0.093989 0.020049 0.000222 -0.070074 0.108727 0.146258 -0.010288 0.087019 -0.326892 0.042359 0.070774 -0.050087 0.01038 0.152254 0.128672 -0.033502 -0.047569 -0.072278 0.125685 -0.102949 0.003072 -0.042285 -0.084238 -0.099455 0.055507 -0.057041 0.020379 -0.160524
u 0.008966 -0.124446 0.119936 0.162723 0.036087 -0.085073 0.158054 0.068788 0.002691 -0.076757 -0.030673 -0.123239 -0.028109 0.041234 -0.241729 -0.049578 0.064575 -0.113709 0.011432 0.059382 -0.150775 -0.566894 0.044439 0.018549 -0.07134 -0.103817 0.059069 -0.004752 -0.025411 -0.012934 -0.004246 0.051978 0.018039 0.049967 0.046275 0.062133 0.228026 0.124652 0.008094 0.006488 0.045533 0.11106 0.02973 -0.097265 0.101454 -0.042332 -0.208394 0.063318 -0.06352 -0.070361 0.049225 -0.0192 0.036335 -0.205264 -0.058274 0.061693 0.073128 -0.057134 -0.073874 -0.069561 -0.059532 -0.051699 0.194485 -0.001008 -0.059288 0.125657 0.022453 -0.13446 -0.123902 -0.016091 -0.135906 -0.002404 -0.064062 -0.129537 -0.02793 -0.210779 0.059383 0.119125 0.076935 0.070039 0.03299 0.094562 0.127001 -0.064817 -0.024709 -0.017129 0.150096 0.133054 -0.227975 0.245736 -0.016564 -0.064165 -0.08751 -0.038862 0.098113 -0.035756 0.048948 0.079057 0.046829 0.060868 -0.045212 0.012624 0.024935 -0.062782 -0.022789 0.099684 -0.006003 -0.401206 0.128188 0.053999 0.04198 0.141825 0.033925 -0.11999 0.031399 0.051466 0.021506 -0.040127 0.121987 0.076633 -0.057431 -0.005746 -0.170342 -0.072702 -0.195417 0.289681 -0.022421 -0.093059 -0.140001 0.081054 0.057171 -0.001001 -0.128852 0.143745 -0.079826 -0.11181 0.0043 0.096921 0.131217 -0.040219 -0.028009 -0.023773 -0.046367 0.04082 -0.358373 -0.084344 0.069572 0.159057 -0.01823 -0.076624 -0.047761 -0.118148 0.035185 0.028694 -0.162806 0.033459 0.068281 -0.06399 0.020336 0.27442 -0.007631 -0.013798 0.036645 -0.046936 -0.017313 -0.065819 0.050426 -0.034651 0.118887 -0.25048 -0.051644 -0.015221 -0.101435 0.023239 -0.018456 -0.079639 0.108284 0.128945 -0.012731 0.071729 -0.329774 0.076172 0.073111 -0.057272 0.015095 0.167992 0.087396 -0.021164 -0.038053 -0.097038 0.116599 -0.125748 0.043767 -0.046664 -0.074791 -0.095065 0.0486 -0.034224 0.002862 -0.16375
c 0.018086 -0.08964 0.101843 0.143378 0.058443 -0.085031 0.137032 0.066796 -0.011117 -0.084359 -0.027235 -0.095575 -0.012276 0.042873 -0.233675 -0.050333 0.069108 -0.08567 0.012416 0.06412 -0.140198 -0.537641 0.029667 0.007698 -0.047866 -0.097293 0.06311 -0.002706 -0.014746 -0.01359 -0.003682 0.073087 0.027277 0.041226 0.02766 0.047908 0.227132 0.126374 0.011469 0.00511 0.063538 0.092884 0.055072 -0.09995 0.098376 -0.044225 -0.170281 0.045056 -0.063819 -0.053502 0.020994 -0.037063 0.018931 -0.164524 -0.051896 0.054913 0.090171 -0.04874 -0.082449 -0.068956 -0.029367 -0.03275 0.188532 -0.014544 -0.048228 0.111443 0.041495 -0.112154 -0.119576 -0.007261 -0.124224 0.018491 -0.051899 -0.122205 -0.049799 -0.2023 0.06654 0.091375 0.077463 0.044266 0.014697 0.089638 0.134541 -0.070744 -0.017319 -0.018017 0.131287 0.125593 -0.172293 0.204189 -0.004315 -0.032999 -0.058796 -0.004402 0.122734 -0.042318 0.071205 0.079978 0.036182 0.071195 -0.058978 0.021018 0.027973 -0.056644 -0.043631 0.102745 -0.019977 -0.387896 0.126616 0.046082 0.044887 0.113719 0.026062 -0.12632 0.042477 0.044669 0.023938 -0.033619 0.116216 0.049534 -0.044573 -0.034162 -0.156908 -0.072717 -0.219499 0.273682 -0.011725 -0.080843 -0.167139 0.077796 0.023936 0.013862 -0.115613 0.128574 -0.077035 -0.111536 -0.006006 0.086226 0.130585 -0.036973 -0.034818 -0.023685 -0.03487 0.031173 -0.347657 -0.084186 0.047075 0.151797 -0.01475 -0.087324 -0.053148 -0.129245 0.01729 0.019533 -0.131318 0.021805 0.064351 -0.054651 0.043258 0.276088 -0.000916 -0.018954 0.023568 -0.020928 -0.013804 -0.072705 0.052183 -0.046652 0.108244 -0.211184 -0.05316 0.010281 -0.098104 0.026518 -0.010168 -0.06898 0.123531 0.148623 -0.02499 0.072205 -0.287478 0.05436 0.084127 -0.048267 0.033518 0.140942 0.099004 -0.033665 -0.038506 -0.054619 0.110805 -0.126288 0.049143 -0.036977 -0.082805 -0.106385 0.038219 -0.006875 0.029696 -0.148427
l 0.001534 -0.116191 0.105137 0.161907 0.032705 -0.074622 0.158634 0.064822 -0.001195 -0.088155 -0.013985 -0.112855 -0.015924 0.037792 -0.242708 -0.050464 0.070593 -0.11963 0.018295 0.06565 -0.152214 -0.578011 0.044352 0.016534 -0.054461 -0.108615 0.056354 -0.013578 -0.026237 -0.024405 -0.008096 0.082613 0.027933 0.058604 0.03445 0.032518 0.229764 0.117181 0.01256 0.00943 0.034161 0.103891 0.026447 -0.100436 0.102994 -0.063318 -0.186297 0.055525 -0.056872 -0.060235 0.047828 -0.02186 0.014201 -0.185376 -0.051355 0.051434 0.078604 -0.043775 -0.071974 -0.080009 -0.050139 -0.024588 0.187445 -0.015878 -0.047408 0.116573 0.020744 -0.128058 -0.125011 0.000952 -0.132543 -0.002125 -0.065143 -0.112827 -0.044197 -0.214696 0.049401 0.102905 0.066897 0.07234 0.027466 0.09879 0.114273 -0.058475 -0.011077 -0.019919 0.133348 0.120774 -0.220997 0.215485 -0.018955 -0.055775 -0.082808 -0.022757 0.104672 -0.027576 0.06666 0.080352 0.031854 0.067139 -0.04688 0.016677 0.030509 -0.059739 -0.03599 0.086615 -0.016228 -0.389585 0.120958 0.040097 0.034701 0.131192 0.011751 -0.138972 0.029891 0.042027 0.021525 -0.042649 0.131162 0.065491 -0.060033 -0.008208 -0.15848 -0.080314 -0.196009 0.275366 -0.019198 -0.078002 -0.156495 0.080289 0.047099 -0.007448 -0.10384 0.128033 -0.063905 -0.093783 0.011591 0.085077 0.13043 -0.029837 -0.021202 -0.016225 -0.047936 0.043012 -0.357602 -0.071979 0.068353 0.151437 -0.015533 -0.066819 -0.05315 -0.133074 0.021714 0.027468 -0.154049 0.030832 0.069048 -0.047809 0.027093 0.282273 -0.006357 -0.017381 0.031198 -0.021256 -0.016059 -0.080207 0.048026 -0.035111 0.121876 -0.256646 -0.049327 0.003071 -0.09235 0.032539 -0.007289 -0.08095 0.115799 0.122994 -0.018563 0.068111 -0.318621 0.061273 0.06157 -0.042907 0.018027 0.147985 0.10276 -0.026083 -0.041874 -0.074134 0.126993 -0.125615 0.045881 -0.039807 -0.079093 -0.099409 0.030994 -0.010597 0.027631 -0.174007
: -0.085466 0.410714 0.228549 -0.075587 -0.191928 -0.085801 0.040775 -0.189843 -0.002459 0.171096 0.160227 -0.176406 -0.03849 -0.146796 -0.397927 0.146341 0.069686 -0.463406 0.014968 -0.089418 -0.059825 -0.725166 -0.055896 -0.241643 -0.009409 0.162829 -0.12391 0.346999 -0.16323 -0.04387 -0.007996 0.25765 0.14314 -0.030625 0.077539 0.317493 0.323478 0.305928 0.003523 0.129296 0.316139 -0.070467 0.349206 -0.101853 -0.141112 0.274093 -0.284601 -0.044039 -0.179306 -0.279294 0.121141 -0.079411 0.122491 0.139708 0.088523 0.118405 0.206368 0.224728 0.249036 -0.230459 -0.246265 -0.049735 0.164028 0.032599 -0.216102 -0.124543 0.251077 -0.037914 0.129728 -0.146802 -0.164242 -0.424014 0.133974 0.049273 0.393021 -0.119643 -0.006959 0.233001 0.117007 -0.081194 -0.044784 -0.135793 0.672791 -0.157631 -0.216136 0.104847 0.40201 0.202452 -0.122791 0.174642 0.032207 -0.117573 -0.248981 0.201926 0.342848 -0.200043 -0.052983 -0.116351 0.344219 0.105938 -0.218415 0.357106 0.067595 0.048221 -0.180561 0.029724 0.033902 -0.470504 0.27285 0.156762 -0.08047 0.121889 0.136294 0.101371 -0.020032 -0.174935 0.132449 0.038377 0.40287 0.18806 -0.168332 -0.397815 -0.022714 -0.166082 -0.012701 0.321384 0.113307 -0.281891 -0.084234 0.222761 0.309181 -0.065559 -0.110388 -0.020741 -0.27561 -0.476882 0.181913 -0.056694 0.190862 0.137617 -0.349192 -0.209014 -0.030563 -0.017725 -0.204911 0.019171 -0.261468 0.442171 -0.367149 -0.154729 0.271485 0.158192 0.071844 0.014554 -0.299544 -0.189221 0.059951 -0.55208 0.183309 0.126423 0.106412 -0.089903 0.118678 -0.134666 -0.200818 0.112414 0.069317 0.280739 -0.23575 -0.311594 0.026273 0.024283 -0.150991 -0.202926 -0.067378 -0.042072 0.244389 0.329498 0.067698 -0.330882 -0.413247 -0.064378 0.237457 0.257684 0.20714 -0.216935 0.140891 -0.054096 -0.000486 0.178728 -0.102945 -0.088271 0.308238 -0.176458 0.076626 -0.279732 -0.114892 0.072131 0.026839 -0.344139
p 0.024101 -0.090075 0.095193 0.149204 0.055482 -0.09716 0.136201 0.084687 -0.018925 -0.076878 -0.03537 -0.088487 -0.008309 0.041927 -0.236315 -0.054652 0.071141 -0.079733 0.015083 0.068521 -0.142635 -0.510849 0.03093 -0.000821 -0.050207 -0.120251 0.062241 0.014995 -0.027361 -0.006512 -0.002307 0.055752 0.024525 0.05425 0.032337 0.052953 0.227335 0.108276 0.015555 -0.002118 0.07684 0.105978 0.061805 -0.09418 0.096906 -0.029601 -0.188811 0.042968 -0.074904 -0.036994 0.026766 -0.051913 0.019169 -0.16328 -0.047121 0.055332 0.079844 -0.054535 -0.097529 -0.05592 -0.040746 -0.048583 0.185509 -0.029795 -0.056629 0.122376 0.0338 -0.128353 -0.109131 -0.026097 -0.108685 0.029036 -0.056579 -0.126881 -0.058703 -0.193675 0.052398 0.09367 0.080813 0.037975 0.023906 0.094254 0.134429 -0.066943 -0.019655 -0.026944 0.151115 0.118956 -0.1616 0.204308 -0.008619 -0.039401 -0.045727 -0.011256 0.141189 -0.056997 0.066736 0.072588 0.041303 0.064473 -0.049854 0.02314 0.032431 -0.054045 -0.040919 0.108393 -0.019034 -0.409562 0.129594 0.048153 0.041168 0.108301 0.029072 -0.120428 0.046977 0.05828 0.035017 -0.030668 0.10939 0.02993 -0.046628 -0.033446 -0.159923 -0.067949 -0.2183 0.276218 0.004732 -0.081588 -0.165106 0.082104 0.011397 0.02668 -0.121306 0.123034 -0.087435 -0.124386 -0.020417 0.077389 0.142561 -0.048511 -0.044205 -0.03624 -0.007705 0.025882 -0.328688 -0.088906 0.053205 0.164661 -0.032804 -0.08767 -0.058642 -0.108964 0.014349 0.022525 -0.140122 0.025417 0.065305 -0.050216 0.038938 0.276957 0.000307 -0.009975 0.023042 -0.029608 -0.016677 -0.081875 0.04212 -0.050845 0.084146 -0.210868 -0.062771 0.008397 -0.086079 0.033312 -0.003226 -0.068349 0.113171 0.147623 -0.03485 0.084334 -0.279073 0.062978 0.088528 -0.045 0.041306 0.155032 0.097502 -0.026633 -0.038173 -0.066832 0.104294 -0.130538 0.05432 -0.034078 -0.070506 -0.116734 0.036791 -0.006857 0.023888 -0.136762
g 0.005127 -0.107571 0.106596 0.160711 0.038456 -0.069608 0.159258 0.062893 -0.002703 -0.057948 -0.024027 -0.105245 -0.00765 0.037074 -0.232896 -0.049206 0.079732 -0.126677 0.014873 0.068543 -0.12998 -0.544177 0.065272 0.01352 -0.054829 -0.090484 0.052502 0.001753 -0.02138 -0.009572 -0.013534 0.048863 0.026922 0.078853 0.022097 0.04632 0.21636 0.138214 0.002534 0.017308 0.054361 0.102113 0.032478 -0.090896 0.1186 -0.032499 -0.19111 0.059271 -0.062466 -0.046904 0.044533 -0.014634 0.038 -0.193813 -0.068667 0.066348 0.078545 -0.041107 -0.077907 -0.06232 -0.047026 -0.03347 0.176129 0.000207 -0.046956 0.122955 0.02215 -0.11752 -0.125449 -0.009113 -0.131174 -0.01613 -0.062783 -0.123673 -0.043037 -0.189962 0.054074 0.110808 0.07559 0.065001 0.016751 0.114962 0.110641 -0.069763 -0.031412 -0.03062 0.151205 0.126387 -0.193269 0.218265 -0.018083 -0.071448 -0.078614 -0.020757 0.101242 -0.02354 0.047593 0.074934 0.046885 0.067442 -0.054794 0.010171 0.006332 -0.048473 -0.045673 0.104485 0.003375 -0.390193 0.11261 0.049763 0.045866 0.126343 0.026868 -0.123545 0.032495 0.050155 0.020625 -0.037348 0.101669 0.056253 -0.054827 -0.008324 -0.168082 -0.068347 -0.198198 0.286132 -0.013278 -0.086596 -0.141149 0.080925 0.038718 0.017111 -0.09934 0.125103 -0.082626 -0.090099 0.016334 0.090972 0.138322 -0.023827 -0.032317 -0.029548 -0.041677 0.042915 -0.339795 -0.07517 0.061881 0.139058 -0.033184 -0.070345 -0.04447 -0.109915 0.01278 0.022569 -0.161144 0.032864 0.064405 -0.055238 0.009235 0.274868 0.008819 -0.005132 0.031527 -0.032225 -0.022312 -0.069834 0.046432 -0.042447 0.107631 -0.238623 -0.053615 -0.001582 -0.10774 0.011686 -0.014217 -0.086357 0.099516 0.115551 -0.021929 0.058193 -0.322384 0.073579 0.06083 -0.051506 0.004969 0.157252 0.09842 -0.013518 -0.046998 -0.074817 0.121207 -0.120443 0.039166 -0.017313 -0.047286 -0.096047 0.042846 -0.009784 0.019292 -0.165041
$ 0.040099 -0.212179 -0.169966 0.375532 0.040102 -0.340427 0.498269 -0.15415 -0.039876 -0.197783 -0.154312 0.018703 -0.081547 -0.050606 -0.02383 -0.015981 -0.039184 0.067459 0.240947 -0.259718 -0.271227 -0.112889 -0.500436 -0.057702 -0.613761 -0.030051 0.06794 0.184838 -0.201664 0.37915 0.058263 0.103803 0.131636 0.207905 -0.200993 0.155619 0.241464 -0.540992 -0.342814 -0.121818 0.095114 0.155838 0.158894 -0.370254 0.046018 0.03864 -0.132008 0.485187 -0.156508 -0.017771 0.180928 -0.34386 0.326126 0.133446 0.475878 -0.238314 -0.270284 0.409401 -0.624777 -0.201144 -0.080354 0.053181 0.018515 -0.30862 0.048029 -0.04221 0.347714 0.111015 -0.34591 -0.415395 -0.439924 -0.498725 -0.033268 -0.570988 0.26246 0.147224 0.157476 0.111953 -0.096012 0.643187 -0.199594 0.083243 0.227767 0.192141 -0.141705 -0.08061 0.311366 -0.314741 0.038304 0.590718 -0.006564 -0.318125 -0.354738 0.151727 0.704233 0.10805 0.2817 -0.111326 -0.252276 -0.163023 -0.34661 -0.17299 -0.258366 0.082684 -0.448064 0.086111 0.592972 -0.291466 0.116497 0.103495 -0.053734 0.148105 -0.128083 -0.060409 -0.28275 -0.429683 -0.134064 -0.129948 0.508598 -0.225526 -0.29154 -0.492378 -0.245415 0.213687 -0.319387 0.106261 -0.067071 -0.219755 -0.293453 0.069201 -0.018037 -0.293548 -0.409612 0.137135 0.03176 0.13724 0.004941 -0.045951 0.152322 0.239423 -0.299703 -0.498738 0.076424 0.085869 -0.699654 -0.173802 0.059538 0.475 0.05473 -0.081716 0.073262 0.272937 0.207772 -0.058245 -0.268511 0.011368 0.288123 -0.094613 -0.133892 -0.028945 -0.03867 0.108701 0.252125 -0.217398 -0.050919 0.103649 -0.244191 -0.074809 -0.052403 -0.139848 0.18313 0.132999 -0.038496 0.00428 0.351273 -0.399572 0.692401 0.392359 -0.064939 0.260552 0.047813 0.180236 0.311989 0.026424 -0.023834 0.147117 -0.004846 0.21035 -0.081968 -0.485778 -0.187972 0.129875 0.01808 -0.171465 0.150674 -0.169511 0.069343 -0.098962 -0.281274 -0.442604
; -0.058951 0.126514 -0.176355 0.132901 -0.08004 -0.126318 0.007731 0.003813 -0.14707 0.026042 -0.019406 -0.172085 0.215822 -0.098098 0.066566 0.031448 -0.01482 -0.036835 -0.046653 -0.077243 -0.023489 -0.208904 -0.195839 -0.093168 0.020077 -0.105522 0.115094 0.335954 -0.184691 0.136188 0.161669 -0.052532 0.198039 -0.180346 0.026472 0.25158 0.335735 0.055509 -0.169509 0.072755 0.06139 0.055708 0.124053 -0.253193 -0.107504 0.035159 -2.9e-05 -0.178893 0.016953 -0.048797 -0.058595 0.093519 0.112543 -0.057768 0.182312 -0.089692 -0.056244 0.170124 -0.024558 -0.016599 0.074532 -0.096385 0.124919 0.096088 -0.07345 -0.256639 0.123323 0.054176 -0.039043 0.227064 -0.113696 0.109314 -0.198031 -0.248378 0.114341 -0.060005 -0.073464 0.023969 0.170575 0.344758 -0.067052 -0.021136 0.051445 0.038124 -0.001143 -0.178631 0.06407 -0.0086 -0.06184 0.056266 0.053587 -0.073265 0.1262 0.244539 0.115747 -0.226208 -0.012414 0.117684 -0.19941 0.031057 -0.115957 0.011732 0.047632 0.013798 0.051841 0.148098 0.210427 -0.252583 -0.080945 0.055847 -0.088649 0.194087 -0.01972 0.061762 -0.022124 -0.169538 0.175208 0.236286 0.014971 0.075031 -0.119823 -0.390841 -0.190578 -0.098765 -0.164441 0.32656 -0.09032 -0.163939 -0.279604 -0.088265 -0.023292 -0.023087 -0.034237 0.096718 -0.312682 -0.351543 -0.00498 0.197599 0.185801 0.014241 -0.094481 -0.21809 -0.045429 -0.226649 -0.385585 -0.050624 -0.119457 0.366793 -0.129884 0.101368 0.280604 -0.016703 0.139667 -0.006834 -0.104717 0.06047 0.096366 -0.088591 0.124521 0.086408 -0.211671 0.1147 0.204527 0.151568 -0.231248 0.205701 -0.04798 0.068077 0.123116 -0.195525 0.077982 0.074305 -0.106333 0.067724 -0.101881 -0.037928 0.107861 0.140395 -0.127906 -0.079133 -0.195761 0.064918 0.1657 0.101852 0.089349 -0.004583 0.201732 -0.124109 0.170185 -0.088306 -0.031393 -0.005513 -0.044167 0.045646 0.091039 -0.245135 -0.186207 0.186427 0.226825 -0.07075
_ 0.267518 0.51082 0.266686 0.308757 -0.01355 0.090499 -0.078646 0.065533 0.01066 0.024249 -0.194916 -0.055564 0.057547 0.03884 -0.08683 -0.021649 0.006024 -0.079744 -0.110655 0.04544 -0.063979 -0.371804 -0.006201 0.083854 0.247958 -0.003889 -0.01662 -0.049519 -0.079098 0.075086 -0.100542 0.073784 0.111998 0.013727 0.124981 0.121983 0.25812 0.289438 0.118044 -0.042939 0.106267 0.132295 0.096314 -0.027457 -0.075633 0.116154 -0.001408 -0.077294 -0.044827 -0.17665 0.131577 -0.092977 0.106982 -0.055835 0.002278 0.282067 0.049875 -0.152051 0.138476 0.017098 -0.017455 0.033023 0.12049 -0.220822 -0.228948 -0.196253 0.267078 -0.07688 0.214432 0.093118 -0.270824 0.095895 -0.07514 -0.462898 -0.191394 0.02199 -0.201981 -0.084792 -0.022398 0.028223 -0.135335 0.033293 0.20323 -0.011654 -0.165462 -0.097843 0.057198 0.034085 -0.069449 0.105341 0.101381 0.003577 -0.274462 -0.011037 0.139226 -0.162085 -0.06885 -0.026972 -0.037787 0.014516 -0.11054 0.137418 0.053214 -0.09575 0.130084 0.048017 0.082164 -0.405979 -0.018332 0.123701 -0.141667 -0.014825 0.069482 0.065319 -0.226525 0.023157 0.107767 0.267145 -0.13594 0.042478 -0.06312 -0.169948 -0.025864 -0.259588 -0.341687 0.319056 -0.095325 -0.135612 -0.146428 0.066583 -0.001722 -0.032223 -0.058145 0.068532 -0.359047 -0.38347 -0.132171 0.155861 0.218582 -0.01403 -0.148097 0.103604 0.176215 -0.120174 -0.177484 0.084366 -0.080668 0.414831 -0.248605 -0.133738 0.037257 -0.003448 -0.07156 0.10123 -0.145917 0.093584 0.137561 -0.273559 0.347397 0.054281 -0.068773 -0.103262 0.252387 -0.133717 0.048591 -0.21239 0.072061 -0.053178 0.1467 -0.197211 -0.20217 0.102433 -0.041563 0.025341 -0.037779 0.08548 0.040622 0.189832 -0.017741 -0.050326 -0.501711 -0.00672 0.147219 -0.13021 0.143021 -0.212784 0.152203 -0.014874 -0.075707 -0.120962 -0.017357 -0.08243 0.134485 0.025457 -0.008341 -0.222083 0.071139 -0.014738 0.179574 -0.028546
k -0.031341 -0.134541 0.134223 0.183988 0.011081 -0.071298 0.205264 0.052512 0.025398 -0.080861 -0.021567 -0.145478 0.002528 0.034652 -0.238876 -0.043323 0.0581 -0.189063 0.00254 0.09385 -0.174627 -0.630656 0.046705 -0.009924 -0.093805 -0.092553 0.060171 -0.018707 -0.044011 -0.042485 -0.036652 0.057905 -0.00271 0.035348 0.035403 0.064294 0.264284 0.148428 0.004948 0.017669 -0.001667 0.110273 -0.002148 -0.124139 0.099832 -0.065354 -0.204935 0.037324 -0.052844 -0.091065 0.090047 0.006333 0.022364 -0.258086 -0.094166 0.038816 0.056676 -0.022328 -0.035588 -0.061142 -0.089862 -0.012873 0.194068 0.000963 -0.055313 0.10036 -0.018136 -0.155356 -0.11281 0.005895 -0.150943 -0.041602 -0.066145 -0.144819 -0.017803 -0.211157 0.088638 0.16725 0.055895 0.10266 0.027367 0.116011 0.115321 -0.055977 -0.040089 -0.033098 0.117793 0.151177 -0.273772 0.258638 -0.053027 -0.093124 -0.130256 -0.060213 0.099561 -0.011026 0.00878 0.09701 0.043688 0.052633 -0.028675 0.004826 0.008775 -0.067464 -0.027828 0.086469 -0.006925 -0.43159 0.127058 0.049574 0.042686 0.169726 0.006548 -0.149266 -0.015401 0.047079 0.026862 -0.030739 0.142119 0.125309 -0.064547 0.014414 -0.166403 -0.059173 -0.158281 0.290981 -0.068291 -0.099828 -0.130293 0.099002 0.088151 -0.02701 -0.136014 0.181116 -0.059734 -0.09999 0.038527 0.103311 0.123657 -0.030116 0.00065 -0.01481 -0.060387 0.073198 -0.393246 -0.061501 0.063984 0.144396 -0.020347 -0.070499 -0.031308 -0.112646 0.066311 0.071129 -0.175125 0.048818 0.087559 -0.071551 -0.001331 0.267929 -0.017366 0.026969 0.03957 -0.05378 -0.027922 -0.084215 0.031372 -0.02436 0.170824 -0.298059 -0.008379 -0.018173 -0.131324 -0.002146 -0.015492 -0.064692 0.088355 0.110763 -0.016646 0.042685 -0.413967 0.088053 0.0533 -0.048338 -0.01306 0.127072 0.119779 -0.014873 -0.033506 -0.12123 0.161264 -0.092103 0.025445 -0.039594 -0.064996 -0.056107 0.030903 -0.046586 -0.000381 -0.204311
j -0.0612 -0.115082 0.145108 0.19084 0.027775 -0.08428 0.171464 0.053825 0.022147 -0.088434 -0.054248 -0.156008 -0.005937 0.033947 -0.239997 -0.041296 0.057549 -0.169663 -0.012583 0.049364 -0.150244 -0.626512 0.062113 0.020175 -0.091939 -0.06517 0.048429 0.00128 -0.028619 -0.013545 -0.020801 0.044993 -0.024757 0.019199 0.050545 0.107296 0.275559 0.1356 0.022976 0.013666 -0.012626 0.102226 -0.029478 -0.117677 0.086835 -0.072218 -0.222301 0.039951 -0.058232 -0.119406 0.087626 -0.012774 0.04509 -0.26146 -0.105238 0.079688 0.076388 -0.063448 -0.026176 -0.06253 -0.078292 -0.053696 0.211266 0.034146 -0.071608 0.086912 -0.021452 -0.145943 -0.100962 -0.005076 -0.151523 -0.020947 -0.076246 -0.139503 0.002782 -0.228569 0.080334 0.160534 0.090644 0.100561 0.036761 0.11902 0.108612 -0.060966 -0.024524 -0.001018 0.142841 0.176705 -0.299759 0.293494 -0.052304 -0.104375 -0.148894 -0.0709 0.101504 -0.000273 -0.010317 0.092616 0.052445 0.070142 -0.036474 -0.002612 0.009188 -0.086306 -0.013821 0.064057 -0.000846 -0.416071 0.13598 0.051376 0.05929 0.174961 0.001532 -0.130378 -0.019163 0.043656 0.046948 -0.007334 0.118513 0.144945 -0.089146 0.005495 -0.16552 -0.031627 -0.14563 0.302956 -0.078829 -0.1046 -0.103148 0.088025 0.0874 -0.032849 -0.16317 0.196057 -0.078598 -0.122463 0.021525 0.107925 0.119754 -0.034554 -0.003311 -0.044657 -0.069437 0.062091 -0.39562 -0.099997 0.085945 0.165479 -0.018509 -0.082619 -0.021808 -0.122076 0.06902 0.070034 -0.191269 0.055342 0.080527 -0.089823 0.007486 0.27671 -0.018284 0.018419 0.036889 -0.051204 -0.013803 -0.044249 0.069792 -0.007175 0.163707 -0.290625 -0.028342 -0.037622 -0.108834 -0.025855 -0.020498 -0.069355 0.092845 0.1387 -0.016738 0.025747 -0.429515 0.102118 0.073485 -0.082007 -0.016998 0.123813 0.086473 -0.022358 -0.047155 -0.132593 0.123744 -0.102017 0.027793 -0.063155 -0.088774 -0.018975 0.06723 -0.086949 -0.014492 -0.198372
1 0.032228 -0.13598 0.013502 0.055934 0.014628 -0.148987 0.18011 -0.079281 -0.112954 0.071604 -0.058813 -0.073754 0.050269 -0.127911 -0.231261 0.059168 0.105531 -0.223582 0.054373 -0.002655 -0.174743 -0.632061 -0.052908 -0.017953 -0.264728 -0.105799 -0.079686 0.186115 -0.018085 0.100401 0.120394 -0.091906 0.15856 -0.018009 -0.027399 0.12915 0.258514 0.119854 -0.021018 -0.020005 0.213607 0.057903 0.192401 -0.212106 0.041367 0.102358 -0.257261 0.21094 -0.179143 -0.043275 -0.051825 -0.188093 0.215318 0.163113 -0.029052 0.086176 0.024938 0.092645 -0.136537 -0.134067 -0.189518 -0.133703 0.241779 -0.154372 0.021394 -0.022371 0.084044 -0.17065 -0.021284 -0.127672 -0.239086 -0.012168 -0.080354 -0.187101 0.161038 -0.139181 0.141872 0.192712 0.028517 0.155105 -0.042638 -0.028714 0.126099 0.02225 -0.102092 -0.072211 0.324933 0.080548 -0.188477 0.486778 -0.08266 -0.068494 -0.042158 0.094302 0.334534 -0.052287 0.006857 0.012965 -0.032054 0.089609 -0.236057 0.044533 0.000331 0.078128 -0.032428 0.220976 0.090828 -0.42538 0.120772 -0.022894 0.086197 0.208709 0.001906 0.064046 -0.044103 -0.086728 -0.042359 -0.013803 0.349014 -0.130289 -0.147985 -0.257551 -0.087295 -0.041762 -0.134827 0.244007 -0.056945 -0.053854 -0.245068 -0.000659 0.092015 0.005813 -0.207263 0.065009 -0.120288 -0.069733 0.039579 0.0855 0.080581 0.062415 -0.128204 -0.135478 -0.104644 0.084903 -0.362337 -0.138034 0.106664 0.33211 -0.181048 -0.048667 0.120843 -0.063045 0.146154 0.027818 -0.306568 0.057853 0.046701 -0.128597 -0.048053 0.236615 0.00216 -0.162517 -0.048962 -0.046366 -0.092997 -0.036149 -0.02001 0.008326 -0.069249 -0.197174 -0.00601 -0.005885 -0.189949 0.002096 -0.063146 -0.058023 0.269946 0.196709 -0.112985 -0.076314 -0.310311 0.15374 0.073222 0.046788 0.064981 0.090913 0.120772 0.007025 -0.068925 -0.17995 0.051957 -0.074944 0.10866 -0.038497 -0.048353 -0.094469 -0.070576 -0.013459 -0.003614 -0.167206
x 0.038234 -0.057595 0.078581 0.139959 0.075608 -0.092395 0.126954 0.07477 -0.048875 -0.09253 -0.06802 -0.106146 -0.051063 0.036127 -0.254597 -0.050945 0.080084 -0.080034 0.034409 0.066513 -0.120046 -0.541519 -0.012975 -0.037781 -0.063814 -0.101237 0.060795 0.034229 -0.035992 0.011107 -0.009187 0.068847 0.020914 0.046932 0.051299 0.060988 0.22641 0.115863 -0.014604 -0.019546 0.083449 0.098789 0.066985 -0.114229 0.090151 -0.025616 -0.179916 -0.005317 -0.068496 -0.046458 0.033955 -0.072044 0.059786 -0.206275 -0.033896 0.091013 0.04997 -0.051601 -0.104902 -0.037195 -0.036987 -0.070769 0.200186 -0.02391 -0.076889 0.092538 0.02989 -0.125138 -0.073736 -0.005962 -0.092411 0.049896 -0.021516 -0.135573 -0.034051 -0.191699 0.071192 0.108723 0.101717 0.061577 0.001896 0.088394 0.153104 -0.088582 -0.039359 -0.014461 0.172527 0.112542 -0.171482 0.234461 0.006912 -0.021975 -0.049546 -0.015353 0.131111 -0.044276 0.050666 0.072144 0.03493 0.086629 -0.099305 0.05831 0.003522 -0.0606 -0.012027 0.092516 0.019958 -0.41179 0.110211 0.095068 0.020119 0.121389 0.020237 -0.127434 0.009668 0.05328 0.032059 0.000875 0.090631 0.065047 -0.074013 -0.046473 -0.178091 -0.055895 -0.235171 0.305182 -0.003302 -0.08174 -0.186732 0.041106 0.035643 0.018743 -0.122281 0.110505 -0.095181 -0.121687 -0.016375 0.092143 0.128496 -0.027573 -0.039761 -0.030011 -0.018889 0.037012 -0.352185 -0.111293 0.013482 0.143542 -0.045212 -0.096715 -0.059951 -0.119757 0.019819 0.026082 -0.14541 0.02935 0.048032 -0.049054 0.040072 0.272009 -0.000485 -0.016896 0.028549 -0.024119 -0.016638 -0.052743 0.049462 -0.050553 0.102493 -0.213709 -0.022912 -0.008862 -0.084563 0.010962 -0.021047 -0.030816 0.137268 0.159714 -0.074109 0.118251 -0.261393 0.030896 0.106811 -0.077922 0.073341 0.158465 0.093338 -0.024451 -0.020824 -0.053676 0.069478 -0.134374 0.034899 -0.022551 -0.073111 -0.126531 0.050455 -0.027552 0.031249 -0.138304
? 0.080825 -0.054306 0.007064 0.236951 -0.060208 -0.044433 0.094768 0.041078 -0.090039 0.060635 -0.255874 0.010462 -0.011521 -0.018958 -0.637658 0.380269 -0.118644 -0.108968 -0.073719 0.182006 -0.198162 -0.376409 -0.055641 0.018127 0.1254 -0.272647 -0.135517 0.080387 -0.183978 0.090947 0.098976 0.253352 -0.071392 0.15487 0.069354 0.317714 0.552788 -0.063894 0.03415 0.166056 0.118931 0.17166 -0.142748 -0.212997 0.152806 0.282159 -0.190344 0.001005 0.110194 -0.21686 0.34945 -0.079872 0.040193 -0.049716 -0.10189 -0.038509 0.06806 -0.176709 -0.311511 -0.10789 0.048751 0.213928 0.149524 -0.334619 -0.222578 0.139115 0.163097 -0.10847 0.287135 -0.141955 -0.020912 -0.049156 -0.270693 -0.42269 -0.102975 -0.294707 -0.166619 0.25624 -0.043111 0.12486 0.177515 0.279638 0.324901 0.087464 -0.280026 -0.26623 0.291531 0.114304 -0.374832 0.152441 0.062691 -0.035741 0.147034 0.093157 0.181828 -0.140077 0.152821 0.076751 0.050326 0.048002 -0.177524 0.116853 0.293988 -0.217659 0.20744 0.160171 -0.136937 -0.417675 0.37784 0.192762 0.062401 0.281428 -0.047794 -0.021498 -0.044972 -0.219159 -0.033812 -0.006945 0.062482 0.08573 -0.03083 -0.115921 0.10507 -0.232455 -0.266915 0.197109 -0.146769 -0.556684 -0.093066 0.038163 -0.113385 -0.123766 -0.203371 -0.112569 -0.087696 -0.274109 0.161625 0.036512 0.274468 0.072417 -0.156246 -0.061654 0.049059 -0.013582 -0.361024 0.094248 0.242362 0.043553 -0.185227 -0.273116 0.184395 0.217314 -0.111131 0.270095 -0.301377 -0.076763 0.206663 -0.422787 0.222712 0.479345 0.07677 0.026053 0.131649 -0.417726 0.073604 -0.101188 0.114718 0.146952 0.055232 -0.644957 0.138601 -0.041583 0.161793 0.067727 0.121271 -0.197187 0.09174 0.63598 0.291048 0.446401 -0.088253 -0.116629 0.092988 -0.233602 0.036943 0.130906 0.152572 0.312882 -0.080453 -0.11559 0.112109 -0.309392 0.109225 -0.05873 -0.336586 -0.245237 0.157804 -0.075527 0.262331 -0.0701
0 0.060766 -0.191255 0.059555 0.086798 0.040948 -0.123754 0.151457 -0.032366 -0.096972 0.068085 -0.076738 -0.081601 0.006298 -0.058738 -0.190299 0.008213 0.08048 -0.163201 -0.019765 0.0173 -0.163052 -0.61238 -0.11617 -0.046349 -0.291184 -0.104077 0.03271 0.0979 -0.081397 0.10573 0.075944 -0.072614 0.142446 -0.047332 -0.004185 0.09076 0.281008 0.00336 -0.034787 0.034487 0.231572 0.103114 0.173086 -0.242835 0.04347 0.083373 -0.224259 0.234442 -0.193201 -0.062347 -0.074747 -0.196784 0.148028 0.130894 0.03671 0.078293 0.036788 0.08042 -0.135438 -0.14824 -0.106634 -0.066158 0.175095 -0.190577 -0.027756 -0.00186 0.083533 -0.14162 -0.059431 -0.156951 -0.236401 0.043763 -0.010353 -0.206256 0.124232 -0.013394 0.130396 0.144836 0.039096 0.182557 -0.038793 0.001417 0.123823 -0.034293 -0.046702 -0.141931 0.309263 0.069671 -0.167887 0.432197 -0.003928 -0.095075 -0.064952 0.073839 0.379349 -0.009046 0.051244 0.029418 -0.03226 0.079879 -0.206349 0.030313 -0.021461 0.070452 -0.044092 0.204675 0.094882 -0.394408 0.103721 -0.03344 0.080374 0.156095 0.025168 0.024721 -0.12151 -0.078892 -0.080129 0.001525 0.360964 -0.171073 -0.129353 -0.330282 -0.109829 -0.023631 -0.160829 0.212771 -0.024855 -0.115611 -0.281393 0.039495 0.028654 0.025175 -0.220887 0.076203 -0.114479 -0.070942 0.118877 0.047563 0.120039 0.056262 -0.180644 -0.219321 -0.019801 0.10451 -0.45906 -0.122901 0.14607 0.35702 -0.148078 -0.019783 0.115054 -0.039201 0.135228 -0.016707 -0.275329 0.089275 0.059156 -0.131156 -0.067625 0.20474 -0.015826 -0.134463 0.043744 -0.057823 -0.100067 -0.005046 -0.093219 -0.075696 -0.097943 -0.228757 0.034981 0.028876 -0.218429 0.060622 -0.035404 -0.114243 0.291283 0.11026 -0.152117 -0.089383 -0.225497 0.256118 0.136073 0.076778 0.185333 0.184329 0.064366 0.025942 -0.100159 -0.164547 -0.006342 -0.034081 0.121089 -0.002587 -0.062039 -0.081227 0.021483 0.010318 -0.047049 -0.158863
2 0.069687 -0.123641 0.013244 0.039763 0.011101 -0.144844 0.172027 -0.092546 -0.115348 0.083602 -0.091845 -0.098288 0.068248 -0.161324 -0.241573 0.055167 0.097824 -0.219309 0.039727 0.012651 -0.214344 -0.641198 -0.095786 -0.007267 -0.242425 -0.117606 -0.045392 0.17517 -0.041561 0.104417 0.136383 -0.074966 0.147958 -0.032563 -0.024051 0.129593 0.289013 0.098082 -0.054432 -0.032302 0.20653 0.065035 0.224615 -0.252592 0.046324 0.130576 -0.258018 0.1806 -0.20987 -0.054066 -0.02852 -0.234824 0.185525 0.186568 -0.015043 0.086747 0.018348 0.091284 -0.091284 -0.12191 -0.160784 -0.102767 0.23506 -0.147943 0.023386 -0.017169 0.089783 -0.14014 -0.031957 -0.140384 -0.23539 0.009983 -0.088237 -0.219052 0.146997 -0.151644 0.140881 0.175453 0.038195 0.169626 -0.06357 -0.004302 0.135525 -0.010268 -0.083386 -0.080699 0.328863 0.047667 -0.217048 0.500454 -0.043517 -0.068269 -0.04841 0.089044 0.393122 -0.06304 0.04898 0.004204 -0.046938 0.088811 -0.226266 0.015223 -0.036717 0.070719 -0.056631 0.194886 0.10488 -0.407448 0.11648 -0.009974 0.073937 0.204052 -0.021512 0.041224 -0.08046 -0.088487 -0.043864 -0.028058 0.338216 -0.121829 -0.124741 -0.301343 -0.079403 -0.060185 -0.140032 0.231577 -0.034007 -0.084554 -0.244432 0.036719 0.068341 0.012991 -0.214791 0.071195 -0.114411 -0.060841 0.026835 0.059255 0.106275 0.044613 -0.122951 -0.119561 -0.080451 0.122112 -0.409587 -0.168486 0.110455 0.344363 -0.152194 -0.069504 0.10621 -0.074671 0.178709 0.016979 -0.295008 0.078517 0.038121 -0.114822 -0.048473 0.229574 -0.017411 -0.163311 -0.015885 -0.027069 -0.083287 -0.066288 -0.041881 0.030131 -0.086939 -0.225053 0.007359 0.005963 -0.21151 0.021313 -0.056995 -0.053631 0.299338 0.208182 -0.138872 -0.04695 -0.303605 0.201205 0.127546 0.058012 0.084774 0.100802 0.115988 0.009568 -0.071845 -0.23601 0.007533 -0.091483 0.091316 -0.043295 -0.042156 -0.097722 -0.023223 -0.009547 -0.027821 -0.180613
q -0.000889 -0.115314 0.11779 0.15721 0.049944 -0.105055 0.10903 0.073568 -0.035175 -0.11189 -0.062936 -0.160311 -0.034317 0.024794 -0.239836 -0.03854 0.030717 -0.118243 -0.017922 0.029507 -0.144572 -0.56275 0.045931 0.05226 -0.056143 -0.084142 0.053226 -0.003455 -0.027279 -0.006833 0.012766 0.040483 0.011379 0.033825 0.056231 0.075336 0.222566 0.11764 0.003975 -0.00767 0.049499 0.107998 0.015541 -0.118324 0.073951 -0.012295 -0.220285 0.042993 -0.085327 -0.083693 0.03112 -0.034803 0.055046 -0.210015 -0.065997 0.072974 0.085952 -0.085912 -0.072219 -0.061617 -0.057636 -0.081977 0.18574 -0.012656 -0.070378 0.108726 0.008289 -0.154538 -0.107913 -0.043633 -0.1298 0.010448 -0.056772 -0.140823 0.021365 -0.214227 0.083967 0.093165 0.123127 0.069086 0.044992 0.062483 0.147449 -0.121952 -0.018851 -0.002155 0.164618 0.144422 -0.212026 0.242071 0.016353 -0.013628 -0.09993 -0.058575 0.112738 -0.050793 0.027832 0.082698 0.038129 0.07093 -0.055751 -0.000581 0.03849 -0.066794 0.002297 0.112329 0.000483 -0.383742 0.134789 0.077988 0.013649 0.130386 0.021449 -0.07849 0.008047 0.057507 0.045511 -0.014001 0.09974 0.104672 -0.073624 -0.021219 -0.171145 -0.048644 -0.18625 0.281672 -0.035329 -0.130787 -0.128986 0.039374 0.043255 0.010449 -0.151161 0.130859 -0.112438 -0.136605 -0.006043 0.083252 0.160733 -0.016008 -0.036946 -0.062721 -0.078977 0.044867 -0.372907 -0.121385 0.090453 0.165617 -0.01185 -0.090368 -0.05325 -0.112776 0.041382 0.026959 -0.177881 0.022361 0.072203 -0.087959 0.037534 0.266194 -0.016727 -0.052423 0.037452 -0.051879 0.001416 -0.066637 0.05585 -0.010826 0.093604 -0.255118 -0.046845 -0.053632 -0.099513 -0.006144 -0.014129 -0.077372 0.131104 0.134514 -0.039023 0.072576 -0.341437 0.105268 0.084017 -0.082204 0.024304 0.166503 0.035041 0.002456 -0.0447 -0.101598 0.110296 -0.125198 0.068567 -0.061428 -0.107166 -0.063651 0.092503 -0.024159 0.008828 -0.140915
% 1.1098 0.76585 0.33633 0.051994 0.38866 -0.54883 0.6962 -0.76148 -0.55146 -0.45725 0.39712 -0.085889 0.10297 -1.4044 -0.29605 1.7777 0.54858 -0.42766 0.8968 -0.010095 -0.1335 2.6159 -0.63244 -0.58445 0.21055 -0.55051 -0.64571 0.34753 1.1427 -0.28156 0.061567 -0.040397 -0.32805 -0.39316 0.83069 0.66189 0.43582 -1.3351 -0.51513 -0.53061 0.47496 -0.24545 0.022373 -0.65238 -0.43731 -0.25572 0.36887 0.2034 0.22223 -0.43098 0.044175 -0.63182 0.23806 0.90797 0.20155 0.77553 -0.033347 0.48528 0.53284 -0.48108 -0.72034 -0.27148 -0.21971 0.54935 0.35629 0.53829 -0.37322 0.78617 0.6191 -0.82508 0.14002 0.50073 -0.25239 -0.12213 0.73195 -0.065064 0.84762 -0.32303 0.006718 0.78109 0.34938 0.23657 0.023423 1.0454 -0.77703 -0.19742 -0.15845 -0.80454 0.91361 0.85352 -0.39443 -0.14421 -0.018453 -0.043262 0.96295 -0.19344 0.24271 -0.83215 -0.47224 -0.11776 -0.8153 0.07899 -0.19587 0.89022 -0.028186 -0.85202 0.85893 1.2107 -0.046105 0.11489 0.025339 0.003067 0.2304 1.1095 0.74613 -1.0572 -0.27472 0.28408 0.6728 -0.56111 0.2851 -0.054402 0.27678 0.57653 0.59741 -0.3279 1.136 -0.11003 0.23397 0.48077 -0.20427 -0.64042 -0.28144 -0.062939 0.765 0.19153 -0.5242 -0.12366 -0.88694 -0.29797 0.56441 0.23008 0.38992 -0.62895 1.0664 -0.15799 -0.39465 0.14304 -0.96549 -0.29413 -0.84996 0.41682 0.50445 -0.080774 1.372 0.33978 1.297 0.13945 -0.18006 -0.3736 0.16762 -0.56891 0.10563 1.0404 -0.72853 1.349 -0.018568 0.42178 -0.52603 0.008835 0.27806 0.85676 -0.27038 0.42451 -0.167 -0.46382 0.049265 1.0606 -0.58106 0.32662 1.5912 0.36204 -0.060286 0.69959 0.72818 -0.76785 0.73248 -0.059283 -0.29066 -0.84457 -0.12014 0.015014 -0.10237 -0.59308 -0.76237 -0.12747 -0.21955 -0.25008 -0.48928 0.60187
/ 0.097415 0.181221 -0.018186 0.268653 0.031382 -0.116159 0.019469 -0.030635 0.052229 0.01806 -0.096034 -0.124566 0.039004 -0.107703 -0.235731 0.030808 0.02099 -0.128405 0.042938 0.135484 -0.157115 -0.597264 0.040204 -0.09908 0.053521 0.013043 0.104513 0.101413 -0.048135 0.032209 0.018743 0.083068 -0.010691 0.046786 0.160294 0.233768 0.341636 0.242956 0.023462 -0.080177 0.146432 0.080753 0.1088 -0.230206 0.043267 0.03753 -0.177663 -0.050118 -0.055359 -0.188521 0.062757 -0.113211 0.138652 -0.015068 -0.129016 0.189644 0.121398 -0.05935 0.033894 -0.075478 -0.083724 0.038318 0.197819 -0.110352 -0.139846 -0.059241 0.325734 -0.08887 0.175711 -0.06907 -0.281468 0.071049 -0.027912 -0.301676 0.046885 -0.088436 0.020801 0.122704 0.076749 0.013126 -0.059068 0.037867 0.21944 0.03562 -0.187541 -0.162428 0.246823 0.110429 -0.059238 0.226986 0.033145 -0.150715 -0.181172 -0.042954 0.240228 -0.205196 -0.041504 0.022813 0.003565 0.097068 -0.174561 0.011617 0.057173 0.040731 0.080325 0.156333 0.08493 -0.581728 0.097184 0.087902 -0.075499 0.003386 0.013324 0.003025 -0.184841 -0.028689 0.057891 0.17373 0.081619 0.023871 -0.173516 -0.383739 -0.071384 -0.130596 -0.277229 0.270477 -0.11522 -0.163236 -0.10019 0.008783 0.093831 -0.106992 -0.158173 0.107735 -0.299412 -0.354916 -0.084373 0.11636 0.168382 0.033321 -0.176311 -0.067293 0.028515 0.027436 -0.37379 -0.078334 -0.055773 0.354555 -0.145295 -0.167827 0.005236 -0.052616 0.067127 0.083734 -0.064924 0.048738 0.160918 -0.265914 0.269828 0.118943 0.005026 -0.044519 0.126574 0.074745 -0.053541 -0.149886 0.050227 -0.0498 0.109271 -0.261123 -6.4e-05 0.032425 -0.153101 -0.04964 -0.133681 -0.07641 0.209611 0.32815 -0.114506 -0.059977 -0.371339 0.073452 0.213436 -0.026974 0.095221 -0.057704 0.225268 -0.033778 -0.084439 -0.128696 0.024154 -0.113727 0.118846 -0.081521 0.000329 -0.134733 0.030594 -0.067095 0.139986 -0.058897
3 0.07363 -0.120914 0.009593 0.044292 -0.004326 -0.132353 0.169787 -0.099772 -0.120589 0.106238 -0.100607 -0.095975 0.071497 -0.169222 -0.267971 0.058673 0.113043 -0.229283 0.034719 0.000249 -0.216088 -0.666888 -0.10026 0.00591 -0.253954 -0.111117 -0.062234 0.172767 -0.043786 0.101199 0.139351 -0.092872 0.151213 -0.035891 -0.028945 0.135831 0.30142 0.088117 -0.077063 -0.028673 0.213268 0.065946 0.224784 -0.244366 0.044884 0.11728 -0.251874 0.189611 -0.216959 -0.054934 -0.035743 -0.243549 0.174341 0.187256 -0.004319 0.093086 0.023578 0.085381 -0.09004 -0.121617 -0.189581 -0.124412 0.246583 -0.133996 0.012994 -0.023746 0.086545 -0.121477 -0.023568 -0.148887 -0.261756 0.004 -0.081746 -0.227905 0.152531 -0.15662 0.166158 0.176589 0.03589 0.181938 -0.047862 0.01823 0.134031 -0.020365 -0.090784 -0.077635 0.320007 0.034678 -0.239098 0.518698 -0.039206 -0.060094 -0.048204 0.110084 0.410253 -0.082016 0.056918 -0.007433 -0.05487 0.11582 -0.221757 0.006327 -0.043221 0.058205 -0.061891 0.190566 0.109686 -0.391363 0.134101 -0.021518 0.091789 0.215487 -0.027455 0.051366 -0.082173 -0.110182 -0.064804 -0.040098 0.350091 -0.113996 -0.107647 -0.299732 -0.084234 -0.069652 -0.125032 0.223071 -0.03755 -0.080168 -0.258331 0.029341 0.071399 0.029341 -0.22836 0.048072 -0.115066 -0.057394 0.017867 0.047562 0.104288 0.040355 -0.115597 -0.12135 -0.084533 0.089958 -0.415405 -0.183687 0.122102 0.321282 -0.14875 -0.078021 0.101038 -0.080088 0.193903 0.008196 -0.298765 0.078762 0.033021 -0.107519 -0.052763 0.237718 -0.002025 -0.173642 0.000586 -0.019243 -0.088481 -0.073168 -0.025331 0.036381 -0.091408 -0.224846 0.009449 0.020988 -0.237291 0.039314 -0.057503 -0.055591 0.305578 0.210709 -0.133618 -0.041854 -0.328288 0.220724 0.148121 0.065884 0.09563 0.111736 0.11792 0.003277 -0.069768 -0.248191 -0.005538 -0.090135 0.082561 -0.045366 -0.043061 -0.094916 -0.035128 0.007325 -0.022248 -0.190932
5 0.076175 -0.117171 0.020394 0.026536 0.00145 -0.143892 0.219829 -0.117959 -0.111027 0.091596 -0.095694 -0.096302 0.086001 -0.158922 -0.244845 0.030213 0.117277 -0.234125 0.058386 -0.009144 -0.220241 -0.647609 -0.10076 0.001593 -0.261767 -0.122699 -0.074686 0.1784 -0.043006 0.10382 0.128533 -0.08873 0.166951 -0.025826 -0.041559 0.125913 0.301617 0.061596 -0.097312 -0.033769 0.196082 0.09467 0.217567 -0.241937 0.026761 0.099847 -0.242119 0.205236 -0.224247 -0.050778 -0.051453 -0.235783 0.187344 0.181982 0.002306 0.086442 0.036202 0.096659 -0.09276 -0.132264 -0.184008 -0.120042 0.239656 -0.12688 0.001641 -0.001393 0.109432 -0.115059 -0.036505 -0.138956 -0.269507 -0.0074 -0.0892 -0.203551 0.153936 -0.123989 0.153195 0.174915 0.024586 0.175654 -0.065311 -0.009166 0.134131 -0.023431 -0.081985 -0.073112 0.325896 0.035184 -0.210892 0.511237 -0.040211 -0.082301 -0.07599 0.130134 0.423517 -0.079565 0.054972 0.035272 -0.052007 0.099495 -0.238284 0.010759 -0.020238 0.058316 -0.074184 0.204885 0.105178 -0.370333 0.140662 -0.04092 0.076093 0.188779 -0.01114 0.070817 -0.115703 -0.121411 -0.074544 -0.03285 0.372386 -0.117296 -0.116749 -0.332814 -0.081727 -0.067865 -0.121733 0.227513 -0.039073 -0.085208 -0.2791 0.040262 0.058798 0.042478 -0.236599 0.068554 -0.091672 -0.042909 0.069268 0.033674 0.111171 0.043858 -0.115346 -0.134584 -0.054815 0.097713 -0.411803 -0.177428 0.125178 0.330781 -0.166825 -0.05319 0.133873 -0.054255 0.186407 0.042699 -0.30357 0.098458 0.063785 -0.118477 -0.071668 0.231049 0.004993 -0.183207 -0.006622 -0.013264 -0.087169 -0.083141 -0.039242 0.02994 -0.087139 -0.222325 0.022216 0.016782 -0.228012 0.022651 -0.059103 -0.097121 0.318694 0.183426 -0.111635 -0.041358 -0.315895 0.21839 0.123429 0.08196 0.110612 0.113323 0.129007 -0.01487 -0.079399 -0.261112 -0.004767 -0.068556 0.095862 -0.049235 -0.04783 -0.060793 -0.045016 -0.001795 -0.01893 -0.17723
4 0.065957 -0.120629 0.010074 0.035291 -0.0088 -0.140497 0.182315 -0.094368 -0.103413 0.104731 -0.084847 -0.097928 0.07809 -0.164748 -0.265743 0.047524 0.119552 -0.233856 0.049819 -0.001248 -0.222373 -0.667819 -0.087739 0.004342 -0.250746 -0.111641 -0.072688 0.190319 -0.029744 0.096693 0.135739 -0.095101 0.156381 -0.022915 -0.035062 0.138121 0.295324 0.085896 -0.085612 -0.043341 0.20375 0.080576 0.213845 -0.247289 0.033209 0.109897 -0.254797 0.177025 -0.230528 -0.046607 -0.035303 -0.231728 0.184874 0.18141 -0.019254 0.098275 0.025137 0.082112 -0.097641 -0.130375 -0.197907 -0.135642 0.252706 -0.119786 0.00817 -0.013566 0.085544 -0.127153 -0.013906 -0.153941 -0.257858 0.001233 -0.080052 -0.21008 0.162431 -0.159844 0.164481 0.184028 0.035488 0.17526 -0.057411 0.015349 0.149892 -0.007941 -0.10093 -0.07319 0.330786 0.046938 -0.228579 0.51821 -0.048302 -0.062394 -0.052504 0.122773 0.419874 -0.084298 0.054757 0.013505 -0.047981 0.113398 -0.233386 0.005789 -0.037671 0.058226 -0.067208 0.1939 0.113327 -0.375839 0.147023 -0.015388 0.088214 0.212111 -0.027403 0.056945 -0.06783 -0.114726 -0.065125 -0.039607 0.349861 -0.09989 -0.111571 -0.299347 -0.088255 -0.074421 -0.122015 0.224524 -0.028486 -0.079978 -0.265676 0.037872 0.066061 0.043564 -0.230758 0.048489 -0.098988 -0.05418 0.019947 0.054029 0.098959 0.048218 -0.118102 -0.113279 -0.081029 0.093385 -0.409836 -0.177619 0.123488 0.322682 -0.168166 -0.076055 0.11368 -0.076618 0.191575 0.013389 -0.304939 0.089428 0.05096 -0.120748 -0.051739 0.24984 0.01196 -0.173368 -0.008756 -0.015196 -0.086716 -0.076947 -0.023323 0.034938 -0.095408 -0.226872 0.002511 0.015936 -0.244463 0.037873 -0.053916 -0.067218 0.298472 0.207069 -0.115281 -0.043239 -0.333699 0.218132 0.134 0.08235 0.095792 0.103721 0.129574 -0.01242 -0.064232 -0.251092 -0.006939 -0.087615 0.084571 -0.057336 -0.046043 -0.090238 -0.031571 0.009856 -0.013856 -0.189441
8 0.076775 -0.124528 0.013366 0.038389 0.008657 -0.112788 0.195639 -0.091005 -0.094893 0.10629 -0.083434 -0.09806 0.077402 -0.167807 -0.214235 0.068779 0.123298 -0.237225 0.0995 0.005383 -0.209232 -0.665269 -0.090506 -0.004372 -0.275079 -0.105468 -0.07346 0.177258 -0.025509 0.122981 0.119849 -0.116653 0.183551 -0.028001 -0.019213 0.137807 0.273626 0.079605 -0.063896 -0.035019 0.212051 0.083569 0.223633 -0.249526 0.04445 0.08864 -0.249345 0.229093 -0.188497 0.000199 -0.055129 -0.233486 0.217013 0.165374 -0.026816 0.084906 0.029919 0.089927 -0.116793 -0.135402 -0.221613 -0.152995 0.262074 -0.119784 0.005793 -0.034404 0.084414 -0.125685 0.014356 -0.14094 -0.257024 -0.023428 -0.081369 -0.224719 0.154068 -0.146228 0.169765 0.198268 0.024571 0.190116 -0.022863 -0.016901 0.162453 0.030665 -0.098443 -0.069513 0.325285 0.049545 -0.2256 0.549061 -0.061706 -0.081918 -0.041725 0.113748 0.3741 -0.069923 0.027943 0.009767 -0.057476 0.113687 -0.242817 0.018239 -0.048162 0.081124 -0.03697 0.195924 0.121684 -0.36522 0.116269 -0.046182 0.09352 0.215556 -0.010165 0.057346 -0.041785 -0.110875 -0.063033 -0.022262 0.348242 -0.123045 -0.107385 -0.265948 -0.080196 -0.043671 -0.135073 0.241932 -0.064356 -0.052835 -0.27906 0.003939 0.083791 0.030637 -0.240275 0.066204 -0.095111 -0.035724 0.036512 0.076002 0.074905 0.046354 -0.102105 -0.108877 -0.103016 0.088885 -0.388516 -0.179665 0.123871 0.326704 -0.179022 -0.058751 0.104825 -0.076325 0.162614 0.040462 -0.316233 0.092865 0.065078 -0.094507 -0.046369 0.235291 0.010023 -0.189615 -0.042497 -0.023419 -0.085409 -0.05306 -0.029054 0.029528 -0.094845 -0.20982 -0.00106 0.016109 -0.237962 0.025029 -0.077429 -0.087997 0.310675 0.20444 -0.134674 -0.058707 -0.318559 0.195982 0.11808 0.024849 0.085056 0.115463 0.125488 -0.014023 -0.082912 -0.239403 0.051698 -0.080554 0.094815 -0.06384 -0.044975 -0.097523 -0.082582 -0.021633 -0.034875 -0.165912
6 0.070565 -0.132097 0.01982 0.032577 0.003531 -0.137428 0.194596 -0.091356 -0.102885 0.100257 -0.097605 -0.099384 0.092201 -0.181924 -0.246903 0.054711 0.12418 -0.222843 0.061742 0.010176 -0.22062 -0.668739 -0.084292 0.013521 -0.266501 -0.106589 -0.076405 0.186948 -0.028374 0.120011 0.130006 -0.110543 0.157022 -0.026006 -0.027825 0.13777 0.29474 0.079215 -0.074492 -0.042628 0.193368 0.10287 0.212375 -0.265644 0.046061 0.100005 -0.255317 0.20096 -0.223846 -0.02574 -0.053777 -0.248301 0.190212 0.194226 -0.013145 0.095127 0.01462 0.082336 -0.0981 -0.139858 -0.20707 -0.139128 0.263027 -0.13684 0.017731 -0.020539 0.087642 -0.123117 -0.015393 -0.153949 -0.271199 0.002102 -0.094195 -0.229243 0.148093 -0.158333 0.169084 0.183069 0.025365 0.173528 -0.053962 0.005128 0.126354 0.001157 -0.100453 -0.082196 0.32494 0.054164 -0.231834 0.544532 -0.05973 -0.075822 -0.048238 0.116357 0.401847 -0.078597 0.043375 0.015282 -0.065102 0.111145 -0.238466 0.000422 -0.037848 0.068865 -0.055189 0.197273 0.102562 -0.381628 0.126993 -0.030461 0.092762 0.213762 -0.025752 0.054029 -0.075861 -0.122989 -0.0842 -0.049512 0.353366 -0.117576 -0.105311 -0.30054 -0.065601 -0.069486 -0.123772 0.22137 -0.050006 -0.055512 -0.274778 0.032227 0.061303 0.04293 -0.252074 0.066124 -0.089024 -0.037088 0.031247 0.053045 0.106276 0.041482 -0.110715 -0.117293 -0.086794 0.098235 -0.409815 -0.190195 0.131495 0.329904 -0.161069 -0.075847 0.131601 -0.072268 0.183196 0.034523 -0.315329 0.098502 0.045065 -0.10533 -0.052957 0.244614 0.014991 -0.187455 -0.029963 -0.021255 -0.088722 -0.076866 -0.03824 0.035057 -0.094639 -0.222021 0.018338 0.007443 -0.233981 0.045772 -0.065181 -0.078287 0.333947 0.212971 -0.112394 -0.047416 -0.321763 0.221094 0.13537 0.053431 0.099722 0.108038 0.126262 -0.015166 -0.07698 -0.259529 0.030807 -0.075041 0.081276 -0.047582 -0.057456 -0.081318 -0.057716 0.002204 -0.020075 -0.171426
7 0.070736 -0.127622 0.015949 0.029944 0.000711 -0.128785 0.201266 -0.095369 -0.098393 0.102621 -0.090405 -0.108626 0.082712 -0.178911 -0.237875 0.059527 0.126054 -0.226947 0.059719 0.016184 -0.208113 -0.669933 -0.08798 0.009449 -0.269887 -0.099663 -0.084834 0.18776 -0.03756 0.124717 0.138893 -0.121603 0.163143 -0.027996 -0.031137 0.137935 0.292236 0.083382 -0.076711 -0.038893 0.190839 0.102951 0.216631 -0.257901 0.042668 0.095058 -0.247141 0.197396 -0.217228 -0.017329 -0.051255 -0.240739 0.19303 0.187031 -0.006572 0.086129 0.006434 0.08116 -0.101113 -0.131288 -0.218077 -0.130816 0.260711 -0.121716 0.021981 -0.024987 0.099444 -0.122318 -0.017904 -0.149491 -0.264191 0.00264 -0.089441 -0.236834 0.150383 -0.149658 0.182061 0.183227 0.03124 0.169749 -0.049699 -0.004677 0.133814 0.006029 -0.099324 -0.081647 0.317524 0.051274 -0.235158 0.549253 -0.052863 -0.072322 -0.049684 0.123188 0.392238 -0.07726 0.036941 0.003745 -0.059688 0.098685 -0.228607 0.012536 -0.042635 0.065602 -0.052815 0.196371 0.111712 -0.368938 0.122722 -0.03809 0.084794 0.210627 -0.013972 0.054557 -0.080149 -0.124784 -0.087375 -0.04926 0.352578 -0.127939 -0.109387 -0.294289 -0.066158 -0.069809 -0.127435 0.219402 -0.066816 -0.049063 -0.269071 0.016842 0.070389 0.043917 -0.252555 0.054174 -0.081962 -0.036691 0.02864 0.059582 0.101501 0.043272 -0.097873 -0.115054 -0.090459 0.090299 -0.393419 -0.188143 0.12772 0.331113 -0.164043 -0.074435 0.125025 -0.080343 0.180187 0.050439 -0.304226 0.102853 0.041995 -0.102395 -0.062115 0.230726 0.014557 -0.190202 -0.030812 -0.026934 -0.089042 -0.078871 -0.036594 0.045029 -0.083576 -0.223816 0.028273 0.010339 -0.237406 0.039743 -0.079902 -0.080683 0.328595 0.221855 -0.116482 -0.063131 -0.328359 0.221639 0.135742 0.050002 0.096628 0.118212 0.129117 -0.009626 -0.069745 -0.251557 0.039888 -0.074238 0.076676 -0.046267 -0.054407 -0.07932 -0.078593 -0.013847 -0.017311 -0.162493
9 0.055358 -0.134128 0.032297 0.073744 -0.001506 -0.103917 0.179474 -0.072413 -0.070129 0.063096 -0.032031 -0.084474 0.062584 -0.142126 -0.196828 0.109002 0.09082 -0.187032 0.062133 0.017879 -0.15056 -0.646375 -0.037587 -0.006937 -0.272942 -0.120643 -0.061498 0.182665 -0.017749 0.096743 0.138088 -0.135156 0.170053 -0.043685 -0.054615 0.150877 0.312927 0.10107 -0.029387 -0.048038 0.196522 0.056377 0.159599 -0.215103 0.036681 0.053245 -0.238226 0.285399 -0.164464 -0.008435 -0.051625 -0.189903 0.259544 0.181435 -0.063514 0.099986 0.035748 0.049608 -0.158594 -0.168999 -0.217599 -0.148727 0.260609 -0.13536 0.037184 -0.019093 0.098095 -0.161437 0.002685 -0.141138 -0.24062 0.010504 -0.057673 -0.218318 0.18135 -0.148773 0.200834 0.204174 0.070483 0.140358 -0.011314 -0.048298 0.144706 0.051933 -0.078689 -0.101546 0.302106 0.081088 -0.199939 0.522763 -0.090737 -0.110216 -0.034696 0.092764 0.341811 -0.07985 -0.019963 0.029888 -0.086014 0.114482 -0.240629 0.060932 -0.04104 0.097023 -0.020651 0.194615 0.099288 -0.410522 0.122827 -0.055771 0.111504 0.189845 0.018868 0.094702 -0.031656 -0.125953 -0.077638 0.008402 0.367244 -0.131697 -0.160213 -0.279696 -0.075237 -0.023443 -0.158547 0.241042 -0.074921 -0.056487 -0.245593 0.023777 0.095514 -0.017959 -0.257961 0.084374 -0.086248 -0.092092 0.021019 0.092891 0.051405 0.043372 -0.062297 -0.134364 -0.069317 0.086741 -0.350532 -0.148406 0.110812 0.366712 -0.193603 -0.089101 0.090843 -0.099912 0.136564 0.063007 -0.296773 0.098866 0.085816 -0.097925 -0.043465 0.264286 0.009423 -0.157656 -0.078356 -0.02899 -0.114078 -0.030187 -0.026505 0.010659 -0.038488 -0.218978 -0.009069 0.016939 -0.234732 0.03113 -0.045797 -0.06848 0.2849 0.254394 -0.151933 -0.030632 -0.320548 0.178753 0.07938 0.034339 0.040593 0.077008 0.15515 -0.017643 -0.052127 -0.214599 0.063893 -0.067086 0.104166 -0.068088 -0.061099 -0.103364 -0.104424 -0.045074 -0.026626 -0.131119
& 0.081889 -0.15446 -0.035658 0.354899 0.113079 -0.087472 0.131865 0.092112 -0.059247 -0.138471 -0.096056 -0.276166 -0.043409 0.216535 -0.256457 -0.122661 0.00805 -0.05827 0.145758 0.12751 -0.09475 -0.653064 0.022295 -0.208985 -0.145035 -0.115339 0.070084 0.175106 -0.071344 0.002586 -0.01646 0.044238 0.014756 -0.166269 -0.040522 0.029356 0.378532 0.234167 0.098833 -0.193295 0.084412 0.077554 0.069928 -0.252871 -0.016066 -0.025545 -0.167339 -0.090744 -0.088065 0.031986 -0.042826 0.001878 0.165338 -0.332178 -0.081262 0.091305 -0.05835 0.164619 -0.061111 -0.059973 -1.5e-05 -0.081175 0.126082 -0.093964 0.075684 0.000252 0.03756 -0.117829 -0.017235 0.04937 -0.006411 -0.109955 0.006365 -0.247299 -0.04909 -0.135784 0.229337 0.278286 0.234077 -0.042123 -0.014681 0.013026 0.226267 -0.107843 -0.0687 -0.108833 0.03802 0.114635 0.002196 0.378751 -0.116618 0.054345 -0.019671 0.032521 0.167046 -0.090073 -0.068853 0.261334 0.024269 0.042419 -0.115414 0.125686 0.111997 -0.097834 -0.072172 0.19386 0.164148 -0.478193 0.225289 0.072968 -0.085895 0.23295 -0.13467 0.0294 0.160719 0.07109 0.157894 0.058084 0.225396 0.049107 -0.205317 -0.275994 -0.183795 -0.074242 -0.103092 0.388264 -0.109584 0.022342 -0.297474 -0.046644 -0.055015 0.023215 -0.112849 0.141968 -0.249613 -0.195048 -0.116767 0.288969 0.154854 0.162745 -0.174899 -0.182799 0.073204 0.070082 -0.345165 -0.075373 -0.024104 0.246354 -0.024226 -0.19405 0.038452 -0.2009 0.25601 -0.168339 -0.150524 0.104035 0.044049 -0.196526 -0.084699 0.206911 0.028284 0.04815 -0.12601 0.231804 -0.208544 0.148178 0.043075 -0.180762 0.138594 -0.117326 0.07544 0.132375 -0.198408 -0.089291 0.094484 0.027943 0.145033 0.153044 -0.218894 0.044531 -0.400437 0.116152 0.151937 -0.13744 -0.016296 0.188706 0.125004 -0.117639 0.186846 0.11251 0.202877 -0.036086 -0.023556 0.100213 -0.014464 0.028248 0.003681 0.08375 0.043176 -0.051131
z -0.064209 -0.134086 0.159772 0.202248 0.024884 -0.064737 0.159453 0.040947 0.02672 -0.070511 -0.025714 -0.115704 -0.013588 0.053071 -0.256937 -0.027544 0.055073 -0.186366 -0.011647 0.02997 -0.177845 -0.651681 0.033445 0.031487 -0.104035 -0.07645 0.053783 -0.043216 -0.022613 -0.024665 -0.05348 0.053777 0.019145 -0.00354 0.034585 0.099117 0.245317 0.132282 0.006206 0.020275 -0.019517 0.118782 -0.015539 -0.134362 0.114137 -0.076887 -0.214333 0.057644 -0.059641 -0.125001 0.079339 -0.018117 0.03395 -0.27681 -0.094241 0.059021 0.084837 -0.06497 -0.032311 -0.057059 -0.087775 -0.025844 0.22013 0.018781 -0.054454 0.09407 -0.005445 -0.130262 -0.122687 0.007773 -0.147262 -0.017504 -0.054866 -0.139468 -0.007685 -0.224274 0.09728 0.153818 0.054922 0.102549 0.021057 0.126812 0.120272 -0.071449 -0.039081 -0.00197 0.132807 0.134358 -0.287388 0.256596 -0.010427 -0.093158 -0.143414 -0.050229 0.09069 -0.01006 0.0175 0.093412 0.053852 0.064213 -0.038265 -0.028429 0.003875 -0.100501 -0.016128 0.083207 0.01811 -0.400262 0.134862 0.039427 0.07785 0.160964 0.012047 -0.167606 0.01284 0.031624 0.020085 -0.01803 0.122824 0.145337 -0.066012 0.039721 -0.156239 -0.06826 -0.177698 0.311171 -0.049716 -0.125065 -0.136179 0.075616 0.098111 -0.030768 -0.164351 0.168132 -0.058133 -0.08555 0.047959 0.088809 0.110016 -0.058114 0.012053 -0.02822 -0.080405 0.053645 -0.414891 -0.075884 0.070197 0.122474 -0.00703 -0.068734 -0.050995 -0.128886 0.061041 0.069349 -0.176751 0.0376 0.066981 -0.075497 0.042619 0.286706 -0.031218 -0.004113 0.035073 -0.053341 -0.017099 -0.074441 0.071786 -0.042139 0.208212 -0.298204 -0.026406 -0.04121 -0.122843 0.003747 0.000769 -0.095318 0.091785 0.137463 -0.030932 0.059119 -0.403964 0.06574 0.064323 -0.056899 0.002588 0.131065 0.103684 -0.004796 -0.037039 -0.117579 0.126233 -0.107374 0.002087 -0.053274 -0.095885 -0.067749 0.048963 -0.05469 -0.012022 -0.214702
! 0.358164 0.035299 -0.1825 0.159486 -0.22173 -0.273149 0.034243 -0.030209 0.079565 0.154202 -0.471765 0.002245 0.035976 0.24112 -0.515745 0.131079 0.005896 0.041024 0.223166 -0.263001 -0.128708 -0.260267 0.098017 0.080423 -0.202837 -0.34456 0.01359 0.152372 -0.190744 -0.156488 -0.072622 0.145904 0.073902 -0.114794 -0.038059 0.289087 0.061911 0.057863 -0.415985 0.181826 0.245445 0.50179 -0.558245 -0.008415 0.018106 -0.113873 0.02902 0.048909 -0.116126 -0.301323 0.456117 -0.267663 0.13802 -0.309366 0.081578 0.190893 -0.233511 -0.094907 -0.330481 -0.094169 0.272616 -0.245552 0.266546 -0.285159 -0.474351 0.055734 0.148913 -0.117184 0.1212 -0.087903 -0.088648 -0.317082 -0.208824 -0.192684 -0.237607 -0.471348 -0.017768 0.599333 -0.067082 0.218384 0.214037 0.267095 0.225192 0.216032 -0.61213 -0.412293 0.161603 0.295389 -0.065202 0.241259 0.198255 -0.283555 0.004952 -0.289157 0.131952 -0.113193 0.211554 0.237702 -0.058049 0.03084 0.110924 0.440499 0.187785 0.027174 0.161062 -0.070538 0.122384 -0.483057 0.011972 0.480291 -0.437969 0.403398 -0.012914 -0.129684 -0.284644 -0.167088 0.2139 -0.071428 -0.075264 0.05449 0.38916 -0.479429 -0.079693 -0.447031 -0.420902 0.459531 0.152831 -0.639351 0.18257 -0.290066 -0.173044 -0.005389 -0.419062 0.040574 -0.043403 -0.415741 0.108683 0.207657 0.15854 0.016207 -0.267715 -0.013307 0.109234 -0.076157 -0.292293 0.240792 0.09595 0.223559 -0.33279 -0.030005 0.165838 0.669519 0.036227 0.442763 0.056512 0.027117 -0.114736 -0.37197 0.192178 0.368016 0.239418 0.093867 -0.060648 -0.369997 -0.046255 -0.401052 0.176635 -0.14107 -0.207463 -0.582758 -0.297084 0.097267 0.192236 0.07835 -0.153936 -0.215824 -0.25093 0.199456 -0.12714 0.413689 -0.012899 -0.120163 -0.270386 0.021111 -0.166916 -0.200308 0.476178 0.184476 0.223984 -0.248996 -0.005083 -0.283813 -0.074735 -0.353215 -0.112826 -0.378048 -0.071477 -0.151487 0.085659 0.12727
