t 0.032215 -0.08009 -0.140876 0.123 -0.020575 0.011046 0.014316 -0.066377 0.136212 0.004791 -0.064188 0.071668 -0.046001 -0.09671 -0.039422 0.093844 -0.150062 0.079585 0.186434 -0.078186 -0.182189 -0.027323 -0.149806 -0.073866 -0.082939 0.019737 0.02374 0.195183 -0.063227 0.001139 0.015524 -0.156839 0.01107 -0.035912 0.033974 -0.054982 -0.006907 -0.17661 0.051033 -0.007058 0.155811 0.215374 -0.052019 0.14307 -0.099371 0.033942 0.077137 0.165596 0.014152 0.194168 -0.014188 0.069971 -0.094471 -0.224186 0.108281 0.435452 0.094752 0.02997 -0.328566 -0.19372 0.017083 -0.156658 0.095468 -0.025129 -0.153476 0.021733 -0.128003 -0.160583 -0.085956 -0.091918 0.046924 0.06512 0.116348 0.20634 -0.074782 0.009821 0.044613 -0.03803 0.273747 0.003078 -0.226633 -0.024242 0.090369 0.006427 0.227231 0.029254 0.020471 0.068412 -0.093892 0.099748 -0.013749 0.059437 0.051572 -0.092702 0.233383 -0.091224 0.085727 0.104654 -0.205082 0.041414
h 0.017705 -0.13097 -0.165331 0.101255 -0.006642 -0.049388 0.015705 -0.079042 0.148261 -0.011001 -0.062692 0.076456 -0.061209 -0.077159 -0.039803 0.078383 -0.170211 0.064448 0.142025 -0.072459 -0.186892 -0.008545 -0.133175 -0.058732 -0.132109 0.059453 0.011307 0.189866 -0.049432 0.039171 0.014354 -0.172397 0.05897 -0.014869 0.010343 -0.084884 0.013853 -0.128761 0.067687 -0.006536 0.14544 0.220169 -0.038587 0.142355 -0.112941 0.043333 0.060782 0.184446 0.067476 0.233333 -0.020262 0.03218 -0.08304 -0.284559 0.077329 0.498198 0.051414 0.065291 -0.431159 -0.209095 0.061825 -0.192141 0.125335 -0.030848 -0.211435 0.044755 -0.106123 -0.122793 -0.148332 -0.026543 0.064036 0.087921 0.101878 0.200647 -0.06932 0.029033 0.049839 -0.040278 0.303378 0.022562 -0.217571 -0.031565 0.104863 -0.072611 0.303259 0.0426 -0.038271 0.052188 -0.060482 0.155073 0.057737 0.037585 0.099645 -0.080113 0.227176 -0.0748 0.107773 0.117571 -0.263661 0.001347
e 0.031764 -0.093139 -0.154377 0.107961 -0.014773 0.004082 0.029283 -0.065085 0.151965 -0.016785 -0.066734 0.09163 -0.051082 -0.098556 -0.036138 0.08297 -0.152663 0.091874 0.161903 -0.073553 -0.186819 -0.016624 -0.134712 -0.063234 -0.077356 0.022885 0.005835 0.179089 -0.057402 0.006532 0.026948 -0.159996 0.012945 -0.035849 0.032782 -0.045194 0.004387 -0.162299 0.05066 0.001425 0.158374 0.201049 -0.055688 0.152342 -0.108328 0.053638 0.068998 0.161671 0.030141 0.19389 -0.012093 0.044503 -0.091335 -0.235411 0.102679 0.437297 0.087923 0.037285 -0.362211 -0.19591 0.046007 -0.16382 0.103138 -0.03385 -0.166845 0.008508 -0.112136 -0.128306 -0.106518 -0.08164 0.056841 0.070746 0.105427 0.19922 -0.059699 0.014562 0.043072 -0.045695 0.278337 0.017107 -0.219769 -0.024339 0.082929 -0.007176 0.249022 0.012757 0.019327 0.064435 -0.113399 0.103707 -0.006491 0.047101 0.070125 -0.096303 0.223044 -0.078268 0.081248 0.118772 -0.232615 0.034177
, 0.272911 0.253066 -0.211895 0.382233 -0.125834 0.258578 0.103649 0.013375 0.046797 0.070262 0.33997 0.161382 0.040838 -0.280699 0.201247 0.047359 -0.330749 -0.030728 0.22295 0.05706 0.163205 -0.001848 0.012676 -0.105559 -0.059739 -0.433967 0.181347 0.348749 0.104064 -0.118771 0.065692 -0.267349 0.060656 -0.049997 -0.081808 -0.136957 -0.185573 -0.08639 0.043703 0.278916 0.316388 0.03133 -0.160909 0.010883 0.005108 -0.097557 0.022589 0.023617 -0.289038 0.172557 0.146363 -0.243713 -0.110966 -0.258518 0.092245 0.760062 0.238388 -0.129048 -0.368913 -0.454472 0.048718 -0.059738 0.094906 0.069964 -0.483869 0.037119 -0.199458 -0.209967 0.099444 -0.209522 0.128892 0.218924 -0.096472 0.369544 -0.088087 0.161848 0.035643 0.08532 0.215422 0.110267 -0.237972 -0.154607 0.313998 0.027629 0.267871 0.216773 0.358008 0.184173 -0.249316 0.183983 -0.030156 0.411497 0.046109 -0.553426 0.024183 -0.110382 -0.003979 0.357412 -0.077612 -0.162907
. 0.275229 0.120028 0.012358 0.244467 -0.039661 0.090562 0.04714 -0.06964 0.138053 0.08114 0.227253 0.196064 -0.40777 -0.156399 0.214535 -0.018563 -0.214128 -0.185735 0.011512 0.096754 -0.056731 0.100848 -0.19363 -0.087956 0.061857 -0.076295 0.142101 0.3104 0.124247 -0.082876 0.12629 -0.198367 0.063266 -0.083659 -0.096115 0.090268 -0.057286 -0.338038 -0.021085 0.233103 0.243609 0.080513 -0.232235 0.074652 -0.174803 0.001346 -0.196227 0.213413 -0.19245 -0.189948 0.160319 -0.115688 0.040809 -0.244602 0.021345 0.518419 -0.100933 -0.034206 -0.249665 -0.338076 -0.010636 -0.27516 -0.140452 0.023314 -0.63229 0.031357 -0.268631 -0.254953 -0.03257 0.083061 -0.083249 0.229062 -0.039989 0.261422 -0.247679 -0.039901 -0.070148 -0.008547 0.332295 0.051111 -0.4314 0.005981 0.222865 0.001549 0.465294 0.300755 0.250345 0.312953 0.008892 0.281821 -0.109574 0.292321 0.125615 -0.316665 0.11521 -0.122963 0.063409 0.214844 -0.134577 -0.225574
o 0.041627 -0.101095 -0.151169 0.118574 -0.006324 -0.003336 0.029485 -0.062119 0.149529 -0.008471 -0.063978 0.074297 -0.067791 -0.093297 -0.042132 0.094655 -0.152354 0.091523 0.177581 -0.067148 -0.194878 -0.017079 -0.149199 -0.060144 -0.106122 0.037203 0.014142 0.193196 -0.055246 0.013873 0.013616 -0.168946 0.02431 -0.024696 0.04006 -0.061933 0.018886 -0.162738 0.065913 -0.013834 0.163178 0.208689 -0.051888 0.136968 -0.105222 0.045849 0.055833 0.166165 0.021494 0.221826 -0.003693 0.051255 -0.107812 -0.265822 0.104305 0.458456 0.070998 0.042902 -0.374121 -0.191042 0.023938 -0.178766 0.104274 -0.046482 -0.182978 0.024134 -0.125193 -0.152791 -0.105747 -0.063741 0.052536 0.086839 0.109195 0.204455 -0.069879 0.007661 0.050213 -0.021766 0.282224 0.024392 -0.22384 -0.033168 0.088982 -0.020109 0.278937 0.042419 0.00245 0.075347 -0.085825 0.106941 0.011597 0.047224 0.067968 -0.094517 0.228115 -0.078102 0.077169 0.114379 -0.231947 0.020137
f 0.038705 -0.091923 -0.162912 0.090413 -0.023114 -0.004018 0.027377 -0.064441 0.145667 -0.014272 -0.02885 0.064214 -0.038988 -0.102406 -0.027872 0.105591 -0.163264 0.075071 0.183655 -0.071333 -0.19312 -0.02377 -0.138457 -0.070585 -0.076789 0.025512 -0.001246 0.187497 -0.064903 0.011661 0.009621 -0.130902 0.003196 -0.031614 0.029956 -0.041922 -0.001153 -0.149198 0.045767 0.012836 0.159971 0.21005 -0.0481 0.155784 -0.094782 0.034232 0.05646 0.159453 0.012721 0.180486 -0.009176 0.048622 -0.096686 -0.218079 0.111675 0.450666 0.102745 0.047536 -0.348078 -0.196264 0.034626 -0.163373 0.091442 -0.0209 -0.169604 0.00315 -0.127578 -0.136414 -0.101347 -0.073146 0.058507 0.057193 0.113333 0.191961 -0.063891 0.006548 0.042725 -0.046693 0.272346 0.01524 -0.220629 -0.047534 0.104974 -0.012949 0.253242 0.01386 0.031219 0.072791 -0.103387 0.117994 -0.011721 0.061678 0.058031 -0.107403 0.245726 -0.100451 0.093321 0.126595 -0.223156 0.037621
a 0.03235 -0.140692 -0.157462 0.124577 -0.002491 -0.023073 0.016047 -0.051468 0.166503 -0.010603 -0.056849 0.077156 -0.070215 -0.087939 -0.051674 0.072954 -0.15532 0.071856 0.160031 -0.053169 -0.196094 -0.015222 -0.137473 -0.045976 -0.143711 0.052468 0.028403 0.18185 -0.045406 0.026751 0.013595 -0.187004 0.051431 -0.012342 0.036552 -0.084326 0.037073 -0.13607 0.068279 -0.02733 0.141805 0.220487 -0.031957 0.134261 -0.106516 0.045772 0.06474 0.181855 0.031812 0.254644 -0.032483 0.071246 -0.086718 -0.275002 0.081753 0.49322 0.045405 0.054816 -0.408099 -0.188276 0.03638 -0.197524 0.11907 -0.051055 -0.201137 0.048315 -0.127356 -0.150967 -0.129123 -0.029407 0.081098 0.087072 0.107376 0.199531 -0.054547 0.029169 0.040043 -0.0132 0.283137 0.032802 -0.234387 -0.045094 0.089315 -0.055071 0.313334 0.038029 -0.037986 0.075924 -0.062765 0.125922 0.048945 0.038373 0.073194 -0.08155 0.222274 -0.056605 0.086574 0.117584 -0.25476 0.007765
n 0.037981 -0.117167 -0.148755 0.123868 -0.003455 -0.000833 0.005354 -0.068352 0.149902 -0.010147 -0.068733 0.080637 -0.062065 -0.103072 -0.035008 0.073018 -0.152062 0.074766 0.169703 -0.073135 -0.193554 -0.018249 -0.131478 -0.060589 -0.108949 0.033944 0.026084 0.188843 -0.056906 0.011848 0.004654 -0.170569 0.034374 -0.043051 0.015216 -0.08104 0.02095 -0.154054 0.051805 -0.011727 0.135818 0.214643 -0.043106 0.148526 -0.110101 0.05256 0.077439 0.156156 0.025452 0.210055 -0.005018 0.0535 -0.094585 -0.250523 0.100502 0.45366 0.079232 0.032081 -0.375348 -0.195316 0.032033 -0.18015 0.11222 -0.02567 -0.1815 0.027545 -0.115707 -0.1374 -0.107625 -0.063303 0.054353 0.071235 0.104929 0.199003 -0.062049 0.023542 0.039888 -0.031522 0.273627 0.019165 -0.22043 -0.020555 0.090336 -0.016752 0.261879 0.031716 -0.011322 0.075469 -0.089033 0.102144 0.0149 0.044216 0.061604 -0.082431 0.22409 -0.080505 0.076292 0.11751 -0.234797 0.027255
d 0.013947 -0.097698 -0.141595 0.108525 -0.005577 0.023081 0.017188 -0.049214 0.162418 -0.001727 -0.056295 0.097802 -0.027107 -0.105092 -0.025192 0.077983 -0.160292 0.083542 0.161981 -0.081021 -0.172421 -0.013024 -0.114214 -0.059267 -0.086348 0.016536 -0.002036 0.189148 -0.067011 0.029162 0.043803 -0.153866 0.019365 -0.021349 0.030599 -0.045594 -0.014419 -0.150636 0.048375 0.004399 0.14604 0.205455 -0.030475 0.149159 -0.093637 0.04644 0.075159 0.183055 0.039647 0.184604 -0.029118 0.050339 -0.071654 -0.225189 0.092893 0.440343 0.070869 0.048417 -0.353501 -0.200034 0.044688 -0.154388 0.093696 -0.022135 -0.163575 0.004927 -0.105686 -0.127525 -0.105139 -0.058619 0.060869 0.066393 0.116807 0.188438 -0.074796 0.020251 0.030939 -0.031462 0.27678 0.015547 -0.218534 -0.021759 0.079664 -0.012965 0.243671 0.01198 0.018879 0.062117 -0.126331 0.10771 -0.013992 0.038452 0.045356 -0.093698 0.213537 -0.084408 0.091733 0.133524 -0.233944 0.021312
i 0.037679 -0.108176 -0.154094 0.130755 -0.012339 0.002725 0.006979 -0.076846 0.158188 0.001478 -0.066843 0.075893 -0.051195 -0.107296 -0.034131 0.082997 -0.165559 0.082058 0.176271 -0.062917 -0.198272 -0.01984 -0.147439 -0.059731 -0.110583 0.038673 0.027418 0.1855 -0.057718 0.007271 0.01188 -0.175574 0.01484 -0.039606 0.024852 -0.078343 0.023928 -0.161934 0.043153 -0.013001 0.139574 0.217537 -0.031632 0.138405 -0.106162 0.031288 0.073314 0.166038 0.010937 0.209014 -0.006796 0.06733 -0.098086 -0.232721 0.102995 0.472849 0.088343 0.048064 -0.367694 -0.186125 0.032119 -0.171307 0.110667 -0.037678 -0.173195 0.03146 -0.112555 -0.155082 -0.099314 -0.074981 0.060447 0.071013 0.111205 0.204634 -0.067043 0.024328 0.026951 -0.031012 0.271495 0.012147 -0.224161 -0.0321 0.082916 -0.012323 0.252999 0.034335 -0.009451 0.08315 -0.097771 0.092168 0.013032 0.050852 0.062476 -0.097117 0.243074 -0.084587 0.075397 0.095113 -0.236677 0.030266
" -0.30457 -0.23645 0.17576 -0.72854 -0.28343 -0.2564 0.26587 0.025309 -0.074775 -0.3766 -0.057774 0.12159 0.34384 0.41928 -0.23236 -0.31547 0.60939 0.25117 -0.68667 0.70873 1.2162 -0.1824 -0.48442 -0.33445 0.30343 1.086 0.49992 -0.20198 0.27959 0.68352 -0.33566 -0.12405 0.059656 0.33617 0.37501 0.56552 0.44867 0.11284 -0.16196 -0.94346 -0.67961 0.18581 0.060653 0.43776 0.13834 -0.48207 -0.56141 -0.25422 -0.52445 0.097003 -0.48925 0.19077 0.21481 1.4969 -0.86665 -3.2846 0.56854 0.41971 1.2294 0.78522 -0.29369 0.63803 -1.5926 -0.20437 1.5306 0.13548 0.50722 0.18742 0.48552 -0.28995 0.19573 0.004652 0.092879 -0.42444 0.64987 0.52839 0.077908 0.8263 -1.2208 -0.34955 0.49855 -0.64155 -0.72308 0.26566 -1.3643 -0.46364 -0.52048 -1.0525 0.22895 -0.3456 -0.658 -0.16735 0.35158 0.74337 0.26074 0.061104 -0.39079 -0.84557 -0.035432 0.17036
' 0.091927 -0.244755 -0.213374 0.093776 -0.097027 0.005579 0.128795 -0.037146 0.147692 -0.077645 0.03393 0.08029 -0.125993 -0.069893 -0.15258 0.090505 -0.166608 0.104916 0.137298 -0.026373 -0.144776 0.016882 -0.235001 -0.14689 -0.080308 0.066761 -0.02712 0.134573 0.019196 -0.031419 -0.009655 -0.250747 0.047566 -0.006308 0.064531 -0.002442 0.071681 -0.142401 1.7e-05 -0.036456 0.167953 0.193811 -0.083344 0.126286 -0.131909 0.074065 -0.054635 0.112519 0.025838 0.209352 -0.101162 0.155012 -0.131358 -0.33099 -0.049901 0.460028 0.110519 0.197346 -0.494544 -0.225489 0.009261 -0.2112 0.018922 -0.17738 -0.211619 0.063228 -0.253708 -0.23618 -0.148219 0.045466 0.142708 0.183536 0.004214 0.215811 -0.054873 0.006003 0.083805 0.019427 0.263738 0.047727 -0.268422 -0.090966 0.08997 -0.096601 0.37814 0.008378 -0.109049 0.029581 -0.087347 0.123836 -0.016453 0.044516 0.157082 0.028661 0.258672 -0.029364 0.116145 0.097477 -0.322635 -0.005222
s 0.035029 -0.078439 -0.13878 0.089541 -0.022386 0.003081 0.005815 -0.077538 0.143339 -0.030191 -0.050029 0.070388 -0.026263 -0.061251 -0.04079 0.070214 -0.170178 0.107463 0.148964 -0.063114 -0.182329 -0.013647 -0.147619 -0.06903 -0.095596 0.015338 0.018825 0.186854 -0.049832 -0.014506 0.044611 -0.175992 -0.014113 -0.039384 0.038502 -0.060071 0.00908 -0.163309 0.047357 -0.010954 0.147187 0.201272 -0.069142 0.137138 -0.108663 0.022662 0.071103 0.167378 0.029187 0.207565 -0.027791 0.059793 -0.111483 -0.214651 0.103769 0.484691 0.097248 0.039507 -0.363866 -0.173968 0.01344 -0.134967 0.110458 -0.031032 -0.170775 0.038576 -0.113423 -0.14934 -0.094685 -0.104268 0.049357 0.064929 0.102142 0.194062 -0.089891 0.02137 0.042384 -0.018147 0.275428 0.007588 -0.207299 -0.038708 0.082658 -0.002719 0.22541 0.015661 -0.000124 0.06878 -0.10472 0.124144 -0.015384 0.044822 0.062987 -0.10641 0.202121 -0.086648 0.055014 0.112641 -0.212845 0.046718
r 0.035243 -0.108658 -0.161683 0.103311 -0.008847 -0.007215 0.027401 -0.066282 0.144681 -0.014911 -0.061398 0.07774 -0.06418 -0.091677 -0.04204 0.08339 -0.150304 0.082535 0.165673 -0.064271 -0.195281 -0.02132 -0.133044 -0.062562 -0.092956 0.029368 0.015843 0.181004 -0.048653 0.009602 0.018067 -0.166784 0.02093 -0.027462 0.034148 -0.054443 0.010948 -0.157068 0.068893 -0.003868 0.155456 0.210274 -0.048944 0.150261 -0.107359 0.049058 0.067147 0.156613 0.031879 0.216351 -0.0117 0.052129 -0.097558 -0.242093 0.097639 0.450685 0.069168 0.041226 -0.378425 -0.190875 0.046829 -0.17414 0.108201 -0.025786 -0.175498 0.02142 -0.118578 -0.133702 -0.108686 -0.062254 0.056804 0.075649 0.103409 0.197645 -0.059854 0.007743 0.047536 -0.028602 0.278441 0.021995 -0.222184 -0.030398 0.083582 -0.0187 0.275638 0.027198 0.0022 0.060061 -0.098274 0.10667 0.007697 0.040081 0.069352 -0.090828 0.226672 -0.072857 0.090064 0.124557 -0.234153 0.02429
- 0.052 0.017193 -0.133037 0.246634 -0.021014 0.110515 0.099231 -0.025277 0.048614 0.110003 -0.071982 0.028905 -0.024096 -0.135946 -0.040034 0.219101 -0.211749 0.002367 0.28597 -0.156283 -0.129954 0.024028 -0.21869 -0.082354 -0.048642 -0.1301 -0.020153 0.306014 -0.046055 0.040366 -0.048709 -0.158722 0.027807 -0.185106 0.02227 -0.099698 -0.133154 -0.238503 0.10884 0.143633 0.347284 0.239648 -0.014884 0.236751 0.048924 -0.023736 0.084964 0.231989 -0.047522 0.127514 -0.009141 0.086559 -0.051952 -0.299156 0.288825 0.479335 0.108263 0.045082 -0.227505 -0.343182 -0.104962 -0.21075 0.051773 -0.05047 -0.152595 0.042072 -0.377013 -0.222218 -0.169152 -0.087237 0.054245 0.186085 0.156694 0.314289 -0.220496 0.035257 -0.03813 -0.099323 0.402448 -0.065511 -0.319659 0.017143 0.275416 0.020157 0.28228 0.09215 0.137348 0.10285 -0.109117 0.192303 -0.079875 0.181239 -0.002438 -0.197771 0.268652 -0.144114 0.148331 0.201094 -0.157484 -0.046263
w 0.019606 -0.087908 -0.114855 0.080833 -0.004731 -0.047575 0.004896 -0.047078 0.129482 -0.037036 -0.034727 0.07423 -0.068412 -0.091064 -0.041736 0.084046 -0.14454 0.062129 0.14783 -0.070721 -0.182895 0.011886 -0.11707 -0.096774 -0.098702 0.059283 0.000188 0.201832 -0.075991 0.040735 0.015468 -0.125305 0.053036 -0.018324 -0.000103 -0.071065 -0.020158 -0.16894 0.063882 0.004384 0.135913 0.195685 -0.095328 0.148088 -0.122236 0.061599 0.065821 0.174373 0.088245 0.200583 0.002332 0.01894 -0.110577 -0.28872 0.107766 0.44757 0.053324 0.043945 -0.38682 -0.235234 0.028097 -0.174803 0.099529 -0.043275 -0.200522 0.034299 -0.120675 -0.113577 -0.117752 -0.016518 0.038395 0.089706 0.087762 0.170942 -0.059759 -0.006854 0.100654 -0.018336 0.301107 0.009486 -0.225307 -0.029701 0.133777 -0.03582 0.311216 0.029187 -0.005731 0.056574 -0.055583 0.198632 0.03416 0.048524 0.101087 -0.100081 0.199678 -0.078739 0.125969 0.159834 -0.204333 0.055665
b 0.02991 -0.124527 -0.157107 0.088427 -0.002101 -0.022805 0.022271 -0.06313 0.156964 -0.02625 -0.044766 0.0817 -0.074767 -0.07986 -0.039463 0.093082 -0.155978 0.072596 0.168049 -0.070008 -0.192098 -0.010308 -0.121109 -0.06822 -0.114238 0.040812 0.009034 0.181203 -0.060526 0.029224 0.029587 -0.168932 0.043574 -0.021462 0.029018 -0.066784 0.028496 -0.135048 0.070599 -0.007872 0.157923 0.212524 -0.048826 0.142574 -0.121931 0.061957 0.070942 0.171948 0.042388 0.226461 -0.027603 0.041212 -0.09747 -0.277787 0.074608 0.478488 0.058926 0.05268 -0.410217 -0.197556 0.056265 -0.192816 0.104704 -0.0351 -0.19548 0.030069 -0.11668 -0.12659 -0.132095 -0.043051 0.063996 0.074819 0.099465 0.197496 -0.063 0.012602 0.06036 -0.026934 0.289166 0.039643 -0.221111 -0.036731 0.095621 -0.050923 0.312003 0.029005 -0.005157 0.063561 -0.080223 0.145949 0.031535 0.042363 0.077936 -0.088705 0.214327 -0.05913 0.09387 0.136822 -0.240838 0.027518
y 0.005369 -0.103013 -0.149267 0.116946 0.002476 -0.00941 0.007377 -0.066476 0.156121 -0.007215 -0.083255 0.104335 -0.042783 -0.105731 -0.028285 0.072136 -0.170183 0.085619 0.164193 -0.07389 -0.1872 -0.022986 -0.112252 -0.068247 -0.096088 0.055844 -0.005808 0.179914 -0.068041 0.048519 0.007076 -0.1426 0.044344 -0.030395 0.024199 -0.059323 0.004539 -0.15606 0.047197 -0.008906 0.161344 0.219685 -0.041204 0.143933 -0.12641 0.052583 0.079499 0.183324 0.062568 0.197939 0.0016 0.014937 -0.061724 -0.260109 0.097553 0.458717 0.075186 0.043107 -0.408922 -0.207915 0.046545 -0.173734 0.119319 -0.042199 -0.192487 0.018287 -0.083092 -0.125447 -0.130297 -0.044935 0.054436 0.073824 0.104852 0.21368 -0.056923 0.02035 0.044203 -0.045951 0.281665 0.008557 -0.226922 -0.009608 0.089861 -0.039357 0.271455 0.03111 -0.000183 0.060523 -0.100837 0.124133 0.029656 0.049946 0.056799 -0.096814 0.228643 -0.076956 0.081537 0.09691 -0.275362 0.027862
( -0.174091 0.522699 0.360716 0.002517 -0.017368 0.423238 -0.15051 -0.160104 0.737561 0.069178 0.127655 0.086049 -0.252853 -0.133176 0.316453 0.047806 -0.356637 -0.112923 -0.380385 0.342 -0.458405 -0.000435 -0.458546 -0.070182 -0.097489 0.544767 -0.1187 -0.041823 0.405279 -0.13814 0.168369 -0.060548 -0.360618 -0.193822 0.130898 -0.071161 -0.142718 -0.871418 0.132234 0.011521 0.632929 -0.131311 -0.634528 -0.303756 -0.411609 -0.292736 -0.204286 0.202638 -0.027387 0.112613 0.43158 -0.128548 0.063364 -0.468549 -0.163723 0.410746 0.122036 0.273259 -0.337924 -0.245917 -0.809771 -0.594759 0.266255 -0.692287 -0.403599 -0.477247 -0.118029 -0.412466 0.309793 0.3264 -0.641161 0.507485 0.22729 -0.305349 0.341676 -0.279245 0.364216 -0.043485 0.193694 -0.139343 -0.639155 -0.35993 0.174125 -0.065541 0.119348 0.352675 0.574407 0.177105 0.07826 0.291126 -0.093684 0.051393 0.613675 -0.055026 -0.051082 0.02795 0.42728 0.368484 -0.209143 -0.277653
) -0.179506 0.523123 0.361534 -0.00412 -0.022033 0.42473 -0.156257 -0.161446 0.739412 0.075656 0.12485 0.086868 -0.24099 -0.136773 0.323592 0.052019 -0.360498 -0.109332 -0.381151 0.336303 -0.462196 0.007744 -0.467706 -0.068718 -0.079685 0.531828 -0.119195 -0.055463 0.400362 -0.144255 0.159713 -0.052329 -0.353584 -0.208058 0.130302 -0.07451 -0.132129 -0.870697 0.125857 0.00768 0.636003 -0.11727 -0.622532 -0.304342 -0.411376 -0.290368 -0.19565 0.194725 -0.028117 0.108949 0.43412 -0.125708 0.063897 -0.462334 -0.149806 0.410739 0.124759 0.258217 -0.339463 -0.240329 -0.81233 -0.586216 0.27093 -0.692548 -0.40015 -0.473754 -0.115233 -0.422369 0.30742 0.32223 -0.638964 0.503694 0.226974 -0.314705 0.343515 -0.265235 0.368968 -0.041805 0.187477 -0.142734 -0.640688 -0.366112 0.166218 -0.067846 0.127352 0.341216 0.574567 0.174195 0.089697 0.292479 -0.100082 0.036848 0.591321 -0.046416 -0.048452 0.029273 0.419244 0.353787 -0.216059 -0.282807
m 0.039063 -0.109811 -0.158003 0.111802 -0.014066 -0.019171 0.029148 -0.058289 0.146031 -0.013844 -0.046524 0.072315 -0.062877 -0.090318 -0.044413 0.088521 -0.15919 0.073698 0.165575 -0.063631 -0.194349 -0.033353 -0.142225 -0.058398 -0.11298 0.046705 0.029673 0.186989 -0.050765 0.02318 0.017568 -0.16194 0.030413 -0.019363 0.03683 -0.073016 0.025083 -0.139334 0.060688 -0.010918 0.150888 0.222315 -0.044576 0.145063 -0.113961 0.038901 0.056428 0.174316 0.022998 0.227208 -0.007128 0.054828 -0.083595 -0.263117 0.097372 0.480526 0.060564 0.056132 -0.387686 -0.195042 0.03707 -0.187713 0.106042 -0.040954 -0.189329 0.040096 -0.127096 -0.145806 -0.109989 -0.049988 0.071764 0.085695 0.100012 0.202067 -0.067566 0.010961 0.045693 -0.027332 0.276147 0.023005 -0.233204 -0.0467 0.095832 -0.037837 0.288921 0.050296 -0.002861 0.063599 -0.074668 0.128584 0.031629 0.061618 0.074963 -0.087902 0.23763 -0.078983 0.103117 0.114107 -0.24063 0.015018
` 0.073026 0.087272 0.440736 -0.188966 -0.308794 0.101823 -0.174454 0.113247 -0.069162 -0.057802 -0.083716 0.158985 -0.17179 0.049797 -0.188288 -0.013944 0.279755 0.430425 -0.201993 0.481292 0.270396 0.294661 -0.3227 -0.397336 0.131814 0.399941 -0.278358 -0.568656 -0.028187 -0.218668 0.030669 0.389007 0.174257 0.34865 -0.020212 0.204846 0.153116 -0.096813 0.366367 -0.15268 -0.066769 0.458268 -0.326278 -0.21048 -0.293602 -0.189268 0.00016 -0.203527 -0.48153 -0.75132 -0.132271 0.134543 0.199042 0.138452 -0.401908 -1.224788 0.445276 0.229432 0.728434 0.393044 -0.143156 0.728476 -0.61143 -0.490699 0.613594 0.03733 0.50679 0.258346 -0.310736 0.217612 0.295974 -0.193454 0.029072 -0.142536 0.098591 0.061578 0.152196 0.01796 -0.346768 -0.102596 0.314917 -0.351895 -0.27508 0.1721 -1.04134 -0.369188 0.019197 -0.380888 -0.213724 -0.180686 0.099838 0.048454 0.147071 0.022902 -0.045095 -0.284427 0.021179 -0.268968 -0.272106 0.545145
v 0.030555 -0.129574 -0.142565 0.150548 0.005976 -0.014878 0.0292 -0.059037 0.178199 -0.01319 -0.041354 0.083046 -0.084119 -0.107052 -0.056227 0.07398 -0.158577 0.108593 0.160969 -0.058027 -0.229959 -0.022067 -0.138137 -0.009978 -0.114211 0.027298 0.02145 0.207494 -0.025203 0.023212 0.010303 -0.147044 0.014731 -0.033733 0.044093 -0.073256 0.046456 -0.160719 0.055898 -0.008685 0.168931 0.196632 -0.038272 0.136064 -0.11006 0.015257 0.069502 0.150263 0.044659 0.239636 0.017551 0.070498 -0.113693 -0.247359 0.089104 0.461444 0.087662 0.05469 -0.401181 -0.192498 0.055684 -0.197906 0.098034 -0.032837 -0.18687 0.035693 -0.112295 -0.157448 -0.127898 -0.028988 0.088947 0.063724 0.117428 0.223034 -0.047598 -0.004007 0.037807 -0.011123 0.270944 0.020037 -0.235828 -0.046085 0.079644 -0.039963 0.279369 0.028714 -0.025583 0.107664 -0.100955 0.111874 0.03881 0.033063 0.068764 -0.080554 0.202464 -0.059412 0.07952 0.131239 -0.267107 0.012756
u 0.031421 -0.107437 -0.147236 0.127155 -0.009585 0.000622 0.020102 -0.057246 0.164679 -0.016638 -0.062388 0.096578 -0.06036 -0.094987 -0.041862 0.080756 -0.16564 0.076462 0.169014 -0.06959 -0.169126 -0.005919 -0.154239 -0.062369 -0.124681 0.043856 0.016917 0.195742 -0.043182 0.01334 0.010195 -0.186633 0.0339 -0.032735 0.026719 -0.069631 0.018094 -0.157655 0.052116 -0.014419 0.153969 0.212439 -0.041092 0.133518 -0.103129 0.041603 0.064852 0.17512 0.025768 0.227444 -0.027162 0.057237 -0.090679 -0.259141 0.086235 0.480674 0.077699 0.048968 -0.38955 -0.205936 0.038562 -0.185544 0.096786 -0.039392 -0.193289 0.034963 -0.1257 -0.153407 -0.12402 -0.04948 0.078001 0.077532 0.105314 0.206178 -0.062852 0.029733 0.034103 -0.018669 0.286546 0.030089 -0.22515 -0.03957 0.082411 -0.037126 0.281511 0.03714 -0.01541 0.071949 -0.082743 0.114562 0.02902 0.049354 0.068562 -0.091423 0.233725 -0.070592 0.077511 0.115589 -0.25034 0.009395
c 0.044805 -0.08767 -0.143306 0.109831 -0.01916 0.012244 0.022432 -0.060084 0.147304 -0.026489 -0.052144 0.059499 -0.049221 -0.081713 -0.050917 0.106838 -0.13658 0.085416 0.192688 -0.063698 -0.200948 -0.037116 -0.151476 -0.068059 -0.097638 0.022108 0.024314 0.187866 -0.066161 0.004182 0.020477 -0.14288 -0.002115 -0.03749 0.046198 -0.052135 0.008236 -0.169069 0.057719 0.000815 0.154923 0.197117 -0.064235 0.123731 -0.10526 0.037297 0.055499 0.16113 0.001944 0.19449 0.002642 0.061054 -0.10595 -0.245283 0.110391 0.439069 0.090826 0.036795 -0.339635 -0.183994 0.022776 -0.157646 0.095853 -0.03821 -0.165117 0.008885 -0.140305 -0.15717 -0.075373 -0.072138 0.052017 0.081086 0.109326 0.204289 -0.070753 -0.011834 0.04702 -0.030469 0.264143 0.01837 -0.235855 -0.041971 0.083929 0.002226 0.24303 0.04498 0.022546 0.067868 -0.089883 0.10694 -0.008196 0.050973 0.052301 -0.092915 0.239718 -0.086032 0.074491 0.092622 -0.208677 0.041495
l 0.023182 -0.10415 -0.174205 0.107275 -0.006757 -0.003041 0.02677 -0.064313 0.155509 -0.021863 -0.064228 0.079461 -0.06806 -0.093135 -0.036805 0.08419 -0.159662 0.088877 0.176457 -0.070306 -0.193905 -0.013295 -0.118749 -0.063218 -0.090122 0.041245 0.009932 0.177441 -0.062048 0.019252 0.017916 -0.166639 0.03278 -0.032083 0.042609 -0.05896 0.013004 -0.154808 0.058912 0.001626 0.160448 0.203563 -0.052166 0.143632 -0.122578 0.058855 0.079776 0.168965 0.039203 0.219165 -0.00695 0.037748 -0.0858 -0.260765 0.094133 0.4504 0.077552 0.040811 -0.401083 -0.198868 0.051329 -0.172441 0.109175 -0.036222 -0.187237 0.010989 -0.102127 -0.135033 -0.119779 -0.067237 0.056645 0.075543 0.105588 0.203721 -0.050902 0.009951 0.048526 -0.036779 0.288411 0.025557 -0.228436 -0.02467 0.081208 -0.025672 0.288081 0.023372 0.010211 0.061574 -0.101222 0.114306 0.00115 0.041617 0.061302 -0.091217 0.227314 -0.070158 0.075779 0.119957 -0.246668 0.029247
: -0.27594 0.120056 0.088375 0.424932 -0.455564 0.407427 -0.024609 -0.11882 0.052022 0.186309 0.637789 0.111775 -0.000255 0.011419 0.142117 -0.152968 -0.171645 -0.087065 0.033065 -0.216393 -0.120521 0.071268 -0.411875 0.109943 0.044801 0.190357 0.146533 0.426672 0.052221 -0.018066 -0.317136 0.109146 0.066913 -0.556028 -0.286748 -0.401903 0.016907 -0.219408 -0.067526 0.044739 0.628829 -0.154181 -0.399476 0.257397 -0.358959 -0.530065 -0.238588 0.265095 -0.070004 -0.077191 0.076499 0.050917 -0.208008 -0.089987 0.084768 0.318747 -0.414943 0.193357 -0.499538 -0.207984 -0.285813 -0.01843 0.137552 -0.242816 -0.315671 -0.313466 -0.572606 -0.395062 -0.098693 0.011633 -0.444032 0.31965 0.123788 0.090559 0.141016 -0.321197 -0.112801 -0.328341 0.275475 -0.119177 -0.409042 -0.22525 0.124797 -0.280638 0.595031 0.340104 0.128932 0.082051 -0.054064 0.062581 -0.067446 0.358601 0.123349 0.067829 0.050248 -0.099606 0.411985 0.142264 -0.09698 -0.142619
p 0.031914 -0.060576 -0.125131 0.112997 -0.028805 0.027647 0.015153 -0.053146 0.148245 -0.012644 -0.055211 0.067988 -0.041051 -0.074654 -0.049272 0.109936 -0.140964 0.081936 0.214459 -0.068059 -0.187713 -0.031173 -0.171605 -0.061251 -0.09063 0.026136 0.02165 0.198955 -0.071018 -0.005866 0.03075 -0.143578 0.004275 -0.039942 0.051169 -0.047289 -0.009517 -0.173767 0.058572 -0.012699 0.158236 0.209686 -0.052667 0.119483 -0.091031 0.022773 0.058994 0.168613 -0.007208 0.18812 -0.022601 0.076526 -0.094324 -0.211473 0.101467 0.444757 0.097009 0.038395 -0.312804 -0.198825 0.009567 -0.140798 0.077839 -0.027161 -0.153793 0.034043 -0.138623 -0.178699 -0.075078 -0.097852 0.052694 0.07619 0.112695 0.205322 -0.092101 0.008508 0.039232 -0.021479 0.27172 0.011078 -0.23782 -0.047697 0.085229 0.001033 0.225852 0.04455 0.032589 0.070148 -0.086009 0.114387 -0.0181 0.069653 0.048132 -0.106125 0.241346 -0.100138 0.077973 0.096928 -0.189855 0.038997
g 0.035773 -0.117586 -0.141797 0.121109 -1e-05 0.008504 -0.014265 -0.062609 0.151763 -0.012631 -0.060872 0.077715 -0.059409 -0.105098 -0.040806 0.081088 -0.158141 0.069529 0.187678 -0.083466 -0.18884 -5.1e-05 -0.124324 -0.064023 -0.114667 0.047085 0.000836 0.200652 -0.061662 0.012331 -0.004348 -0.176028 0.045643 -0.047109 0.007346 -0.088617 -0.000425 -0.164433 0.049493 -0.01051 0.135017 0.211837 -0.046841 0.137718 -0.119678 0.067723 0.073495 0.156743 0.036222 0.190096 -0.008684 0.04284 -0.099583 -0.226307 0.084527 0.453899 0.082757 0.044777 -0.373583 -0.194456 0.034291 -0.160179 0.105029 -0.013266 -0.198942 0.043999 -0.112989 -0.12894 -0.111545 -0.05393 0.048027 0.073518 0.100083 0.194236 -0.078659 0.029263 0.044157 -0.032107 0.276146 0.023198 -0.211978 -0.012657 0.080027 -0.017623 0.256404 0.034033 -0.015756 0.066739 -0.099181 0.110386 0.020154 0.045611 0.06724 -0.093739 0.232251 -0.095623 0.070496 0.124927 -0.214741 0.042373
$ 0.309911 0.327562 -0.218995 0.752102 0.233142 0.293675 0.166689 0.227902 0.04512 0.087512 0.367713 0.371571 -0.341169 -0.497693 0.138891 -0.552373 -0.31019 0.082534 0.360764 0.237282 0.0011 -0.31552 -0.159874 -0.069105 -0.077182 -0.097927 0.456352 0.412869 0.043961 -0.507458 -0.119357 0.05304 0.430397 -0.054426 -0.035562 0.188129 -0.222947 0.009373 -0.496152 0.559738 0.476382 -0.225453 -0.1873 -0.046976 0.102582 -0.076465 0.205953 -0.263888 -0.365157 0.022144 0.184946 -0.09433 -0.175107 0.086772 -0.522076 0.3944 -0.176187 -0.267779 -0.122085 -0.151242 0.451987 -0.120383 -0.612589 0.055369 -0.301738 -0.165261 -0.439071 0.230079 0.43056 -0.031608 -0.122546 0.192259 -0.127313 0.980834 -0.065649 0.134083 0.110543 0.26234 0.112513 0.358813 -0.164201 0.151291 0.310034 -0.307957 0.652241 0.555185 0.396363 0.119127 0.05999 0.220039 0.095522 0.424253 0.241573 -0.923477 0.232174 -0.361869 0.459248 0.459324 0.336933 -0.398912
; 0.098239 0.240253 -0.098084 0.056554 -0.170514 0.080557 -0.078369 -0.077716 0.077908 0.038377 0.295246 0.187093 -0.184352 -0.05976 -0.26768 0.018607 -0.046352 -0.095192 0.130046 0.136023 -0.000996 -0.172723 -0.140106 0.130067 -0.17232 0.324919 0.129842 0.145645 -0.169207 -0.228878 0.181942 0.103957 -0.117886 0.01196 -0.021722 0.108397 -0.141366 0.036544 0.065851 0.155943 0.262426 -0.096804 -0.318752 -0.088499 -0.29504 0.107429 -0.250621 0.121694 0.330816 -0.197296 0.13576 0.030046 0.008678 -0.19795 5.5e-05 0.210259 0.01798 0.08137 0.049958 -0.169084 -0.151128 -0.175328 -0.100973 -0.297704 -0.029097 0.014697 -0.151759 0.028433 0.105213 -0.073197 -0.22445 0.297548 -0.237696 0.252862 -0.07237 -0.067684 0.085879 -0.076735 0.173903 -0.189438 -0.190987 -0.113008 0.148764 -0.15206 0.188972 0.082602 0.147204 -0.29104 -0.125179 0.151417 -0.130234 0.079043 0.083251 -0.113615 0.014087 0.026351 0.223621 0.063627 -0.101799 -0.019907
_ -0.138929 0.186397 0.136709 0.115968 -0.07739 0.149608 -0.148808 0.034982 -0.080386 -0.07802 0.084626 -0.056578 -0.070211 0.074191 -0.150277 0.142145 -0.064194 0.114004 0.083943 -0.012865 -0.171187 -0.093863 -0.208518 -0.052885 -0.061121 0.022434 0.040726 0.044719 0.044176 -0.147599 0.049474 0.061909 0.078355 -0.001396 0.021732 -0.022243 -0.157322 -0.093299 0.054065 -0.051026 0.200716 -0.00458 -0.04601 -0.061195 -0.022375 0.034428 -0.179248 0.128498 -0.062169 0.151042 0.21516 0.14001 -0.023679 -0.194181 0.087039 0.323472 0.003582 0.082827 -0.158573 -0.191731 -0.127954 -0.129773 -0.111518 -0.17998 0.019975 0.119146 -0.043049 -0.109906 -0.036892 0.102781 -0.074859 0.105897 0.102651 0.052815 0.154814 -0.069112 0.126175 -0.084643 0.05529 -0.112961 -0.152131 -0.125683 -0.042199 -0.191709 0.26126 0.044996 -0.066102 -0.0056 0.043182 -0.025195 -0.11458 0.260924 0.033349 -0.099317 0.117752 -0.16938 0.262935 0.069158 -0.105168 0.057422
k 0.020272 -0.155436 -0.165117 0.100831 0.009123 -0.083999 0.010259 -0.072167 0.168326 -0.028727 -0.051576 0.097212 -0.088016 -0.076173 -0.05221 0.082364 -0.182086 0.08578 0.129814 -0.086005 -0.199595 0.006678 -0.121418 -0.037638 -0.149046 0.064665 0.009991 0.21501 -0.03749 0.050746 0.002987 -0.150438 0.066345 -0.011589 0.02625 -0.111755 0.053574 -0.130087 0.073104 -0.031964 0.15423 0.209952 -0.034935 0.174589 -0.146619 0.047621 0.061015 0.168341 0.083759 0.264267 -0.000222 0.022518 -0.106936 -0.311381 0.094546 0.520794 0.035172 0.075394 -0.461091 -0.19015 0.083579 -0.224142 0.124508 -0.019833 -0.230006 0.05338 -0.104739 -0.08802 -0.167395 0.013731 0.063645 0.095803 0.102038 0.227738 -0.050407 0.035988 0.047199 -0.011911 0.323131 0.052211 -0.224624 -0.043531 0.105165 -0.110022 0.366456 0.031189 -0.049838 0.085777 -0.066747 0.185408 0.09962 0.035007 0.10658 -0.091386 0.21406 -0.052456 0.113826 0.177166 -0.295758 0.012285
j 0.025587 -0.177082 -0.168465 0.121828 0.013262 -0.052911 0.018584 -0.051622 0.177488 -0.038807 -0.017944 0.07776 -0.079863 -0.076097 -0.052333 0.061551 -0.192547 0.054203 0.120345 -0.052276 -0.193539 -0.004403 -0.140608 -0.013492 -0.182886 0.062159 0.029469 0.176011 -0.016576 0.031066 -0.005122 -0.173407 0.079988 -0.008437 0.01238 -0.135582 0.069444 -0.107179 0.049645 -0.01765 0.140305 0.225266 -0.000575 0.130824 -0.121711 0.016454 0.017575 0.177349 0.066007 0.25573 -0.012394 0.068384 -0.116505 -0.306365 0.087972 0.553912 0.010292 0.122362 -0.462732 -0.208225 0.066586 -0.223318 0.121643 -0.049716 -0.239862 0.065836 -0.112025 -0.094044 -0.163379 0.059602 0.102472 0.103739 0.081531 0.185472 -0.051332 0.04146 0.044064 -0.018956 0.327347 0.024817 -0.235652 -0.083166 0.095687 -0.111678 0.362737 0.05655 -0.087294 0.09538 -0.035828 0.157495 0.111605 0.045878 0.090682 -0.07802 0.222369 -0.034098 0.11719 0.124904 -0.305246 -0.066158
1 0.235494 0.063704 -0.008172 0.273756 -0.129503 0.16935 0.098423 -0.035233 0.055184 0.025747 0.254525 0.103913 -0.191532 -0.13863 0.170082 0.0542 -0.254792 -0.126213 0.106207 -0.067629 -0.019 0.078912 -0.12725 0.000981 0.013649 -0.155732 0.069851 0.337081 0.115102 -0.080169 0.023145 -0.170859 0.053828 -0.165035 -0.17373 -0.018706 -0.118363 -0.258886 0.010368 0.206199 0.301145 0.076158 -0.192389 0.10625 -0.083423 -0.125537 0.014934 0.137696 -0.137295 -0.028925 0.081843 -0.05891 0.033999 -0.217177 0.065031 0.505423 -0.023014 -0.044535 -0.316276 -0.349742 -0.109209 -0.142864 -0.022685 0.035898 -0.469114 -0.005802 -0.348245 -0.298325 -0.076602 -0.016789 0.010872 0.19374 -0.017561 0.274128 -0.238602 -0.055332 -0.070657 0.011633 0.276336 0.017996 -0.379764 -0.052916 0.248627 0.010248 0.395015 0.26549 0.231139 0.17379 -0.118324 0.285086 -0.098437 0.313222 0.083499 -0.240212 0.097074 -0.115334 0.113819 0.275401 -0.129469 -0.241973
x 0.068876 -0.049509 -0.090009 0.124783 -0.005888 0.000678 0.033197 -0.051872 0.166527 -0.02736 -0.01009 0.046907 -0.057624 -0.12507 -0.073277 0.097214 -0.133072 0.076606 0.218489 -0.074809 -0.180907 -0.093842 -0.201469 -0.005285 -0.099394 0.063305 0.064856 0.208628 -0.069845 0.012844 0.022895 -0.112185 -0.022644 -0.034086 0.057071 -0.050241 0.023436 -0.176158 0.052493 -0.015977 0.201808 0.192854 -0.081995 0.100374 -0.100532 0.044318 0.031258 0.181939 0.02866 0.181208 -0.029332 0.126269 -0.100359 -0.248082 0.093246 0.460511 0.104696 0.051424 -0.307682 -0.219319 0.005189 -0.170538 0.090724 -0.039315 -0.156098 0.02746 -0.150499 -0.175852 -0.100925 -0.068225 0.057396 0.052568 0.109448 0.246428 -0.081227 0.009399 0.089301 -0.037343 0.255788 -0.028639 -0.220521 -0.043142 0.101175 0.014537 0.239266 0.064487 0.026435 0.052312 -0.05819 0.14282 0.0021 0.100964 0.063144 -0.104056 0.252937 -0.12626 0.058482 0.090235 -0.185414 0.011581
? 0.001127 0.200306 0.199534 -0.185312 -0.637369 0.073844 0.406291 -0.239621 0.527487 -0.135751 0.227268 0.315983 -0.215231 -0.058205 0.145364 0.123243 -0.282192 0.414148 0.058444 0.197153 -0.357236 0.112171 -0.371127 -0.16995 0.023091 0.349473 -0.09928 0.148889 0.153969 -0.240343 0.024473 0.006136 0.481651 -0.290856 -0.147388 0.121725 -0.240309 -0.161934 0.078036 -0.081533 0.403079 0.046207 0.019814 -0.058767 -0.275855 -0.491392 -0.103847 -0.005715 -0.175451 0.172188 -0.171057 0.006315 -0.490212 -0.073637 -0.173746 0.557719 0.494653 0.161616 -0.328556 -0.333505 -0.280843 0.00667 -0.067856 -0.43231 0.048652 0.127427 -0.207914 -0.199033 -0.14966 -0.015693 0.115152 0.127814 0.172358 0.436808 -0.264264 -0.063889 0.243863 -0.039488 0.244498 -0.039617 -0.208456 -0.278051 -0.036228 -0.127962 0.371319 -0.010622 0.104444 -0.066581 -0.257483 0.240625 -0.105846 0.1581 0.2012 -0.189516 0.188161 -0.05456 0.319634 0.100613 -0.345267 -0.023901
0 0.231324 0.173262 -0.068577 0.293617 -0.147175 0.143638 0.116314 0.059205 0.059496 0.102163 0.265911 0.136015 -0.137538 -0.241282 0.111234 0.030063 -0.243565 -0.107587 0.202391 -0.054792 0.081077 0.010212 -0.144559 -0.015482 0.058109 -0.228558 0.050208 0.231277 0.091557 -0.095309 0.050269 -0.170689 0.043714 -0.156241 -0.102622 -0.059989 -0.132566 -0.172235 0.026497 0.199801 0.290892 0.061603 -0.166212 0.118048 -0.062971 -0.054104 0.000462 0.094495 -0.119946 0.014582 0.100641 -0.137805 -0.022063 -0.238713 0.086564 0.562586 0.038918 -0.067485 -0.252178 -0.396475 -0.001757 -0.095622 0.000161 0.002302 -0.42459 0.000419 -0.34084 -0.236953 -0.018116 -0.11255 0.080052 0.193813 -0.065439 0.282944 -0.174214 -0.004442 -0.005815 3.2e-05 0.278873 0.056413 -0.29489 -0.100364 0.262824 -0.020648 0.365865 0.260007 0.24319 0.231052 -0.071968 0.240307 -0.039589 0.394255 0.072859 -0.365617 0.08687 -0.156689 0.109348 0.304538 -0.081651 -0.144058
2 0.227292 0.119851 0.005228 0.272873 -0.105681 0.17044 0.103662 -0.00709 0.068239 0.038922 0.244483 0.125384 -0.186704 -0.156355 0.149043 0.052568 -0.275513 -0.107506 0.115963 -0.011449 -0.005838 0.06293 -0.122765 -0.009453 0.014465 -0.155433 0.10438 0.34877 0.107359 -0.081001 0.028986 -0.17147 0.064159 -0.155264 -0.110697 -0.016212 -0.101178 -0.24866 0.005051 0.257356 0.331457 0.047527 -0.180674 0.083896 -0.083368 -0.088265 -0.035853 0.145994 -0.183544 -0.034326 0.077546 -0.099329 -0.000941 -0.220411 0.075237 0.516004 0.009483 -0.031806 -0.314734 -0.375269 -0.08904 -0.200757 -0.018653 0.013102 -0.491872 0.039755 -0.34732 -0.27088 -0.069658 -0.025722 0.004538 0.232796 -0.005398 0.287113 -0.226694 -0.017425 -0.080047 -0.011457 0.302998 0.03921 -0.367435 -0.052257 0.256183 0.004166 0.391686 0.263729 0.274289 0.194879 -0.09176 0.30284 -0.087584 0.325438 0.087657 -0.322975 0.095337 -0.120502 0.131002 0.25582 -0.129536 -0.223392
q 0.051965 -0.131239 -0.142933 0.131246 -0.000834 0.011834 0.041023 -0.030027 0.179304 0.020444 -0.034339 0.085319 -0.038145 -0.122905 -0.057297 0.087267 -0.177873 0.041336 0.170945 -0.092292 -0.148683 0.00609 -0.187913 -0.072381 -0.141007 0.025159 0.011865 0.188625 -0.062986 0.001757 0.006418 -0.222999 0.039594 -0.038554 0.039919 -0.073082 -0.00862 -0.134645 0.047686 -0.007232 0.189594 0.187862 -0.045918 0.08272 -0.072376 0.036321 0.01429 0.182089 0.027201 0.209351 -0.072371 0.095354 -0.091726 -0.258835 0.058638 0.492309 0.096297 0.073643 -0.361343 -0.201678 0.009053 -0.203888 0.102377 -0.08635 -0.194501 0.060135 -0.156662 -0.19353 -0.158112 -0.015205 0.101513 0.125395 0.089584 0.183673 -0.053149 0.009554 0.060807 -0.059148 0.273106 0.024165 -0.215164 -0.072188 0.098337 -0.062053 0.278368 0.056303 -0.009264 0.068216 -0.027542 0.145835 0.028764 0.070871 0.066284 -0.100653 0.225293 -0.045859 0.078954 0.069387 -0.239082 0.002858
% -0.077053 1.5622 0.69068 -0.014616 -0.11447 0.00814 0.12705 0.42012 0.20736 1.1317 0.65828 0.14701 -0.70489 0.041337 1.3327 -1.2953 -0.043816 -0.51724 -0.45478 1.3654 -0.14469 0.45228 0.67156 0.6422 -0.27507 -0.96088 1.0036 -0.05732 -0.081076 -0.85017 0.34671 1.1095 -0.053428 -0.75709 0.81249 0.36887 1.8262 1.0254 -0.060735 1.2154 -0.50745 -0.74963 -0.46557 0.36187 0.16976 -0.978 -0.15778 -0.48215 -1.3695 -1.6017 -0.65073 -0.69977 0.049476 0.2464 -0.71586 -1.4587 -0.71448 -1.0321 1.6061 -0.080424 0.27846 -0.50841 -0.7793 0.23408 0.68201 0.63463 -0.088752 -1.3523 1.4581 0.47615 -1.2184 0.62454 0.17119 0.56619 0.032283 0.12144 -0.74793 -0.37646 -0.66578 -1.2748 -0.60006 0.16555 -0.43904 0.89499 -0.54756 -0.46044 0.44376 -0.30148 1.0634 0.4986 -0.39125 -0.76347 0.099657 0.51855 -1.3083 -0.055195 -0.88003 -0.32393 0.37064 -1.3264
/ -0.064801 0.198334 0.043906 0.230967 -0.103379 -0.03524 0.094087 -0.031398 0.003933 -0.039115 0.267934 -0.004408 -0.147837 -0.07837 -0.113112 0.249563 -0.148452 0.033391 0.174398 0.092956 -0.17184 0.048938 -0.283552 -0.045467 -0.115871 0.065194 0.048006 0.238087 0.012787 -0.041335 -0.016854 -0.050432 0.015705 -0.106286 -0.02671 -0.106227 -0.156246 -0.188142 0.007448 0.126619 0.269483 0.117171 -0.152763 0.090124 0.012661 -0.076611 -0.267341 0.142474 0.019811 0.014445 0.177005 0.049022 -0.221661 -0.174632 0.088315 0.445817 0.044776 0.133383 -0.283224 -0.341511 -0.090188 -0.194395 -0.101804 -0.238472 -0.209816 0.073845 -0.311392 -0.239161 -0.009568 0.063574 0.008504 0.19012 0.041344 0.19151 -0.104074 -0.142819 0.123008 0.029904 0.30576 -0.231449 -0.374447 -0.181454 0.171337 -0.042567 0.374939 0.14474 0.008321 0.072562 -0.032881 0.300598 0.00258 0.314141 0.066672 -0.217014 0.256458 -0.121401 0.260702 0.198245 -0.172495 -0.113958
3 0.240639 0.125329 -0.017077 0.277641 -0.101155 0.19197 0.097274 -0.033639 0.085809 0.043753 0.23999 0.139159 -0.209808 -0.16312 0.162335 0.031848 -0.280782 -0.114995 0.115773 0.020768 0.011399 0.064193 -0.133982 -0.023774 0.019493 -0.167449 0.10998 0.356738 0.122644 -0.091706 0.048125 -0.180172 0.052215 -0.145131 -0.122359 -0.01062 -0.094454 -0.274915 0.002085 0.269071 0.336318 0.041812 -0.176578 0.065513 -0.096363 -0.083342 -0.057061 0.168632 -0.190468 -0.052968 0.082954 -0.107226 -0.005388 -0.211953 0.088266 0.537456 -0.001762 -0.034077 -0.31053 -0.371396 -0.077286 -0.227834 -0.004914 0.01445 -0.516441 0.037264 -0.343907 -0.264416 -0.082556 -0.008661 -0.012295 0.231344 0.003701 0.291496 -0.223512 -0.007948 -0.090343 -0.026621 0.323449 0.058502 -0.383598 -0.035949 0.254855 0.005307 0.390767 0.249213 0.300263 0.207382 -0.10767 0.308387 -0.088688 0.305855 0.096552 -0.330265 0.085502 -0.1143 0.108893 0.250747 -0.13977 -0.219318
5 0.240447 0.118449 -0.037491 0.302086 -0.095619 0.179833 0.086738 -0.008011 0.062911 0.065596 0.238783 0.154594 -0.250961 -0.165167 0.166559 0.015876 -0.267322 -0.146112 0.116656 0.002082 0.006731 0.051696 -0.149777 -0.032449 0.037874 -0.143349 0.097852 0.328077 0.125471 -0.087175 0.045816 -0.180279 0.060864 -0.160763 -0.091792 -0.010092 -0.099303 -0.263137 0.025717 0.254349 0.338394 0.04097 -0.172437 0.071713 -0.124883 -0.086439 -0.05254 0.156252 -0.209248 -0.051001 0.083961 -0.129403 0.019587 -0.198232 0.064665 0.520723 -0.024557 -0.054445 -0.294065 -0.384467 -0.053304 -0.21632 -0.032937 -0.008779 -0.529746 0.025151 -0.34782 -0.241077 -0.068999 -0.040435 -0.008688 0.240698 0.006771 0.300607 -0.227482 -0.02862 -0.07316 -0.031453 0.323792 0.053905 -0.378208 -0.045391 0.266865 -0.013351 0.410408 0.262931 0.291384 0.23488 -0.087422 0.298666 -0.086769 0.321785 0.100985 -0.32543 0.075228 -0.120591 0.122321 0.285784 -0.140768 -0.218083
4 0.250141 0.116287 -0.027223 0.279151 -0.102802 0.189513 0.094581 -0.028296 0.0992 0.041495 0.239023 0.143024 -0.231582 -0.153717 0.151338 0.031894 -0.279434 -0.126348 0.115419 -0.001793 0.002868 0.072069 -0.144841 -0.028644 0.017624 -0.163386 0.107089 0.356414 0.130261 -0.096563 0.041678 -0.18818 0.055225 -0.158871 -0.111743 -0.015419 -0.101703 -0.276466 0.005996 0.266486 0.332939 0.044715 -0.182024 0.076111 -0.104329 -0.095875 -0.050564 0.179542 -0.194964 -0.055749 0.079279 -0.102823 -0.000861 -0.207827 0.09001 0.524042 -0.015873 -0.034976 -0.310659 -0.366974 -0.075667 -0.222768 -0.006646 0.003619 -0.517765 0.036564 -0.345516 -0.264421 -0.080958 -0.010133 -0.017369 0.240612 0.011018 0.296644 -0.225531 -0.008025 -0.09226 -0.032112 0.339713 0.049009 -0.384469 -0.037128 0.250575 0.014889 0.400825 0.254434 0.297584 0.21136 -0.101583 0.303992 -0.089271 0.302679 0.095116 -0.305055 0.093884 -0.116249 0.109948 0.258045 -0.153968 -0.220054
8 0.238222 0.088563 -0.009666 0.273865 -0.097496 0.15838 0.099164 -0.043181 0.097881 0.040128 0.233324 0.127409 -0.239989 -0.17068 0.20259 0.017981 -0.250956 -0.127089 0.082551 -0.01233 -0.011991 0.082647 -0.13608 -0.045037 0.019396 -0.154167 0.109365 0.331452 0.140017 -0.086286 0.059285 -0.177479 0.053097 -0.137177 -0.152492 -0.003351 -0.110968 -0.277609 -0.000574 0.232435 0.300617 0.058902 -0.205383 0.072262 -0.097714 -0.097655 -0.027492 0.153432 -0.191714 -0.069408 0.093604 -0.110308 0.057896 -0.222794 0.073219 0.524293 -0.028709 -0.065856 -0.311283 -0.348173 -0.073749 -0.201759 -0.028019 0.039855 -0.529822 -0.016215 -0.317527 -0.304782 -0.084457 -0.01083 -0.007098 0.215177 -0.01221 0.286918 -0.228714 -0.008319 -0.078604 0.016118 0.310563 0.034603 -0.391679 -0.028231 0.271701 0.027907 0.41621 0.268034 0.27124 0.240477 -0.100839 0.282337 -0.098332 0.304189 0.093979 -0.285071 0.097147 -0.137444 0.072079 0.282272 -0.142826 -0.245365
6 0.249884 0.107769 -0.012964 0.275795 -0.086847 0.165621 0.105518 -0.035083 0.103654 0.038905 0.222282 0.145162 -0.24578 -0.157088 0.180799 0.027041 -0.267666 -0.120909 0.096276 0.011109 0.003057 0.072072 -0.138524 -0.044098 0.023995 -0.168847 0.113777 0.333975 0.147993 -0.095227 0.049648 -0.184254 0.054549 -0.148932 -0.122122 0.004618 -0.109479 -0.290597 0.015682 0.269791 0.31737 0.048034 -0.169149 0.067054 -0.096108 -0.090038 -0.063987 0.180272 -0.202937 -0.054531 0.086441 -0.115483 0.033353 -0.21843 0.075212 0.532058 -0.006204 -0.052331 -0.312799 -0.374657 -0.068913 -0.209895 -0.026378 0.015277 -0.538363 0.034025 -0.34045 -0.266125 -0.078602 -0.010919 -0.005869 0.249622 0.004896 0.29846 -0.240065 -0.013382 -0.07239 0.001493 0.326307 0.057042 -0.390281 -0.035601 0.258902 0.022512 0.41599 0.273266 0.303266 0.221093 -0.102188 0.298296 -0.095534 0.308755 0.088117 -0.312023 0.089843 -0.123748 0.09658 0.275396 -0.157429 -0.227899
7 0.239603 0.0976 -0.002855 0.274436 -0.075098 0.155342 0.104482 -0.047363 0.089984 0.043068 0.214431 0.139775 -0.242563 -0.15094 0.188176 0.017631 -0.260848 -0.119844 0.089405 0.004195 0.010545 0.073367 -0.133943 -0.040556 0.030788 -0.149543 0.117108 0.332782 0.142033 -0.090608 0.050894 -0.169553 0.055905 -0.136078 -0.133072 0.008165 -0.108718 -0.296513 0.011713 0.255832 0.309671 0.043337 -0.171941 0.074952 -0.10105 -0.084386 -0.065655 0.171231 -0.212802 -0.060051 0.083463 -0.115636 0.037111 -0.213755 0.079211 0.536185 -0.018993 -0.059676 -0.310308 -0.373593 -0.07783 -0.216801 -0.013036 0.010312 -0.543239 0.010844 -0.33282 -0.265678 -0.087108 0.001185 -0.009486 0.236372 -0.001923 0.302399 -0.231698 -0.021185 -0.05819 0.002945 0.310234 0.067014 -0.384451 -0.040277 0.267585 0.031691 0.417878 0.259932 0.300613 0.224097 -0.100254 0.294854 -0.103482 0.298717 0.091823 -0.317251 0.08197 -0.113842 0.094812 0.284472 -0.160099 -0.234142
9 0.229866 0.081252 0.010954 0.24202 -0.110312 0.156293 0.095628 -0.015881 0.113191 0.033701 0.238831 0.073801 -0.210436 -0.107321 0.206829 0.0183 -0.251463 -0.169307 0.094577 -0.028677 -0.067361 0.09159 -0.147432 -0.040675 -0.005574 -0.117569 0.061394 0.287284 0.129355 -0.123537 0.067743 -0.178094 0.056717 -0.183547 -0.170039 0.029669 -0.099027 -0.265626 -0.00863 0.18815 0.275216 0.067658 -0.198201 0.127787 -0.094167 -0.112986 0.023424 0.112946 -0.181496 -0.072888 0.093334 -0.093439 0.028469 -0.219118 0.111382 0.536623 -0.041634 -0.032589 -0.331331 -0.329775 -0.11369 -0.169807 -0.044836 0.012726 -0.455348 -0.028158 -0.323232 -0.351328 -0.084387 0.021243 0.035236 0.243212 -0.040668 0.3284 -0.275716 -0.035329 -0.084526 0.055594 0.249813 0.033949 -0.4481 -0.045566 0.271567 0.034303 0.398869 0.305606 0.208596 0.20663 -0.102934 0.282523 -0.099275 0.290867 0.103556 -0.228821 0.096923 -0.127458 0.097084 0.321108 -0.183562 -0.282935
& 0.333148 -0.126857 -0.133723 0.10487 -0.065406 -0.146644 0.0314 0.00688 0.168989 -0.109589 0.359557 -0.049657 -0.020583 -0.032176 -0.305719 0.147769 0.054798 -0.130341 0.297193 -0.214998 -0.170877 -0.167494 -0.242523 -0.158003 -0.287029 -0.121576 0.037212 0.23075 -0.094304 0.070087 0.030717 0.188838 -0.036094 -0.042271 -0.116078 -0.114002 -0.04545 -0.248675 0.143106 0.074043 0.272397 0.164727 -0.206936 0.179494 -0.014542 0.057547 0.028532 0.238013 0.199698 0.263068 0.020674 0.347566 -0.06196 -0.393176 0.186326 0.588242 0.034996 0.150965 -0.270545 -0.300871 0.072613 -0.299099 -0.025897 0.106325 -0.044512 0.009041 -0.413028 -0.139551 0.054646 0.099142 -0.011527 0.189045 0.031871 0.207671 -0.074382 -0.138363 0.12874 0.054998 0.354899 -0.063443 -0.410989 -0.180322 0.352366 0.143262 0.243351 0.08998 -0.018475 -0.027547 0.037683 0.427557 -0.00779 0.146845 -0.049234 -0.161162 0.175477 -0.268389 0.033521 0.324131 -0.067638 -0.003415
z 0.023218 -0.179427 -0.182908 0.120655 0.039531 -0.06149 0.026637 -0.07714 0.194184 -0.01712 -0.041275 0.088373 -0.092047 -0.116887 -0.020706 0.081068 -0.196989 0.098791 0.12649 -0.065458 -0.215527 -4.7e-05 -0.129474 -0.009767 -0.191532 0.058292 0.023816 0.186801 -0.009003 0.036428 0.018863 -0.160004 0.044285 -0.01138 0.010033 -0.116333 0.093005 -0.152922 0.043612 -0.005694 0.152151 0.19377 -0.013749 0.153905 -0.13753 0.027935 0.049825 0.155162 0.065858 0.248167 0.009111 0.040607 -0.13013 -0.297055 0.078268 0.557582 0.034514 0.108896 -0.480668 -0.179912 0.094848 -0.226991 0.155833 -0.073632 -0.222917 0.043624 -0.099434 -0.098131 -0.170686 0.008903 0.125354 0.090102 0.097319 0.217453 -0.015037 0.024285 0.030393 -0.034778 0.313086 0.070055 -0.210576 -0.049584 0.056779 -0.101178 0.358187 0.042311 -0.055124 0.095216 -0.084454 0.128516 0.116319 0.023417 0.106428 -0.104348 0.235837 -0.049848 0.103862 0.130456 -0.325395 0.002811
! 0.178299 0.276037 0.146701 -0.357498 -0.431153 -0.00423 0.387889 0.124132 0.344624 -0.062314 0.698133 0.420118 -0.331566 -0.066367 0.110216 -0.025785 -0.31923 0.389339 -0.187604 0.50076 0.023302 0.291548 -0.601343 -0.201805 0.076784 0.649718 -0.247606 0.594233 0.453846 -0.085759 0.034188 -0.179358 0.409116 0.146666 0.400117 -0.094696 0.104176 -0.528465 0.243839 -0.825694 0.563442 0.478089 -0.081794 0.119555 -0.356233 -0.155544 -0.00369 0.073957 -0.3315 0.106035 -0.23495 0.090443 0.057216 -0.00386 -0.177759 0.309521 0.556832 0.461859 -0.13653 -0.497981 -0.004976 0.21938 -0.616437 -0.373004 0.088929 0.145856 -0.120016 -0.031313 0.174452 0.057923 0.541891 0.031342 0.408168 0.348002 0.065612 -0.212003 0.086085 0.037068 0.174939 -0.185218 -0.380238 -0.311792 0.087692 -0.360451 0.336935 0.135193 0.028524 -0.247504 -0.251155 0.399888 -0.1446 0.084295 0.395354 -0.074331 0.311963 -0.059291 0.270415 0.079463 -0.162679 0.430553
= -0.159607 0.454746 -0.248748 0.140004 -0.32672 0.043705 0.052204 -0.142375 0.002032 -0.190295 0.651147 -0.263274 -0.180615 0.111452 0.076235 0.27902 -0.334593 -0.210458 0.076258 0.165898 0.151614 0.042715 -0.335853 0.22227 0.242403 0.42216 0.170352 0.141617 0.232021 0.081745 -0.104155 0.189054 -0.170382 -0.00278 0.245752 -0.490175 0.268212 0.018172 -0.39615 0.501533 0.620397 -0.044188 0.009482 -0.086405 0.229703 -0.59769 -0.577248 0.402842 0.092149 -0.039689 -0.078625 0.020635 -0.047009 -0.283825 0.151674 -0.202727 0.096612 0.380685 -0.331608 0.016479 -0.319503 -0.621418 -0.689307 -0.28504 0.069731 0.359617 -0.106257 -0.250455 0.101455 0.199426 -0.121247 0.265687 -0.122139 0.210504 0.601682 0.064088 0.061966 -0.087402 0.02605 -0.062706 -0.62325 -0.565068 0.207005 -0.88582 0.551082 0.495685 0.021665 -0.038654 0.402142 0.609079 -0.652917 0.30704 0.272162 -0.170775 0.40531 0.007057 0.308008 -0.001884 -0.43143 -0.602482
# -0.22822 0.403029 0.091184 0.143304 -0.221735 0.119783 -0.123965 -0.164587 -0.033608 0.1843 0.371356 -0.117163 -0.017177 0.038238 -0.000558 0.315037 -0.096933 -0.143321 0.177596 0.026828 0.017998 0.113887 -0.364318 -0.121522 -0.010786 0.284696 0.133588 0.187075 0.126223 -0.01633 -0.052838 -0.029666 -0.266209 -0.116153 -0.037891 -0.177275 -0.115417 -0.465139 -0.105603 0.030048 0.34333 -0.342255 -0.046192 0.070157 -0.090529 -0.253816 -0.425743 0.277565 0.167964 -0.163184 0.040719 0.025485 -0.12952 -0.291219 0.071981 0.133233 0.291039 0.373719 -0.139528 -0.186734 -0.308728 -0.109178 -0.434907 -0.243721 0.150812 -0.004785 -0.33324 -0.211195 -0.122423 0.055112 -0.148129 0.415114 0.040331 0.343773 0.264041 -0.139723 0.210505 -0.155885 0.455841 -0.233049 -0.387952 -0.189342 0.213811 -0.293568 0.246487 -0.00433 -0.125471 -0.306201 0.093916 0.298514 -0.217978 0.240321 0.231268 -0.020405 0.102782 0.016479 0.175287 0.038095 -0.156909 -0.074911
[ -0.204895 0.226933 -0.018675 -0.079944 -0.088882 0.167818 0.16379 -0.138272 0.045051 -0.056889 0.399195 -0.16756 0.063668 0.05733 -0.072106 0.097589 -0.03819 0.179385 -0.19247 0.29178 -0.073611 0.021475 -0.268185 -0.133572 -0.210968 0.002665 0.29206 0.122969 0.385505 0.078402 0.33426 0.463834 0.289715 0.106722 -0.168724 -0.002253 -0.086128 0.06646 -0.106782 0.09825 0.14229 -0.045975 -0.34143 -0.159468 -0.157774 -0.12568 -0.181235 0.150879 -0.01148 -0.214761 0.30266 0.24159 0.120474 0.08154 -0.373962 -0.58463 0.054486 -0.1749 0.64958 -0.096654 -0.11247 0.257987 -0.45112 -0.300385 0.49903 0.114675 -0.155706 0.102336 0.119475 0.03427 0.030788 0.43614 0.006492 -0.053588 0.265483 0.06459 0.173315 0.02232 -0.205242 -0.315745 -0.192789 -0.278012 -0.06219 -0.27021 -0.243976 0.323856 -0.110244 -0.258695 -0.008945 0.200737 -0.319925 0.201466 0.160585 0.125465 0.277185 -0.047145 -0.04721 -0.031485 0.110691 -0.160458
+ -0.096063 0.197628 0.05719 0.192053 -0.184124 0.064404 0.078572 0.072444 0.019427 0.050005 0.318764 -0.049664 -0.294588 -0.010572 -0.13137 0.075669 -0.300035 -0.095672 0.157938 0.074149 -0.134888 0.078798 -0.202251 -0.099259 -0.158064 0.230508 0.097083 0.392576 0.050889 -0.119974 0.051848 0.107293 -0.118685 -0.183715 0.042725 -0.109371 0.196589 -0.161669 0.061153 0.291513 0.191354 0.014685 -0.120927 -0.024614 0.114006 -0.200592 -0.305603 0.256666 -0.02145 0.015506 -0.032338 -0.023342 -0.093017 -0.283455 0.074938 0.502333 0.057301 0.036808 -0.336005 -0.361397 -0.107403 -0.32916 -0.155213 -0.21599 -0.18061 0.134503 -0.355186 -0.299338 0.154569 -0.011939 -0.047731 0.261075 0.200431 0.350545 -0.131349 -0.122248 0.085777 -0.192035 0.333342 -0.291274 -0.518137 -0.366706 0.073047 -0.056169 0.405843 0.199125 0.119726 0.020722 0.046516 0.385599 -0.138036 0.324026 0.104408 -0.175617 0.183972 -0.104503 0.237158 0.073645 -0.170798 -0.281457
 -0.42539 1.2502 1.6177 1.3482 -0.25897 0.88214 -0.86597 -0.41981 0.55829 0.23871 1.0408 0.86207 0.28709 0.40619 -0.026478 0.8243 -1.1417 -0.70615 0.10356 1.5234 0.09667 -0.8492 -0.25354 0.23025 0.51007 -0.27236 0.034835 1.3381 -0.34888 0.13065 -0.74828 -0.037237 -0.02066 0.54007 -0.4318 0.88469 -0.40701 -1.1057 -0.16421 0.2436 -1.2941 -0.54961 0.007345 -0.73243 1.3586 1.3102 -0.73379 0.13483 -0.39182 -0.88318 0.64311 0.88806 0.001533 0.28572 -1.371 -0.92284 0.49047 0.47388 0.63801 0.060274 0.68635 -0.7573 -1.1102 -0.51041 -0.37774 0.99596 -1.5494 0.71078 0.48082 0.21517 0.58017 -0.35575 -1.0849 0.88855 0.25157 0.92939 1.8217 -0.1861 -0.084151 -0.94532 1.4531 -1.2164 -0.25117 -0.31675 0.28963 -0.94483 0.43051 0.43054 0.75833 -0.23023 0.5647 0.44755 0.50804 -0.75127 0.34716 0.42204 0.50603 0.79897 -0.12473 -0.07456
 0.709 0.68096 -1.2128 0.46321 0.18013 0.34297 0.14048 0.85867 -0.22887 0.20338 1.5488 0.39657 -0.33299 -0.92547 0.48119 -1.5503 -0.24233 0.65378 0.22595 0.71527 0.45481 -0.85184 -0.21304 -0.46142 0.30603 -0.54812 0.1805 -0.20897 -0.16047 -0.75227 -0.20699 0.71701 0.020146 -0.59949 -0.152 0.70943 -0.83801 0.69188 -1.0798 0.41554 0.87751 -0.39578 0.21354 -0.405 0.92609 0.18972 0.4264 -0.69301 0.6066 -0.41346 0.67147 -0.062878 0.61473 0.95659 -0.75434 -1.4784 -0.68642 -1.2828 0.27227 -0.073692 1.0912 -0.16824 -1.3708 0.47954 0.78551 -0.78555 -0.6369 1.0377 1.3334 -0.83558 -0.12085 0.62743 7.1e-05 0.20664 0.20949 -0.21571 0.43329 0.56191 -1.0991 0.064705 0.81395 0.58805 1.043 -0.91986 0.1903 0.45644 0.091245 -0.70318 0.4662 0.25273 -0.68858 -0.017926 0.67706 -0.35348 -0.031357 -0.77629 0.85588 0.69171 1.408 -1.0227
| -0.80754 0.796455 0.416785 -0.395215 -0.55041 -0.09785 -0.231365 -0.277432 -0.180865 0.58241 0.500865 -0.331211 0.747395 -0.50016 0.40755 0.53136 -0.65953 0.377475 -0.395792 0.773365 0.373425 0.28566 -0.136452 0.177882 -0.27802 0.218875 0.83028 0.084344 0.52483 -0.06899 0.586515 0.315605 0.277242 0.015755 -0.044933 0.251585 0.394335 0.611195 -0.698245 -0.729713 0.91584 0.140615 0.25914 -1.00548 -0.595295 -0.074415 -0.447675 -0.075408 0.00376 0.37906 -0.238535 -0.292335 0.07951 -0.347144 -0.68615 -0.158655 0.360215 -0.401295 0.038665 -0.13469 -0.399245 0.052165 -0.50599 0.131444 0.669085 0.755255 -0.441625 0.186295 0.41543 0.72988 0.112651 1.33035 0.658945 0.445782 0.634431 -0.701925 0.437395 0.15967 0.26108 -0.769575 -0.459575 -0.596745 -0.140511 -0.57886 0.24563 -0.35094 0.13908 -0.38425 0.500485 0.360019 -0.382225 0.37034 0.354645 0.41198 0.463465 0.03178 0.346119 0.563745 -0.08126 -0.315835
] -0.095125 0.242633 -0.062125 -0.06495 -0.301003 0.198273 0.279618 -0.35937 0.217978 -0.11409 0.304775 -0.031703 -0.055665 -0.012365 -0.25337 0.237654 -0.279506 0.253662 0.043274 0.361976 -0.173983 0.173707 -0.492822 -0.291216 -0.292074 0.137218 0.289494 0.228884 0.479994 0.204073 0.319545 0.271577 0.239365 0.054068 -0.071773 -0.171583 -0.214044 -0.071401 -0.050087 0.128094 0.27933 0.119666 -0.335919 -0.1424 -0.315104 -0.335088 -0.246666 0.448824 -0.060734 -0.313116 0.328852 0.175932 -0.050803 -0.168637 -0.154567 0.293084 0.103943 -0.029296 0.108284 -0.229169 -0.1224 -0.025493 -0.281064 -0.548866 0.244003 0.027526 -0.209518 -0.010563 0.091832 0.08971 0.164805 0.42971 0.116167 0.004331 0.153783 -0.094246 0.147183 0.097102 0.160707 -0.247312 -0.518086 -0.381931 0.011976 -0.354006 0.140053 0.443332 -0.210057 -0.305032 -0.129573 0.396633 -0.308957 0.162434 0.294836 -0.015976 0.339509 -0.124405 -0.060049 0.06563 -0.163442 -0.240471
~ -0.10204 0.76999 0.11685 0.45113 -0.54915 -0.098196 0.082117 0.7088 -0.51514 0.18042 0.94031 -0.23231 -0.10553 -0.69062 0.50678 -0.42703 -0.59638 0.74125 0.17465 0.32008 0.57505 0.16208 -0.24196 0.60621 0.32897 0.85698 0.72297 0.166 0.58441 -0.15624 0.3066 -0.001294 -0.13161 -0.045032 -0.50155 0.13853 1.2744 -0.097323 0.79584 0.26844 0.71597 -0.11422 -0.80429 -0.32377 -0.097955 -0.17142 -0.47475 0.1566 -0.68962 -0.30419 -0.36008 -0.17499 0.055186 -0.069981 -1.4228 -0.54148 -0.28896 -0.22512 -0.15512 0.9323 0.20701 0.63748 -1.5888 -0.45536 0.77719 0.1036 0.1577 0.18324 1.1243 0.67848 0.394 -0.033541 -0.084117 0.662 0.47054 -0.39764 0.46174 -0.13112 0.031416 -0.75865 -0.36516 -0.68516 0.14455 0.03748 -0.28798 0.84662 0.17962 -1.2234 0.65756 0.90351 -0.28902 1.0419 -0.015057 0.26124 0.24535 -0.76689 0.1869 -0.1416 -0.19321 -0.42248
\ -0.78248 1.0978 0.11535 0.28975 -1.0973 -0.0086 0.95132 0.036121 -0.18432 -0.26867 0.97489 0.2589 -0.8622 -0.17804 -1.1095 -0.42464 -0.44852 0.16128 -0.49966 1.2791 -0.42203 1.0859 -0.63224 0.007452 -0.016745 0.8569 -0.23017 0.021854 0.065358 0.088868 0.17738 0.44771 -0.018585 0.43867 -0.39255 0.6226 -0.12426 0.94026 1.5572 0.47697 0.67698 -0.61474 0.49266 -0.65794 -0.90383 0.38514 -0.2712 -0.25055 0.24774 -0.66812 -0.56732 0.075481 0.20569 -0.26912 -1.0423 -0.70118 0.29977 0.036694 0.41639 0.69952 -1.0957 0.30345 -0.97738 -0.42498 0.31548 0.20625 0.38194 -0.19 0.15071 0.83869 0.18446 0.81153 0.50951 -0.40966 0.48196 -0.54505 -0.44015 0.47421 0.38279 -0.15992 0.092992 -0.76125 -0.59412 -0.30277 -0.49757 0.16851 -0.32423 -0.73334 0.053629 1.0882 -0.67057 0.9185 -0.7507 0.23699 0.47741 -0.30111 0.32976 -0.001124 -0.065333 0.039897
{ -0.42 0.94842 -0.13267 0.50827 -0.67014 0.58878 1.0796 0.49687 -0.52687 0.15257 1.0247 0.062124 -0.30896 0.41969 -0.16728 -0.15783 -0.11786 0.36599 -0.38654 0.43734 0.42559 1.1801 -0.80983 0.48498 0.63575 0.80176 0.55404 0.30078 -0.094878 0.26702 0.2656 -0.075306 -0.42782 -0.30237 -0.62474 0.32627 0.25262 0.50149 0.74744 0.34771 0.62958 -1.0589 0.25896 -1.0363 -0.27489 -0.29828 -0.4713 0.18032 0.055621 -0.29668 -0.14646 -0.48574 0.43346 0.84408 -0.42688 -0.68128 0.044747 0.12705 0.80774 0.481 -0.84464 0.09095 -0.79265 -0.53269 0.70865 0.34475 0.12552 -0.091507 -0.007103 0.71991 0.14308 1.0721 -0.19244 0.069535 0.52809 -0.24534 -0.596 -0.31953 -0.15257 -0.32302 -0.09268 -0.90226 -0.72686 0.31896 -0.26228 0.21376 -0.15477 -0.19701 0.32746 0.82896 -0.79226 1.3046 -0.47849 -0.068011 -0.33013 -0.77898 0.1908 0.30519 -0.52365 0.09536
 0.153135 -0.334098 -0.340796 0.324387 -0.01665 0.019345 0.161867 -0.011737 0.192464 -0.163779 0.000794 0.113494 -0.180064 -0.085118 -0.171908 0.083254 -0.133374 0.088597 0.223478 -0.050924 -0.271724 -0.04221 -0.287968 -0.231664 -0.152284 -0.020553 0.038107 0.12284 0.16108 -0.005813 -0.059261 -0.308941 0.036001 -0.088234 0.131977 -0.021015 0.079571 -0.258636 -0.03292 -0.019784 0.255944 0.229063 -0.131096 0.117571 -0.056979 0.006506 -0.091484 0.188693 -0.085982 0.339421 -0.092382 0.277704 -0.154678 -0.301488 -0.030665 0.496699 0.100603 0.134 -0.602699 -0.262436 0.091161 -0.266022 -0.062747 -0.136516 -0.201342 0.071616 -0.365464 -0.362501 -0.012386 0.081123 0.134919 0.199377 0.042674 0.30336 0.01659 0.085908 0.110957 0.113906 0.346769 0.084134 -0.355826 -0.098368 0.06284 -0.077902 0.399422 -0.030142 -0.142444 -0.006685 -0.046774 0.056263 -0.077032 -0.011136 0.127732 0.116406 0.312767 0.037254 -0.028856 0.059127 -0.329466 -0.101956
 0.027809 -0.384209 -0.221773 0.171688 -0.288966 0.056153 -0.0464 0.053513 0.351302 -0.148624 0.139762 -0.012386 -0.195222 0.040167 -0.306558 -0.024406 -0.033251 0.343042 0.36765 0.018674 -0.219885 -0.059235 -0.29337 -0.080151 -0.424458 0.028333 -0.144371 0.109489 0.23037 -0.048134 -0.093971 -0.273192 0.272983 -0.004181 0.218458 -0.085301 0.101405 -0.285037 0.20995 0.034092 0.304381 0.318467 -0.193212 0.013806 -0.140685 0.131372 0.005566 0.148006 -0.351904 0.352739 -0.069746 0.243122 -0.336738 -0.501423 -0.016274 0.503136 -0.071086 0.166499 -0.487046 -0.290685 0.027238 -0.178022 -0.284329 -0.402934 -0.160092 0.331815 -0.199059 -0.393218 0.003936 0.034496 0.178373 0.331438 0.146217 0.171158 -0.138669 -0.02262 -0.04364 0.17107 0.443164 0.078077 -0.288257 -0.27169 -0.071905 -0.231895 0.345102 0.108421 -0.282381 0.015426 0.048779 -0.050418 -0.076094 0.0441 0.090635 0.053756 0.31055 0.067457 -0.079382 -0.001433 -0.348633 -0.13123
 -0.68149 0.59088 -0.7525 0.76091 -0.24542 0.35291 0.6544 0.72026 -0.50478 0.17686 1.2231 0.22277 -0.96779 0.35742 0.34633 -0.23021 0.052746 -0.071881 -0.37496 0.5707 0.3154 1.1356 -0.58923 0.39724 0.98997 0.53628 0.35998 0.59264 -0.10198 0.78676 0.27937 0.02653 -0.48191 -0.4501 -0.53443 0.4595 0.36109 0.50664 0.050404 0.38079 0.49509 -1.2169 0.35499 -0.11931 -0.12331 -0.50907 -0.048188 -0.85772 0.102 0.15761 -0.33566 -1.0244 0.29834 1.3984 -0.62917 -1.1394 -0.26012 -0.30283 0.52942 -0.23228 0.2354 0.2562 -0.50569 0.085619 0.38487 -0.20785 -0.39997 0.37134 0.063853 0.28151 -0.39105 0.71828 0.38074 1.1775 0.085768 0.31274 -0.38104 -0.29483 -0.16535 -0.10569 -0.38052 -0.385 -0.25539 0.55653 0.27388 0.10477 -0.37873 -0.45567 0.8781 1.0026 -1.2194 0.71875 -0.88693 -0.31598 -0.24153 -0.76132 -0.4017 0.37133 -0.29686 0.029762
> -1.5364 0.67603 0.60322 0.24631 -0.97073 0.47799 0.30383 -0.3887 -0.18715 0.38271 1.0568 0.079616 -0.21028 0.11037 0.17834 -0.18615 -0.31648 0.017163 -0.1574 0.67284 0.32192 -0.17445 0.11303 -0.005664 -0.22729 0.93295 0.15728 0.17319 0.12901 -1.051 0.41658 0.42797 -0.10861 -0.14298 0.46264 0.67618 0.38629 0.73161 0.18356 0.28068 1.2589 -0.62177 -0.69008 -1.4148 -0.0491 -0.27532 0.08129 0.089841 0.14192 -0.13904 0.16608 -0.00673 -0.58298 -0.44465 -1.2957 -0.20093 -0.15242 0.1795 -0.22242 0.28101 -0.79054 -0.24651 -0.7766 -0.30827 1.4456 0.61528 -0.47108 -0.098189 1.2214 0.17312 -1.0694 0.48798 0.23775 -0.011135 0.38896 -0.50922 -0.063 -0.4403 -0.25712 -1.4439 0.1718 -0.85136 -0.20501 -0.5946 -0.054264 0.90448 0.21004 -0.99399 0.67496 0.042636 0.098034 0.12381 -0.48216 0.33957 -0.01803 -0.41828 0.20271 -0.053644 0.18781 -1.0431
} -0.41556 1.2573 -0.12212 0.3512 -0.79133 0.22216 0.59093 0.16859 -0.24541 0.32665 0.8284 -0.33187 -0.1731 -0.00084 -0.26624 -0.086444 -0.3898 0.49206 -0.49489 0.68271 0.38239 0.83536 -0.58071 0.34609 0.80036 0.8526 0.56888 0.29352 0.026492 -0.32014 0.43739 0.26299 -0.32618 -0.066011 -0.32903 0.37524 0.18196 0.22671 0.78512 0.25337 0.77087 -0.63546 0.089897 -1.0165 -0.36727 -0.44746 -0.48527 0.21942 -0.10164 -0.63687 -0.22476 0.083155 0.61609 0.46351 -0.93084 -0.39515 -0.12773 0.068811 0.33875 0.50318 -0.99275 -0.50363 -0.85833 -0.28039 0.54575 0.36942 0.35216 0.26016 0.56586 0.7364 0.24242 0.89317 0.1051 -0.19818 0.773 -0.66315 -0.12584 -0.32142 -0.46365 -0.70087 -0.70442 -0.86744 -0.56589 -0.00057 0.016229 0.2407 -0.17235 -0.66392 0.012094 1.1908 -0.64621 0.85474 -0.42345 0.10843 0.004654 -0.43119 0.3286 -0.18452 -0.67225 -0.095223
* -0.797733 0.35335 0.296418 -0.042167 -0.340909 0.089655 0.238937 0.178462 0.427987 0.077559 0.52499 0.523907 0.183338 -0.046457 -0.50661 0.147822 -0.590385 -0.11013 0.489445 -0.128237 0.025607 0.410852 -0.077063 0.374898 0.189104 0.465047 -0.02638 0.594193 -0.045232 0.198925 -0.389413 0.126778 -0.174832 0.065378 -0.186886 -0.547162 0.035028 -0.4826 -0.015262 0.538312 0.345445 0.018601 0.247053 -0.384222 -0.199521 0.365084 -0.675758 0.34128 -0.333658 0.193742 -0.127128 0.724444 0.071688 -0.61998 -0.276168 0.398861 0.686718 0.331758 0.055462 -0.219527 -0.382961 -0.316013 -0.294418 0.006729 0.537468 0.20566 -0.422217 0.36788 0.060535 0.564747 -0.091661 -0.479713 -0.406715 0.214891 0.224522 -0.151073 0.186933 -0.1277 -0.013822 -0.863535 -0.427492 -0.502108 0.109745 -0.660738 0.458869 0.48653 0.052114 -0.614187 -0.154978 0.096565 -0.092251 -0.008816 0.412522 0.021684 0.746837 0.093716 0.731882 -0.103685 -0.663573 -0.506325
 0.074068 -0.339288 -0.273304 0.298226 -0.096016 0.053466 0.03213 -0.013779 0.318778 -0.099143 0.059891 -0.000108 -0.120335 0.023638 -0.193794 0.031462 -0.168756 0.13067 0.284251 0.014969 -0.253519 -0.043918 -0.259376 -0.189831 -0.281059 -0.038341 -0.008769 0.093698 0.145905 0.004562 -0.059714 -0.289268 0.163632 -0.090675 0.203528 -0.086457 0.101533 -0.217285 0.054976 -0.032596 0.272247 0.198205 -0.12825 0.032089 -0.100304 -0.01577 -0.006709 0.179586 -0.154747 0.347933 -0.046421 0.219863 -0.215784 -0.365698 -0.06911 0.526541 0.028097 0.127322 -0.581122 -0.302362 0.091695 -0.251148 -0.091246 -0.202369 -0.240353 0.220348 -0.321227 -0.337616 -0.117803 0.110324 0.18158 0.264833 0.06278 0.2447 -0.055169 0.072911 0.04213 0.119717 0.335252 0.116414 -0.323314 -0.209446 0.049469 -0.204111 0.379656 0.035381 -0.190117 0.030063 0.036839 0.060208 -0.00138 0.032269 0.110434 0.033082 0.290984 0.065683 0.004693 0.051455 -0.287974 -0.093429
 0.051576 -0.333556 -0.262057 0.282637 -0.017989 0.048261 0.040429 -0.040213 0.260313 -0.128314 0.069064 0.042362 -0.156273 -0.053956 -0.186319 0.027588 -0.138483 0.20852 0.305358 0.021266 -0.309526 -0.05512 -0.217625 -0.026183 -0.304244 0.033768 0.069522 0.102566 0.197999 0.003952 -0.041062 -0.216278 0.151295 0.004475 0.096591 -0.160761 0.111211 -0.255428 0.113712 0.01449 0.251141 0.206776 -0.028982 0.057938 -0.060738 -0.034581 0.037849 0.147954 -0.077207 0.373005 -0.14347 0.25102 -0.175092 -0.377767 0.030421 0.583756 0.022841 0.075176 -0.573057 -0.278693 0.075479 -0.155686 -0.084312 -0.238973 -0.220169 0.120186 -0.266231 -0.387982 -0.040142 0.106475 0.199966 0.284241 0.063188 0.241553 -0.010279 0.075934 0.006079 0.056685 0.324601 0.088139 -0.39831 -0.135777 -0.016392 -0.164678 0.441438 0.095527 -0.231143 0.068741 -0.021354 0.042211 -0.071426 -0.000241 0.02366 0.025452 0.275467 0.026974 -0.02135 0.093608 -0.366153 -0.137561
@ -0.173296 0.054897 0.09509 0.087316 -0.026387 0.014928 0.105768 -0.13653 -0.038821 -0.109953 0.097379 0.167479 -0.124042 0.057668 -0.15755 0.045273 -0.019478 0.150975 0.007201 -0.000555 0.012591 0.117741 -0.178713 -0.207865 -0.10101 -0.007877 0.068909 0.05298 0.209426 0.02601 0.182141 0.016295 0.301121 -0.055113 0.138112 -0.086835 -0.171977 -0.209723 -0.18861 0.202637 0.094536 0.117935 -0.296039 -0.095063 0.007928 0.073433 -0.338506 0.206732 0.068279 -0.042655 0.36595 -0.050912 0.016483 -0.146439 0.042019 0.271567 -0.030715 0.067786 -0.037334 -0.117163 -0.044471 -0.151286 -0.148956 -0.359363 -0.381384 -0.207721 -0.086208 -0.111677 0.010479 -0.051093 -0.098542 0.196161 0.062479 -0.07751 0.062789 -0.061592 0.16984 -0.065812 0.083116 -0.137274 -0.206152 -0.12346 0.085226 -0.189338 0.192315 0.245517 0.115825 0.088798 -0.064818 0.061867 -0.151898 0.367125 0.195918 -0.214455 0.165011 -0.01172 0.249394 0.117276 -0.052116 -0.042991
 0.031083 -0.311457 -0.264665 0.250819 -0.18789 0.041932 0.024251 -0.031894 0.236704 -0.121751 0.099178 0.023697 -0.145336 -0.006697 -0.260562 0.02425 -0.118678 0.07699 0.224486 0.073108 -0.096303 0.072596 -0.450758 -0.091917 -0.345022 0.122172 0.081422 0.212085 0.08314 0.072018 -0.136048 -0.207406 0.237722 -0.027552 0.209281 -0.10818 0.03309 -0.255816 0.057542 -0.159756 0.220818 0.138635 -0.122972 0.037822 -0.036808 -0.121171 -0.04223 0.17004 -0.066791 0.457997 -0.092796 0.14194 -0.153501 -0.407438 -0.113043 0.544413 0.150084 0.173055 -0.604498 -0.368581 -0.055582 -0.247756 -0.130601 -0.181483 -0.300757 0.155343 -0.295362 -0.455426 -0.186184 0.061166 0.281662 0.319487 0.107371 0.269602 0.036932 0.111628 0.110008 0.100373 0.318568 -0.018181 -0.355058 -0.191722 0.018604 -0.130319 0.451963 0.166812 -0.212646 0.031632 0.068763 0.147474 -0.031299 0.085666 0.119705 -0.012029 0.43515 -0.025726 0.088293 0.073039 -0.330737 -0.113021
 -0.0071 -0.324361 -0.076654 0.394345 0.158286 0.124968 0.020829 0.061142 0.219643 -0.145004 0.029878 0.098979 -0.103097 -0.063935 -0.029949 -0.032187 -0.263712 0.256075 0.260179 0.027728 -0.246729 0.047112 -0.080296 -0.187054 -0.349263 0.054117 0.124125 0.195267 0.043434 0.060705 0.005806 -0.229113 0.097664 -0.154436 0.059788 -0.251197 0.19612 -0.376264 0.087329 -0.017085 0.209308 0.154584 -0.059894 -0.038866 -0.051285 -0.08005 0.186376 0.169438 -0.111267 0.308845 0.028291 0.121272 -0.297456 -0.503835 0.098184 0.505097 0.000102 -0.011734 -0.508473 -0.188191 0.148243 -0.23259 0.06163 -0.190371 -0.185384 0.113713 -0.260422 -0.269148 -0.024435 0.123706 0.266699 0.252546 0.0458 0.267307 0.134383 0.043177 0.028712 0.04736 0.42478 0.151079 -0.315678 0.041525 -0.003325 -0.123333 0.465989 0.176279 -0.197304 0.023204 0.252432 0.123337 -0.045847 -0.052519 0.041359 -0.031071 0.281845 0.136167 0.059849 0.038206 -0.248813 0.010948
< -1.6269 0.78418 0.026028 0.73545 -1.63 -0.1145 0.43421 -0.127 0.16969 0.58306 0.83056 0.27868 -0.15141 0.39881 0.85433 -0.37657 0.1004 0.064814 0.21091 0.80216 0.45311 -0.058486 -0.38969 -0.083717 0.24441 1.2343 -0.1327 0.1815 0.47598 -0.83478 -0.048291 0.24917 0.53308 -0.34548 0.66865 1.0178 0.79543 1.1539 0.15224 0.67707 0.73581 -0.9403 -0.45186 -0.49965 0.10608 -1.0279 0.10542 0.59903 -0.34495 -0.018662 0.26532 0.35566 -0.40029 -0.19052 -1.092 0.49639 -0.30269 0.40567 0.49489 0.56158 -0.42033 -0.1892 -1.1899 -0.4113 1.1594 0.54221 0.039614 -0.18146 0.9909 0.50638 -0.82253 -0.068735 0.019334 0.26999 0.28458 -0.89382 -0.049179 -0.31189 -0.18805 -1.4521 -0.31026 -1.3305 0.1147 -0.38208 0.16538 0.60862 0.26609 -0.79575 0.68966 -0.33379 -0.33751 0.70454 -0.24156 0.034437 -0.14192 -0.24933 0.030824 0.15617 -0.46884 -0.65249
 0.049777 -0.313676 -0.291578 0.28968 -0.034543 0.034067 0.042354 -0.0764 0.232097 -0.147731 0.041707 0.096932 -0.19503 -0.080378 -0.14667 0.035657 -0.131735 0.199082 0.256922 0.002284 -0.377822 -0.115731 -0.165134 -0.007744 -0.292987 -0.020715 0.047761 0.123976 0.189441 0.007828 -0.005184 -0.127265 0.215134 -0.059791 0.101269 -0.151517 0.078311 -0.211146 0.078818 0.027087 0.245012 0.216038 -0.009466 0.067984 -0.0924 -0.039358 0.04467 0.163044 -0.039423 0.32257 -0.107757 0.190874 -0.13396 -0.378739 0.014214 0.599733 -0.006858 0.106842 -0.621934 -0.265566 0.09815 -0.143749 -0.047207 -0.123176 -0.212818 0.098609 -0.279223 -0.359536 -0.069119 0.099291 0.137842 0.222224 0.084203 0.259905 -0.033227 0.110196 -0.002493 0.080573 0.321875 0.107185 -0.370553 -0.092166 -0.021945 -0.142021 0.44412 0.088714 -0.204107 0.010766 -0.045614 0.073963 -0.05701 -0.009472 0.040748 0.055914 0.266207 -0.009725 -0.012958 0.114177 -0.329561 -0.2028
 0.06488 -0.28208 -0.136313 0.266134 -0.02415 0.000834 0.05771 0.055931 0.267457 -0.131622 0.038404 0.167357 -0.152811 0.039877 -0.226313 0.082502 -0.122623 -0.029619 0.304715 -0.077176 -0.228165 0.113358 -0.367716 -0.100847 -0.256519 0.096634 -0.02715 0.236168 0.105901 0.012578 -0.060577 -0.301469 0.258771 -0.216805 0.139747 -0.19325 0.088346 -0.244373 0.053616 -0.047687 0.257808 0.176061 -0.197952 0.008263 -0.031807 0.025626 0.039369 0.21814 -0.125129 0.373561 -0.067968 0.16294 -0.111306 -0.378639 -0.115943 0.535723 0.045588 0.034372 -0.581583 -0.330808 0.044794 -0.236541 -0.052441 -0.100364 -0.187406 0.189081 -0.295797 -0.413512 -0.145318 0.104101 0.191619 0.223308 0.065926 0.314048 -0.002417 0.071698 0.104708 0.089109 0.357515 0.057693 -0.345598 -0.013997 0.071409 -0.095886 0.387078 0.125744 -0.157226 -0.012842 0.068632 0.220897 -0.067885 -0.03278 0.081843 -0.009451 0.353463 0.014447 -0.027235 0.065479 -0.302757 -0.118976
 0.058655 0.090081 -0.014159 0.17781 0.43578 0.51672 0.8869 0.28554 0.31989 0.27782 0.73218 -0.085434 0.081243 0.11829 -0.79186 0.10813 0.30036 0.071486 -0.10577 -0.019947 -0.67032 0.072895 -0.36469 0.26442 0.28668 0.27882 -0.028404 0.58529 0.42591 -0.64502 -0.47912 0.18444 -0.079647 -0.041186 -0.28922 -0.04778 0.39975 0.38578 0.062627 -0.63682 0.78773 0.057449 -0.83693 0.020018 0.088207 -0.71508 -0.41251 0.17364 -0.30956 0.32243 0.023081 0.50625 -0.31119 0.31228 -1.0491 -0.49092 0.53445 0.35471 -0.64689 -0.18259 -0.10533 0.061215 -0.92174 -0.45686 0.9183 0.12681 0.000114 -0.33539 0.69916 -0.24613 0.097037 0.039452 0.16405 0.2025 -0.2567 -0.34195 0.54626 0.091867 -0.51041 -0.62925 0.022505 -0.20815 -0.084311 -0.26159 -0.29528 0.56123 -0.72315 -0.41689 0.11532 0.048635 -0.15886 -0.18318 0.29449 0.93436 0.38558 0.32626 -0.50408 -0.10285 0.004419 -0.26193
 0.115156 -0.27217 -0.256948 0.26754 -0.086581 -0.078712 0.038837 -0.183634 0.136822 -0.071097 0.094797 0.051624 -0.158183 0.008197 -0.072932 0.083636 -0.106867 0.02787 0.108704 -0.111125 -0.232726 -0.066086 -0.256521 -0.063613 -0.335859 -0.027805 0.091471 0.263274 0.139834 0.117057 -0.067622 -0.157653 0.157541 -0.071008 0.0608 -0.074293 0.069265 -0.203281 0.025416 -0.032139 0.233598 0.20464 -0.086987 0.182575 -0.117331 -0.076689 0.157165 0.192009 0.021441 0.393117 -0.021251 0.090458 -0.034215 -0.301608 -0.056437 0.585091 0.080859 0.016491 -0.595631 -0.283741 0.191055 -0.164251 -0.087627 0.007757 -0.162824 0.113273 -0.326036 -0.24389 -0.163432 0.059497 0.098032 0.096259 0.125531 0.317591 -0.058543 0.112313 0.120811 0.004195 0.412967 0.110534 -0.364993 -0.010624 0.025171 -0.03639 0.379644 0.064397 -0.199972 -0.082298 -0.022804 0.189629 4e-05 0.033576 0.147991 0.064946 0.399387 -0.029688 0.135623 0.219155 -0.247043 -0.167217
 0.10027 -0.004446 -0.085706 0.53272 0.64032 0.47846 0.52263 0.32094 0.021086 0.11378 0.61409 -0.066297 0.44182 0.10207 -0.79438 0.001518 0.57227 -0.23992 -0.12815 0.2472 -0.65021 0.25142 -0.61964 0.14663 0.21719 0.32358 -0.15182 0.62079 0.50959 -0.42185 -0.62557 0.30492 -0.015537 -0.10627 -0.39002 -0.058906 0.42488 0.26419 0.1383 -0.40567 0.8446 0.11688 -0.81312 0.24106 -0.012159 -0.66146 -0.58345 0.041191 -0.76021 0.57166 -0.085404 0.68502 -0.25366 -0.21089 -1.2744 -0.70145 0.7048 0.47033 -0.4902 -0.30945 -0.057327 0.1408 -0.96695 -0.25021 1.0619 0.1096 0.182 -0.2489 0.20199 -0.34994 0.10521 0.16897 -0.013145 0.26418 -0.25599 -0.029212 0.40299 0.092039 -0.46969 -0.69446 0.25356 -0.19448 -0.17591 -0.20331 -0.35615 0.40339 -0.37327 -0.33245 0.16118 0.026969 -0.013313 0.004064 0.24156 0.95333 0.61075 -0.33178 -0.78668 -0.16948 -0.17024 -0.04616
 -0.60114 0.66842 -0.79103 0.76802 -0.18502 0.41488 0.79239 0.31352 0.21454 0.2918 1.2273 0.51028 -0.82298 0.19301 0.16114 -0.14651 0.052925 -0.25817 -0.20599 0.15112 0.14366 1.4057 -0.36046 0.04124 0.50849 0.8065 0.30397 0.61156 0.081169 0.86556 0.061517 -0.5949 -0.53728 -0.20387 -0.31702 -0.012324 0.3684 0.59892 0.511 0.59589 0.88515 -1.8377 0.25028 -0.26117 -0.82787 -0.16463 0.46374 -0.40335 0.18691 0.18806 -0.50876 -0.23737 0.31653 0.78546 -0.63591 -0.45627 0.11868 -0.10274 0.46436 -0.74583 0.35555 0.061029 -0.36361 0.16531 0.039359 -0.35306 -0.51643 -0.17435 0.47811 -0.009543 -0.15683 0.53514 0.57274 0.70376 0.33332 0.28424 0.005538 -0.16644 -0.17523 -0.046222 0.023553 -0.57057 0.004548 0.81183 0.64525 0.041419 -0.48072 0.25815 1.0911 1.1468 -1.1685 1.3602 -0.99638 -0.54757 0.062977 -1.013 0.048286 0.11573 -0.32013 0.19651
 0.131136 -0.371826 -0.345917 0.273236 0.036245 0.072134 0.086787 0.038052 0.294065 -0.162901 0.0446 0.028718 -0.163586 -0.17044 -0.080217 0.005098 -0.096123 0.306064 0.31411 -0.003489 -0.280638 -0.14701 -0.200989 0.003798 -0.293803 0.119601 0.019996 0.02269 0.183236 -0.009906 -0.020217 -0.317252 0.088105 0.107219 0.136568 -0.067353 0.074838 -0.275246 0.134744 0.062748 0.281267 0.143249 -0.065724 0.082298 -0.014627 0.0298 -0.010104 0.145619 -0.085614 0.393165 -0.194278 0.218506 -0.179257 -0.40321 0.00694 0.532975 0.051368 0.054096 -0.578889 -0.184255 -0.011807 -0.17278 -0.039092 -0.271141 -0.244478 0.021019 -0.221645 -0.447473 -0.093046 0.062938 0.209628 0.305775 0.041642 0.237281 0.037286 0.14004 0.025375 0.10507 0.265284 0.121078 -0.368171 -0.099689 -0.036766 -0.111148 0.428005 0.075573 -0.25319 0.075847 0.032108 -0.072142 -0.095213 -0.064008 0.043032 0.049097 0.211698 0.033215 -0.157813 0.083991 -0.346305 -0.084821
 0.095664 -0.384086 -0.178701 0.273324 0.008492 -0.010869 0.113697 0.050137 0.202181 -0.108697 -0.102021 0.082756 -0.165388 0.045102 -0.346894 0.109184 -0.104263 -0.037361 0.244032 -0.075409 -0.19988 0.078196 -0.383399 -0.214005 -0.223612 -0.053658 0.14924 0.13698 0.022577 -0.091674 -0.144022 -0.401147 0.173742 -0.174554 0.089173 -0.084823 -0.006146 -0.274823 0.068271 -0.029158 0.27981 0.111655 -0.18333 -0.053369 -0.009315 0.037877 -0.001135 0.245891 -0.164753 0.268292 -0.033041 0.274657 -0.21048 -0.29821 -0.173656 0.584436 0.126616 0.074396 -0.535902 -0.360027 0.029278 -0.277934 -0.080259 -0.209087 -0.095894 0.085279 -0.4394 -0.278082 -0.0766 0.253515 0.135003 0.203 0.016249 0.324678 0.055476 0.026924 0.08661 0.11447 0.423771 0.107972 -0.347147 -0.072075 -0.099242 -0.148012 0.398569 0.076582 -0.156599 -0.043352 -0.06309 0.142983 -0.008307 -0.001924 0.117209 0.189676 0.316897 0.1089 -0.062801 0.073963 -0.272274 -0.1808
^ -1.3364 0.34778 -0.17837 0.29599 -0.53771 0.25868 0.8337 0.18469 0.13685 -0.036969 1.0012 0.30096 -0.81317 0.051715 -0.020692 -0.30384 -0.34005 0.12414 -0.63685 0.57456 0.033818 0.30763 -0.3295 0.70087 0.19057 0.67395 0.51976 -0.01239 0.35707 0.1571 0.38785 0.37023 -0.050633 0.37015 0.033806 0.066973 0.076057 0.28976 0.32079 0.54604 0.58529 -0.54224 0.20035 -0.39791 -0.15317 -0.53687 -0.57665 0.41055 -0.35627 -0.010787 -0.55342 0.29534 0.57771 -0.36143 -0.8296 0.098045 0.25311 0.30436 0.11759 0.044889 -1.1 -0.51239 -0.51246 -0.34082 0.56662 -0.11527 0.02094 0.34198 0.75715 -0.19411 0.15377 0.62435 0.014346 0.56717 0.086015 -0.72327 0.46679 -0.25985 -0.2989 -0.55669 -0.78113 -1.0118 -0.36828 0.18847 0.22415 -0.076967 -0.47737 -0.32785 0.1514 0.64563 -0.62211 1.1325 0.073365 0.053589 0.7146 -0.69136 0.38018 -0.1414 -0.18502 0.073726
 0.068005 -0.227065 -0.265194 0.268944 -0.048165 -0.078694 0.034587 -0.131634 0.189232 -0.08339 0.060662 0.096693 -0.167691 -0.01157 -0.083229 0.099713 -0.218944 0.091547 0.162157 -0.086598 -0.327166 -0.038849 -0.18604 0.027264 -0.278146 -0.050947 0.102805 0.246307 0.126762 0.067145 -0.022249 -0.105533 0.16411 -0.091258 0.075261 -0.154856 0.094126 -0.176159 0.038066 -0.071522 0.230244 0.234318 -0.067829 0.193181 -0.169766 -0.042896 0.147326 0.207802 0.035816 0.365841 0.013912 0.058979 -0.022632 -0.340007 0.001277 0.542179 0.046831 0.022737 -0.598577 -0.259132 0.195708 -0.202073 -0.053217 0.010222 -0.189066 0.145222 -0.319357 -0.209532 -0.150319 0.028238 0.060379 0.095976 0.142764 0.367141 -0.026129 0.093038 0.099694 -0.046287 0.454536 0.1372 -0.362991 -0.018047 0.045455 -0.077857 0.432337 0.063522 -0.200913 -0.069388 -0.095738 0.226184 0.029451 -0.008243 0.088723 0.002157 0.373138 0.015788 0.136999 0.270204 -0.228287 -0.155535
 0.158026 -0.351886 -0.302152 0.362371 -0.030456 0.023599 0.201924 -0.004186 0.227592 -0.149518 -0.084787 0.134309 -0.175035 -0.06277 -0.213639 0.090007 -0.162459 0.075743 0.222981 -0.038789 -0.229597 0.029339 -0.313271 -0.195602 -0.169045 -0.033494 0.021386 0.094731 0.09323 -0.002899 -0.068847 -0.416965 0.022823 -0.114871 0.086476 0.000333 0.07599 -0.284746 -0.006692 -0.041832 0.286728 0.19078 -0.194416 0.074059 -0.061543 -0.000996 -0.052178 0.17136 -0.048196 0.351304 -0.076394 0.310925 -0.161825 -0.28267 -0.107744 0.471486 0.108591 0.100909 -0.667461 -0.277295 0.072931 -0.288913 -0.066574 -0.176888 -0.209941 0.086199 -0.382655 -0.358859 -0.104045 0.100128 0.18982 0.228724 0.035019 0.317428 0.05704 0.095211 0.169499 0.046349 0.344373 0.091275 -0.320214 -0.040294 0.080754 -0.045105 0.342955 -0.020871 -0.143271 -0.055211 -0.021613 0.150815 -0.068427 -0.023027 0.15731 0.131742 0.329495 0.072771 -0.073743 0.0518 -0.319007 -0.09923
 0.100477 -0.296395 -0.226431 0.275701 -0.024318 0.038403 0.048641 -0.037184 0.267714 -0.149156 0.040166 0.09574 -0.202946 -0.08655 -0.151338 0.069536 -0.090634 0.145863 0.290031 0.008952 -0.313594 -0.123284 -0.20412 -0.046948 -0.331715 0.10213 0.020295 0.133468 0.13306 0.020021 0.019782 -0.212266 0.110468 -0.019873 0.127501 -0.148791 0.059166 -0.247716 0.053833 -0.014653 0.218537 0.226017 -0.053479 0.070989 -0.067607 -0.025455 -0.011071 0.173303 -0.037907 0.32115 -0.139851 0.199632 -0.165751 -0.400918 0.041231 0.567229 0.020452 0.107189 -0.582709 -0.230492 0.065087 -0.168788 -0.049623 -0.169868 -0.255125 0.164198 -0.282333 -0.340131 -0.057518 0.081384 0.220936 0.312794 0.069968 0.257399 -0.011535 0.164142 0.067376 0.068249 0.310523 0.034711 -0.382003 -0.124709 0.010175 -0.134636 0.404392 0.092588 -0.261936 0.033465 -0.02581 0.06114 -0.049079 -0.018376 0.047251 0.005571 0.30812 -0.017384 0.022822 0.121411 -0.306645 -0.186295
 -0.2628 0.37805 -0.48564 0.90339 -0.73815 0.26563 0.73587 0.23508 -0.11676 -0.061214 1.1591 0.37374 -0.90083 -0.05127 0.37629 -0.010611 -0.14293 0.068551 -0.13164 0.24284 -0.001805 1.4003 -0.44976 -0.16173 0.708 0.57586 0.085187 0.54922 0.09678 0.9756 0.017473 -0.67313 -0.20001 -0.44603 -0.18474 -0.014993 0.41171 0.26364 0.26726 0.93124 0.76638 -1.3324 0.32598 0.086456 -0.59252 -0.01467 0.12128 -0.28439 0.31947 0.3136 -0.4883 -0.44948 0.77573 1.0343 -0.78231 -0.29964 -0.039976 -0.35278 0.058293 -0.80442 0.008073 -0.015438 -0.50742 0.20385 -0.036512 -0.093747 -0.71305 0.17808 0.26805 0.15093 -0.13722 0.43799 0.24564 0.50011 0.14203 -0.007758 0.14333 -0.66339 0.022149 -0.010966 -0.37773 -0.34378 0.08285 0.69192 0.53753 -0.24708 -0.27735 0.3753 0.99495 1.1568 -0.98985 1.2479 -0.59946 -0.61394 0.25423 -0.53049 0.092775 -0.37727 0.046111 0.017688
 0.050498 -0.21731 -0.243735 0.286264 -0.011154 0.124975 0.128784 -0.052422 0.24448 -0.075651 -0.044207 -0.004188 -0.192242 -0.063641 -0.16448 0.134077 -0.192041 0.112461 0.119026 0.073284 -0.32263 -0.018114 -0.072926 -0.109797 -0.183054 -0.07013 0.049152 0.166903 0.074207 0.010317 0.080415 -0.231598 0.140679 -0.080337 0.084481 -0.232907 0.109503 -0.166922 0.128222 -0.026876 0.152834 0.204942 0.023348 0.004622 -0.134333 -0.068627 0.047004 0.114274 0.068638 0.25306 -0.041797 0.258878 -0.183298 -0.345887 -0.005143 0.649715 0.033749 0.095235 -0.567371 -0.310378 0.13061 -0.204321 0.010378 0.02168 -0.252084 0.088292 -0.277919 -0.205249 -0.059264 0.091223 0.104592 0.130718 0.050376 0.264627 -0.017593 0.125734 0.072583 -0.011063 0.369973 0.03228 -0.414379 -0.051097 0.014855 -0.087603 0.429426 0.081826 -0.16331 -0.080673 -0.132296 0.230729 0.024032 0.004879 0.139204 -0.032665 0.310444 0.02411 0.069227 0.149084 -0.333821 -0.146968
 0.069479 -0.498276 -0.120342 0.424177 0.049589 0.045204 0.202443 0.061858 0.272029 -0.117913 -0.017045 0.152621 -0.254059 0.057993 -0.166568 0.007992 -0.171924 0.102819 0.151232 -0.018096 -0.14086 0.106345 -0.351694 -0.332294 -0.149301 -0.148235 0.074834 0.148668 0.172437 -0.024132 -0.12605 -0.458988 0.223993 -0.071569 0.145435 -0.018155 0.024622 -0.25218 0.023105 -0.13927 0.333928 0.097667 -0.209287 -0.018721 -0.091603 -0.074372 -0.055707 0.133141 -0.184816 0.500193 -0.099337 0.341285 -0.103217 -0.365206 -0.1617 0.368882 0.344567 0.050088 -0.662658 -0.261644 0.053782 -0.338178 -0.140332 -0.244028 -0.048314 0.08694 -0.406444 -0.409608 -0.011631 0.077139 0.035467 0.196813 0.140927 0.351914 0.047665 -0.003634 0.231372 0.143725 0.39557 0.193168 -0.364361 -0.125976 -0.02268 0.060825 0.401564 -0.08216 -0.045066 0.062649 0.017195 0.169103 -0.107396 -0.025736 0.210989 0.203216 0.407917 0.127811 -0.016324 0.060785 -0.252739 -0.088606
 0.044683 -0.31132 -0.35802 0.256721 -0.142749 0.004813 0.126724 0.113112 0.291129 -0.156549 0.021722 0.108403 -0.165661 -0.046629 -0.24728 0.03214 -0.012562 0.100797 0.240144 -0.01223 -0.065876 -0.009211 -0.406374 -0.196609 -0.24834 0.128548 0.025563 0.164179 0.099317 -0.034005 -0.053345 -0.420305 0.147563 -0.092769 0.192323 -0.047903 0.100661 -0.289232 0.053989 -0.057026 0.214934 0.185063 -0.151978 0.024886 -0.031746 -0.074923 -0.117349 0.165534 -0.083784 0.369044 -0.19413 0.23135 -0.135992 -0.401153 -0.017996 0.601205 0.145922 0.190148 -0.518895 -0.313345 0.020008 -0.270041 -0.123833 -0.16874 -0.295976 0.07175 -0.331299 -0.349506 -0.154597 0.103198 0.246169 0.322036 0.088915 0.25852 -0.026743 0.053624 0.0298 0.130798 0.379508 0.036722 -0.265208 -0.121114 0.016631 -0.188531 0.272716 0.083254 -0.182321 -0.001481 0.04626 0.099735 -0.070169 0.005309 0.157162 0.079824 0.359777 0.108326 0.055162 0.033746 -0.347494 -0.125424
 -0.028277 -0.250401 -0.241387 0.246409 -0.011003 0.023635 0.032768 -0.094437 0.29838 0.064725 0.017702 0.106824 -0.091343 0.044652 -0.086245 -0.008214 -0.221087 0.133094 0.153244 -0.144555 -0.434774 0.08237 -0.083172 -0.072883 -0.330105 -0.104683 0.02444 0.30847 0.011726 -0.035489 -0.060402 -0.153438 0.330646 0.019113 0.046515 -0.135596 0.004198 -0.1327 0.063647 -0.19434 0.225541 0.267359 -0.107595 0.171377 -0.297976 0.07015 0.214297 0.119697 0.081593 0.394117 -0.034351 0.14924 -0.076927 -0.381582 -0.112745 0.522913 -0.076409 -0.106511 -0.54898 -0.394035 0.152867 -0.290034 -0.122634 -0.031606 -0.194727 0.1871 -0.288041 -0.18197 -0.179795 -0.008175 0.076432 0.084886 0.201037 0.327245 0.041152 0.030341 0.132107 -0.026911 0.465304 0.11118 -0.499319 -0.012528 0.194621 0.010635 0.494533 0.06202 -0.236937 0.034898 0.023557 0.242658 -0.086272 -0.028212 -0.057144 -0.051191 0.287706 -0.003489 0.065426 0.427293 -0.069021 -0.191947
 0.085597 -0.310082 -0.255304 0.224793 -0.070259 -0.015435 0.061746 -0.222354 0.100205 -0.0326 -0.058988 0.206976 -0.150388 -0.037661 -0.070514 -0.113687 -0.210154 0.0368 0.177485 -0.042196 -0.393966 -0.153291 -0.168073 -0.136282 -0.16065 0.00836 0.065708 0.247741 0.079863 0.050463 0.099297 -0.081656 0.1674 0.119302 -0.132906 -0.028559 0.046715 -0.220229 -0.000367 -0.053934 0.085351 0.324534 0.076482 0.137645 -0.24679 0.063266 0.095354 0.242308 0.224771 0.278693 -0.026519 0.236636 -0.015851 -0.332572 0.029669 0.630821 -0.028403 -0.017168 -0.603815 -0.316479 0.109858 -0.263164 0.082332 0.021346 -0.177772 0.110114 -0.291909 -0.199265 -0.193865 -0.038469 0.09234 0.068384 0.21313 0.283826 -0.029477 0.11626 0.09895 -0.060199 0.31195 0.077 -0.375826 0.102885 0.113782 0.031432 0.275742 0.01837 -0.208226 -0.180453 0.002914 0.132747 0.0383 0.07145 0.062656 -0.11687 0.285851 -0.058692 0.091503 0.261685 -0.32208 -0.224923
 0.79903 -0.45793 0.59938 -0.9788 0.74787 0.48387 0.2214 0.16579 0.58994 0.112 1.0851 0.040663 -0.40327 0.27823 0.41862 0.2083 0.17665 0.87143 -0.29571 0.40698 -0.4294 -0.013289 -1.123 0.19637 0.29492 0.1572 -0.062913 0.20698 0.8103 -0.27239 -0.18098 -0.44844 0.40206 0.80628 0.66667 -0.30108 1.381 0.014624 0.42469 -0.73074 1.2319 0.78842 -0.45591 0.77587 -0.69927 -0.79787 0.18948 0.27122 -0.93992 0.85203 -1.1586 0.25314 -0.48065 -0.2012 -1.1982 0.36143 0.64771 0.56402 -0.33363 -0.47638 -0.61934 0.22859 -1.6998 -0.45565 0.77623 0.24506 -0.73992 -0.46906 -0.101 0.62461 0.9589 0.088186 0.12849 -0.42624 -0.11997 0.6822 -0.17242 0.22196 -0.16629 -0.81967 0.96778 -0.1364 -0.089806 -0.32928 0.35506 -0.60642 0.59564 -0.27397 0.52104 -0.15679 0.26024 0.3562 -0.28606 0.77131 0.46666 -1.4639 -0.32931 -0.23032 -0.1176 0.60559
 0.060508 -0.197887 -0.0091 0.05659 -0.391887 0.201404 -0.042266 -0.114804 0.257362 -0.170979 0.018224 -0.109021 -0.123048 0.167732 -0.290426 0.098214 0.174309 0.159181 0.316904 0.155986 0.171385 0.017803 -0.458452 0.068654 -0.358529 0.369809 0.088856 0.222391 0.054239 0.213217 -0.291062 -0.142004 0.316809 -0.097412 0.037533 -0.117278 0.396097 -0.184001 0.041969 -0.066084 0.221633 0.117411 0.044546 0.002739 0.099778 -0.343463 0.05029 0.258799 -0.097012 0.449791 -0.131149 0.093749 -0.210331 -0.368319 -0.114077 0.631596 0.083636 0.282153 -0.719247 -0.448303 -0.228394 -0.033712 -0.267851 -0.151789 -0.256996 0.153956 -0.368175 -0.39625 -0.124519 0.244293 0.211981 0.126204 0.141701 0.214512 0.062912 -0.009752 0.053185 0.380471 0.261297 -0.175622 -0.317463 -0.43899 -0.121169 -0.035421 0.462482 0.208126 -0.343692 0.049286 0.013032 0.153003 -0.003567 0.115049 0.280581 -0.113687 0.407286 0.008931 0.033267 -0.045814 -0.476673 -0.2506
 0.079619 -0.249215 -0.217259 0.271828 0.013847 0.017248 0.104324 -0.027987 0.25071 -0.063355 -0.085307 0.091979 -0.083302 -0.040991 -0.141151 0.087528 -0.179807 0.073606 0.287876 -0.045009 -0.264637 -0.002315 -0.230989 -0.15568 -0.250279 0.069325 0.145096 0.121529 0.047349 0.070379 -0.028499 -0.244409 0.117007 -0.09424 0.021993 -0.128669 -0.006937 -0.194332 -0.060073 -0.115964 0.127984 0.278285 -0.061689 0.090844 -0.128834 0.057877 0.014746 0.233753 0.041698 0.224581 -0.117381 0.237251 -0.09178 -0.329531 0.105584 0.599288 0.080986 0.060458 -0.589047 -0.352806 0.138182 -0.202281 -0.024208 -0.145506 -0.22874 0.164666 -0.230899 -0.290697 -0.128006 0.086432 0.162067 0.10401 0.044679 0.329652 -0.028192 0.078403 0.223977 0.057492 0.358109 0.036459 -0.463686 -0.038024 0.060628 -0.07515 0.444093 0.048155 -0.136637 0.078532 -0.05103 0.165719 0.067547 0.089237 0.046426 -0.022318 0.313423 0.0096 0.049843 0.106636 -0.331784 -0.107641
 0.108215 -0.365374 -0.154824 0.278632 -0.183695 -0.039073 -0.08019 -0.130741 0.246965 -0.044355 0.090913 0.048947 -0.21157 0.011974 -0.171706 -0.080131 -0.148468 0.050485 0.219336 0.156048 -0.1668 -0.06199 -0.25375 -0.046512 -0.304677 0.147582 0.005213 0.275595 0.06556 0.104906 -0.110442 -0.089318 0.155606 -0.036979 0.130519 -0.072007 0.321442 -0.284437 0.010782 -0.130274 0.118412 0.262466 0.083474 0.03057 -0.073179 -0.079047 -0.043827 0.128204 -0.045944 0.521416 -0.101066 0.156296 -0.104187 -0.347794 0.047515 0.653861 -0.031657 0.104385 -0.619791 -0.331032 0.049688 -0.06429 -0.034124 -0.195237 -0.335382 0.104412 -0.237697 -0.346031 -0.175112 0.109499 0.209221 0.15661 0.134587 0.344579 -0.131172 0.174861 -0.034189 0.103227 0.462321 0.06813 -0.263999 -0.098075 -0.038865 -0.114183 0.405141 0.20019 -0.360149 0.120247 -0.013186 0.161827 -0.125115 0.075086 0.062128 -0.067792 0.473356 -0.089253 0.010724 0.020976 -0.373084 -0.232373
 0.052556 -0.24158 -0.173975 0.291367 -0.025382 -0.061699 0.046824 -0.077934 0.214471 -0.111517 -0.003529 0.056927 -0.127803 0.033063 -0.208166 0.099213 -0.176672 0.067678 0.171091 -0.111018 -0.275654 0.053905 -0.274873 0.071979 -0.27215 -0.086723 0.105158 0.326446 0.097634 0.085376 -0.091645 -0.158355 0.125867 -0.124389 0.11416 -0.174401 0.052337 -0.197728 0.075004 -0.146694 0.275794 0.222471 -0.103887 0.203238 -0.163485 -0.046166 0.176904 0.213023 0.009462 0.317093 -0.020556 0.099807 -0.089337 -0.366701 -0.010806 0.520445 0.070984 0.000302 -0.592871 -0.307871 0.160375 -0.196961 -0.110118 0.01001 -0.16641 0.183247 -0.275678 -0.200198 -0.136994 0.089907 0.116131 0.096248 0.145282 0.372968 0.020022 0.132452 0.157366 -0.034016 0.478836 0.089081 -0.375345 -0.044217 0.074145 -0.014095 0.406003 0.042238 -0.180165 -0.07832 -0.085468 0.277135 0.009871 -0.032299 0.077923 -0.000523 0.413758 0.021852 0.10055 0.335088 -0.242561 -0.192725
 -0.84083 0.48385 -0.52703 -0.060917 0.076552 0.069585 0.10632 -0.47994 0.011979 0.36989 0.97817 -0.091959 -1.2174 0.49156 -0.060538 0.069583 -0.17557 -0.42268 -0.91122 0.28752 0.61391 0.71104 -1.3109 -0.23789 0.89883 0.55405 1.1175 0.68709 0.20481 -0.33218 0.60854 0.81789 0.88225 0.30626 -0.49561 0.58585 0.14958 -0.37805 0.44441 -0.31079 1.0693 -0.3299 -0.12395 -0.13194 -0.68755 -0.38089 0.83052 -1.1244 -1.034 -1.4448 -0.17571 -0.066025 -1.029 0.14713 -1.1504 1.0603 0.64467 -0.15217 0.039635 -1.0936 0.10703 0.81786 -0.71819 0.17288 0.24868 0.37981 -1.0883 0.054332 0.67069 -0.1152 -0.55013 -0.078335 0.63451 1.1873 0.38924 0.36346 0.74732 0.089237 -0.82037 -0.25759 -0.50598 -0.45902 0.59592 -0.62116 0.48412 0.38202 -0.34351 -0.78179 0.047889 0.17419 -0.49043 0.62074 0.1886 -1.1777 -0.55533 -0.54002 0.32902 -0.39488 -0.70448 -0.47863
 0.117768 -0.290351 -0.241835 0.231514 -0.209078 -0.084991 -0.033413 -0.118508 0.225909 -0.203792 0.201382 0.072688 -0.143088 0.102901 -0.170964 0.121599 0.021841 0.007501 0.068187 -0.046173 0.022923 0.112611 -0.439337 -0.175284 -0.372033 0.08709 0.157781 0.274348 0.171262 0.265238 -0.127123 -0.175934 0.154505 -0.036398 0.116354 0.059677 0.131119 -0.318743 0.049514 0.064537 0.253733 0.115512 -0.204054 0.4115 -0.077026 -0.1689 0.058412 0.250321 -0.178726 0.502133 -0.113999 0.124184 -0.140839 -0.356753 -0.21128 0.440275 0.13575 0.107361 -0.549028 -0.336674 0.084657 -0.198276 -0.332206 -0.086637 -0.161394 0.195039 -0.318994 -0.263166 -0.219488 -0.004572 0.05917 0.128024 0.107318 0.243248 0.083815 0.051567 0.149421 0.164906 0.402759 -0.020224 -0.341566 0.021882 -0.019661 -0.18432 0.423785 0.051021 -0.340063 -0.079774 0.081498 0.287103 -0.219757 0.038833 0.160681 0.131005 0.466555 -0.059826 0.316206 0.218176 -0.253393 0.024225
 -0.020403 -0.188692 -0.215984 0.257655 -0.063378 0.0405 0.033522 -0.056166 0.290934 0.009876 -0.017119 0.111142 -0.096482 0.119116 -0.104611 0.028552 -0.272048 0.08411 0.244315 -0.079578 -0.424779 0.154398 -0.177828 0.053379 -0.28908 -0.107036 0.127483 0.201501 0.040345 0.001029 -0.057878 -0.133181 0.305184 -0.079292 0.136318 -0.113244 0.002455 -0.119903 0.057452 -0.282355 0.290597 0.304788 -0.12667 0.12431 -0.262125 0.059014 0.205569 0.242226 -0.008761 0.379258 -0.060385 0.158687 0.008989 -0.345292 -0.14895 0.538111 0.004462 -0.064481 -0.554692 -0.333689 0.08839 -0.303518 -0.236705 -0.034631 -0.207417 0.236829 -0.25181 -0.210386 -0.161911 0.033534 0.077725 0.049185 0.213124 0.363575 0.050656 0.083613 0.123091 -0.010489 0.485658 0.056535 -0.418177 -0.10058 0.151479 0.022659 0.444188 0.061887 -0.190011 -0.006835 -0.029522 0.261978 -0.089334 -0.022242 -0.039934 -0.017902 0.360472 0.0255 0.095499 0.441366 -0.138566 -0.206435
 -0.019868 -0.119519 -0.331662 0.295473 -0.07727 -0.111834 0.096532 -0.175036 0.238242 -0.144221 -0.003483 0.05591 -0.043454 -0.080671 -0.177235 0.062097 -0.266078 0.184728 0.244391 -0.107796 -0.300143 -0.068799 -0.133492 0.01047 -0.302288 -0.01621 0.203155 0.220321 0.105194 0.047093 0.012652 -0.088512 0.249167 -0.144489 0.177458 -0.294927 0.060006 -0.198447 0.005551 0.028516 0.213188 0.26075 0.027176 0.18993 -0.1658 -0.133817 0.106079 0.175781 0.131936 0.306637 -0.039642 0.064936 -0.179522 -0.384921 0.099563 0.596282 0.052395 0.132775 -0.585551 -0.364687 0.192703 -0.171808 -0.015503 -0.072487 -0.221437 0.098916 -0.119715 -0.245137 -0.263112 0.07608 0.12703 0.238006 0.014618 0.374622 -0.04352 0.057061 0.032574 0.000882 0.468448 0.120739 -0.379297 -0.146474 0.125403 -0.222094 0.513587 0.201737 -0.241753 0.060616 -0.092002 0.362515 0.05019 0.026335 0.184009 -0.011245 0.278024 -0.054817 0.119538 0.277336 -0.416193 -0.209369
 0.55892 0.17567 0.75318 -0.63053 -0.58498 0.46573 0.24535 0.53142 0.88517 0.040568 0.43538 -0.18563 -0.37361 0.90026 0.72233 -0.050274 -0.44283 0.63649 -0.10248 0.37685 0.3714 0.16135 -1.4656 -0.46311 0.45951 0.25444 -0.48508 -0.18833 -0.20055 0.014398 -0.06558 -0.052246 0.70589 -0.072439 0.36491 0.67922 -0.044762 0.23186 -0.14539 -0.75429 1.4578 -0.036066 0.28304 0.79998 -0.1341 -0.96046 0.25162 -0.35636 -1.2282 0.55805 -0.58185 0.93904 -0.073758 -0.69641 -0.77173 0.82581 0.48005 0.12995 -0.38791 -0.25307 0.28047 0.10991 -0.49017 -1.1511 0.57674 0.065697 0.34642 -0.84434 0.14317 -0.048244 0.59651 0.73123 -0.28423 -0.69906 -0.059229 0.66333 0.51341 -0.052672 -0.10951 -0.30028 0.21537 -0.60426 0.25862 -0.19612 0.45448 -0.15961 0.3789 -0.25742 0.14315 -0.15632 -0.94856 0.3664 0.69209 0.4802 0.58537 -0.37835 0.10512 0.2007 -0.43016 -0.25172
 0.33389 -0.673078 -0.521445 0.193808 0.193047 0.089588 0.24672 -0.398562 -0.137129 -0.088884 0.180858 0.003274 -0.079378 -0.230787 -0.104427 -0.0543 -0.274536 0.26525 0.402595 -0.16059 -0.163064 -0.247735 -0.281765 -0.150518 0.214737 0.000464 -0.160978 0.030193 0.500107 0.212458 0.127882 -0.296668 -0.27456 -0.117408 -0.12406 -0.145715 0.197264 -0.316152 0.23939 -0.11474 0.025195 0.142633 0.338525 -0.069495 -0.090477 -0.233216 -0.23085 0.173559 0.040606 -0.052458 0.159002 0.49981 0.0104 -0.268819 0.094052 0.488682 -0.193224 0.01675 -0.955302 0.115446 0.128338 -0.299423 0.130892 0.048768 -0.120495 -0.159592 -0.170576 -0.100119 -0.173208 -0.144301 0.20659 0.042052 -0.257912 0.143722 0.044076 0.274417 0.302541 -0.108616 0.3807 0.197981 -0.474702 0.040235 0.551435 0.361656 0.052222 0.0543 -0.005065 -0.275976 -0.149226 0.326085 -0.003589 -0.05621 0.240368 -0.053703 0.201565 0.12014 -0.123963 -0.261123 0.069055 -0.095683
 -0.02288 -0.17252 -0.188108 0.162188 -0.166377 0.063872 0.012714 -0.17837 0.272032 -0.172202 0.134975 0.110201 -0.129647 0.101342 -0.149131 0.044614 -0.154335 0.033513 0.133604 0.111672 -0.110757 0.003456 -0.429862 -0.011518 -0.278794 0.181548 0.135389 0.200268 -0.008848 0.084233 -0.098995 -0.242798 0.150616 -0.141065 0.174115 -0.146545 0.157601 -0.190659 0.102014 -0.109321 0.219272 0.349899 -0.076594 0.061899 -0.000365 -0.100953 -0.145939 0.223851 -0.133896 0.330298 -0.132776 0.11735 -0.181622 -0.483766 -0.071002 0.649632 0.081674 0.193391 -0.539537 -0.399307 0.114603 -0.249512 -0.14938 -0.259725 -0.386465 0.156163 -0.201556 -0.296414 -0.123525 0.040681 0.160569 0.245882 0.197714 0.265893 0.023428 0.087175 0.104121 0.09377 0.428335 -0.059556 -0.266075 -0.174772 0.086766 -0.122531 0.439707 0.126986 -0.197493 -0.018615 0.067742 0.165322 -0.004739 0.085782 0.261364 -0.086559 0.40855 -0.107481 0.093482 0.073274 -0.344252 -0.055057
 0.227919 -0.38084 -0.174683 0.050029 -0.06263 0.034248 0.16514 0.007014 0.268085 -0.222922 0.102658 0.292351 -0.168476 0.014038 -0.197834 -0.018013 -0.237636 0.128718 0.074339 -0.092152 -0.020392 -0.071641 -0.514216 -0.519112 -0.175812 0.091361 0.061477 0.323398 0.147791 0.004632 -0.014184 -0.603899 -0.139547 -0.192274 0.31929 -0.066087 0.110811 -0.316992 0.084618 -0.019377 0.114771 0.261568 -0.05217 0.175487 -0.059179 -0.025538 -0.106074 0.270272 -0.178946 0.345261 -0.115697 0.269454 -0.17802 -0.274084 -0.048828 0.433782 0.176671 0.19019 -0.556858 -0.237355 -0.174092 -0.204406 -0.272096 -0.049558 -0.09139 0.186521 -0.397491 -0.496042 -0.09768 0.083317 0.268582 0.261586 -0.000539 0.477162 -0.090206 0.033728 0.097199 0.237141 0.458881 0.112147 -0.437649 -0.090912 -0.02163 -0.057125 0.484509 0.133556 -0.342054 -0.041233 -0.013658 0.349091 -0.056834 0.213821 0.200158 -0.039378 0.412096 -0.045642 0.031764 0.102708 -0.332883 -0.19075
 -0.04089 -0.172677 -0.238507 0.220819 -0.013756 0.205082 0.041379 -0.035175 0.385185 -0.142427 -0.213592 -0.016266 -0.075871 0.08611 -0.299914 0.063033 -0.124925 0.093497 0.319875 0.11148 -0.379321 0.04842 -0.093347 0.096936 -0.299584 -0.129458 -0.053347 0.301636 0.020572 0.123931 -0.091131 -0.228746 0.257776 -0.246227 0.098152 -0.447486 -0.001283 -0.082631 0.282908 -0.050977 0.190597 0.160357 -0.046005 0.039716 -0.154256 0.080636 0.348038 0.055339 0.056146 0.246502 0.000296 0.124098 -0.165998 -0.488166 -0.061543 0.539353 0.013461 -0.136393 -0.545535 -0.455292 0.202351 -0.257072 0.035085 -0.242429 -0.305134 0.201869 -0.139175 -0.270857 -0.138851 0.121494 0.15842 0.262537 0.172704 0.210881 0.058173 -0.025699 0.001585 0.172597 0.529385 0.063819 -0.423229 -0.036691 0.07954 -0.205729 0.55613 0.158941 -0.315128 -0.083551 -0.063711 0.295908 0.007268 -0.102553 -0.137442 0.045738 0.367462 0.113791 0.203491 0.175141 -0.339123 -0.118113
