t -0.07856 -0.297894 -0.09703 -0.091368 -0.211625 -0.026434 0.334066 0.170385 0.097103 0.206331 0.069699 0.032036 0.285823 0.121486 -0.248542 -0.079295 -0.04549 0.085357 0.34019 0.109074 -0.107245 -0.138275 -0.114629 0.10699 0.136138 0.558307 0.077272 0.079817 0.037287 0.06284 -0.713346 -0.06032 0.201506 0.095904 -0.06107 0.114473 -0.027449 -0.031221 -0.144786 0.093606 0.124803 -0.224169 -0.118019 0.153747 -0.001278 -0.138124 0.218402 0.150867 -0.004169 0.010908
h -0.161026 -0.277764 -0.056471 -0.063275 -0.194834 -0.086759 0.333846 0.205543 0.08772 0.149837 0.050109 0.045362 0.262903 0.053281 -0.268514 -0.022935 -0.020881 0.082078 0.382204 0.234935 -0.127866 -0.111021 -0.087919 0.091441 0.169804 0.560793 0.115634 0.056084 -0.066376 0.040264 -0.907454 -0.089729 0.262017 0.191351 -0.014241 0.098785 -0.020455 -0.008653 -0.074219 0.187383 0.103722 -0.120813 -0.162381 0.056297 0.082199 -0.140694 0.170395 0.07543 0.003051 0.029757
e -0.081719 -0.293339 -0.078881 -0.106217 -0.197286 -0.016357 0.286946 0.190788 0.086809 0.182336 0.067023 0.047683 0.253729 0.086953 -0.212345 -0.065997 -0.029122 0.064093 0.353521 0.09743 -0.129331 -0.111388 -0.108195 0.091386 0.13712 0.560199 0.105536 0.094144 0.032141 0.053735 -0.774 -0.070371 0.21821 0.115201 -0.053462 0.095601 -0.032904 -0.002143 -0.105492 0.091135 0.135091 -0.193518 -0.105753 0.119668 0.007497 -0.148859 0.190799 0.110616 -0.025462 0.034644
, 0.076099 -0.371079 0.548903 -0.229351 -0.116184 -0.077975 0.49608 -0.021267 0.035636 0.159395 -0.302999 -0.781561 0.759139 -0.145979 0.305049 -0.379402 -0.295964 0.322282 0.108021 -0.052391 -0.054827 -0.057552 0.073261 -0.10854 0.00652 1.171451 0.426951 -0.217774 -0.033506 0.169165 -0.868691 0.243356 0.348899 0.387899 0.059684 0.169734 0.148322 -0.052589 -0.22941 0.063824 0.077109 -0.311243 0.426373 0.545093 -0.260163 -0.206871 0.165569 0.404281 -0.504491 -0.209776
. -0.404011 -0.236007 0.461829 -0.089767 0.032507 -0.210703 0.380687 -0.186173 -0.259122 0.321891 -0.241119 -0.44032 0.763967 -0.186031 -0.020062 0.017312 -0.358873 -0.064259 -0.116736 0.359559 0.384799 0.201338 -0.087722 -0.329041 0.185488 0.869146 0.706775 -0.129741 0.180886 0.001363 -0.974708 0.185331 0.095489 0.48446 0.081439 -0.183131 0.034071 -0.110032 0.061364 -0.170975 0.258012 -0.318539 0.387604 0.253035 -0.263921 -0.159025 0.38545 0.158245 0.199897 -0.113478
o -0.088223 -0.27941 -0.087442 -0.045354 -0.212633 -0.062646 0.319716 0.188642 0.070748 0.210197 0.076388 0.038177 0.294648 0.085231 -0.229799 -0.085596 -0.043012 0.088968 0.357404 0.132155 -0.141023 -0.127697 -0.124645 0.096713 0.128738 0.598508 0.128248 0.086573 0.014826 0.039704 -0.803395 -0.090305 0.204346 0.109007 -0.054378 0.103472 -0.03503 -0.027419 -0.090085 0.121829 0.132244 -0.184751 -0.107345 0.097964 0.015468 -0.139785 0.197292 0.119088 0.001832 0.034961
f -0.108064 -0.303379 -0.064419 -0.098337 -0.194555 -0.032507 0.301291 0.153097 0.092022 0.183447 0.080169 0.062283 0.235455 0.128534 -0.21675 -0.07078 -0.036618 0.081922 0.32558 0.088467 -0.120742 -0.109957 -0.096504 0.078909 0.115319 0.575484 0.126286 0.084219 0.034249 0.070447 -0.751843 -0.04714 0.200202 0.127056 -0.064903 0.12119 -0.006366 -0.023658 -0.124778 0.089046 0.154071 -0.202983 -0.127119 0.142786 0.008787 -0.166179 0.202022 0.147558 -0.02011 0.045537
a -0.101148 -0.310647 -0.096601 -0.00876 -0.210423 -0.108728 0.348707 0.223768 0.075731 0.180925 0.101738 0.029495 0.301712 0.032059 -0.25491 -0.063117 -0.044564 0.109051 0.401508 0.223067 -0.166936 -0.116074 -0.099653 0.11578 0.15472 0.594764 0.129492 0.073771 -0.058611 0.034083 -0.863447 -0.097165 0.213651 0.164478 -0.036425 0.092484 -0.046368 -0.0343 -0.086418 0.182126 0.103718 -0.143234 -0.131128 0.026621 0.00886 -0.148526 0.152231 0.092758 0.036486 0.006396
n -0.099768 -0.299781 -0.104708 -0.057463 -0.209187 -0.03765 0.329843 0.20698 0.084108 0.185787 0.076846 0.029826 0.273323 0.053856 -0.243987 -0.074851 -0.03387 0.076728 0.36846 0.152157 -0.119472 -0.116813 -0.114533 0.08847 0.154342 0.560275 0.123977 0.070594 -0.008993 0.050012 -0.788548 -0.067385 0.221868 0.10196 -0.056951 0.096693 -0.051873 -0.016782 -0.111863 0.139557 0.108446 -0.172898 -0.123764 0.086084 0.006197 -0.152575 0.184012 0.120384 -0.000603 0.008223
d -0.091431 -0.342626 -0.057256 -0.106993 -0.182229 -0.042608 0.279579 0.190088 0.08033 0.172429 0.066355 0.031734 0.253571 0.081392 -0.222558 -0.040162 -0.047129 0.083797 0.362572 0.1335 -0.134417 -0.093798 -0.071485 0.098556 0.143374 0.542666 0.126714 0.109847 0.021485 0.056489 -0.749488 -0.0786 0.230936 0.123016 -0.030344 0.127943 -0.017072 -0.004871 -0.133922 0.098497 0.109953 -0.180469 -0.139471 0.127215 -0.001248 -0.14976 0.157982 0.099026 -0.001643 -0.012931
i -0.081205 -0.312446 -0.108249 -0.063865 -0.199013 -0.039056 0.368699 0.184825 0.073101 0.223186 0.096261 0.0463 0.282113 0.082216 -0.231042 -0.08776 -0.054083 0.082958 0.398073 0.14761 -0.147656 -0.119478 -0.100834 0.087866 0.158877 0.57201 0.103894 0.068065 0.009621 0.064672 -0.776148 -0.066098 0.208372 0.105228 -0.07012 0.110477 -0.053774 -0.016736 -0.125848 0.148106 0.107112 -0.180589 -0.108395 0.111557 0.023068 -0.16429 0.182445 0.143128 0.016817 0.007189
" 0.25769 0.45629 -0.76974 -0.37679 0.59272 -0.063527 0.20545 -0.57385 -0.29009 -0.13662 0.32728 1.4719 -0.73681 -0.12036 0.71354 -0.46098 0.65248 0.48887 -0.51558 0.039951 -0.34307 -0.014087 0.86488 0.3546 0.7999 -1.4995 -1.8153 0.41128 0.23921 -0.43139 3.6623 -0.79834 -0.54538 0.16943 -0.82017 -0.3461 0.69495 -1.2256 -0.17992 -0.057474 0.030498 -0.39543 -0.38515 -1.0002 0.087599 -0.31009 -0.34677 -0.31438 0.75004 0.97065
' -0.1118 -0.250045 -0.251761 -0.180172 -0.398778 -0.364813 0.315172 0.223211 -0.013433 0.192519 0.074371 0.177778 0.068616 -0.031904 -0.113882 -0.236933 -0.040732 0.039675 0.266024 0.157816 -0.20291 -0.081413 -0.021345 0.151507 0.045668 0.722314 -0.077333 0.115574 -0.063908 0.0983 -1.008973 0.020228 0.000116 0.29055 -0.124542 -0.033643 -0.008945 -0.093124 0.020584 0.156526 0.185972 -0.235367 -0.069181 -0.115325 -0.103729 -0.159209 0.185351 -0.026034 0.206835 0.138477
s -0.082814 -0.297992 -0.069064 -0.114364 -0.223961 -0.039493 0.31344 0.179442 0.042612 0.18504 0.07005 0.060104 0.286238 0.110188 -0.225456 -0.068088 -0.030985 0.061916 0.355828 0.099704 -0.134518 -0.127445 -0.055915 0.102925 0.132356 0.582611 0.060876 0.061323 0.025242 0.018336 -0.755102 -0.009448 0.224308 0.1121 -0.047056 0.120027 -0.053128 -0.046464 -0.129791 0.133039 0.098726 -0.208233 -0.073669 0.165399 0.031518 -0.136238 0.179959 0.139799 -0.03693 -0.024538
r -0.089266 -0.305236 -0.08228 -0.083354 -0.204667 -0.037057 0.301281 0.191565 0.079312 0.175108 0.077731 0.047262 0.254562 0.071458 -0.229721 -0.07545 -0.025794 0.081955 0.347356 0.129245 -0.131256 -0.119783 -0.122116 0.099827 0.132939 0.575416 0.115422 0.075158 0.002701 0.052069 -0.802714 -0.086199 0.216004 0.124045 -0.043697 0.103656 -0.032419 -0.015904 -0.092634 0.120051 0.138036 -0.170905 -0.121304 0.087452 0.001449 -0.142958 0.190875 0.104483 -0.015073 0.032573
- -0.254758 -0.246381 -0.047705 -0.138548 -0.260296 0.015244 0.312716 0.228626 0.160026 0.23339 -0.084594 -0.272702 0.416852 0.441778 -0.350473 -0.283851 -0.170426 0.036615 0.192248 0.199943 -0.059767 -0.223769 -0.247624 0.114218 0.047618 0.729276 0.225187 0.006915 0.175921 0.260036 -0.712564 -0.02064 0.097638 0.251847 0.017143 0.248398 0.054049 0.003061 -0.348988 -0.115118 0.147826 -0.468236 -0.147211 0.305095 -0.132602 -0.134547 0.424379 0.311747 0.006721 -0.059231
w -0.208893 -0.220594 -0.022987 -0.036526 -0.23657 -0.120456 0.227247 0.161124 0.147423 0.072952 -0.045588 0.032421 0.259116 0.044489 -0.265673 0.022838 0.000838 0.096248 0.314685 0.157095 -0.047394 -0.066047 -0.116581 0.14804 0.161517 0.564684 0.132459 0.093184 0.006925 0.008744 -0.860838 -0.047403 0.276822 0.129525 -0.040558 0.069956 -0.042339 -0.080309 -0.08826 0.084162 0.136738 -0.183583 -0.120775 0.110808 0.04429 -0.041825 0.219535 0.102545 -0.025784 0.077242
b -0.124808 -0.308925 -0.062367 -0.056321 -0.206135 -0.069617 0.298989 0.192369 0.081564 0.160354 0.068767 0.032902 0.255753 0.047949 -0.239851 -0.032525 -0.006009 0.091885 0.362275 0.162026 -0.135157 -0.107507 -0.096886 0.111401 0.116658 0.592093 0.13648 0.101077 -0.02798 0.026425 -0.870542 -0.091612 0.237621 0.161336 -0.029009 0.0944 -0.033881 -0.024031 -0.06265 0.14121 0.134228 -0.143244 -0.129669 0.061567 0.018582 -0.128144 0.168544 0.093737 -0.006683 0.024481
y -0.128188 -0.273865 -0.086344 -0.065877 -0.169548 -0.027959 0.319338 0.205172 0.093312 0.19473 0.049212 0.053317 0.278314 0.072299 -0.247118 -0.013199 -0.045801 0.085973 0.401257 0.17704 -0.134134 -0.080193 -0.091398 0.081407 0.190304 0.536932 0.136679 0.10564 0.010727 0.044986 -0.828384 -0.108043 0.270859 0.124243 -0.010382 0.093877 -0.041229 0.01057 -0.124334 0.122294 0.092502 -0.151974 -0.154202 0.102377 0.04959 -0.148806 0.185792 0.087359 -0.027177 0.048709
( -0.491096 0.557207 0.297042 0.229891 -0.291354 -0.531844 0.153553 0.219638 -0.574071 0.018897 -1.029078 0.168175 1.250084 -0.339428 -0.42204 -0.166651 -0.645059 -0.778046 0.500099 -0.103054 0.22774 0.189774 -0.180215 0.686963 0.505629 0.510802 0.43939 -0.225719 1.007367 -0.62803 -0.735513 0.042779 -0.006372 -0.488137 -0.104472 -0.388362 0.206804 -0.679261 0.486821 0.473368 0.825145 0.036338 0.722306 0.793547 0.238785 0.752483 0.33613 0.113826 0.586028 0.907949
) -0.498963 0.565395 0.277349 0.227416 -0.295742 -0.515009 0.152527 0.225042 -0.587267 0.012287 -1.012573 0.166346 1.250075 -0.33763 -0.419569 -0.162668 -0.656994 -0.780009 0.499101 -0.093021 0.199666 0.17222 -0.187811 0.681422 0.503989 0.502949 0.433967 -0.211711 1.014554 -0.625678 -0.723189 0.043127 0.002593 -0.485804 -0.106208 -0.383844 0.201628 -0.678295 0.477891 0.476542 0.813446 0.033973 0.715497 0.803432 0.223928 0.73296 0.341887 0.129468 0.579395 0.898277
m -0.107237 -0.289389 -0.05999 -0.040972 -0.203466 -0.076245 0.345838 0.173663 0.091691 0.186985 0.083176 0.038865 0.270626 0.067975 -0.23013 -0.049816 -0.038865 0.098471 0.365486 0.172796 -0.136336 -0.112232 -0.096964 0.097854 0.144916 0.602614 0.12681 0.060547 -0.032933 0.056804 -0.831857 -0.095891 0.201833 0.146911 -0.054068 0.091686 -0.013775 -0.041402 -0.095629 0.136812 0.136095 -0.177209 -0.13903 0.088698 0.016277 -0.140596 0.192403 0.117944 -0.005663 0.029772
` -0.235719 -0.095018 -0.225613 -0.332642 0.207288 -0.249565 0.1832 -0.013864 -0.031139 0.390936 -0.211188 0.646132 -0.186218 0.027416 0.727018 0.185288 0.291614 0.495524 0.137981 -0.142746 -0.32492 0.400283 0.225809 0.123244 0.572454 -1.312858 -1.222669 0.29709 0.644732 -0.862912 1.394848 0.177473 -0.332738 0.029175 -0.44015 -0.271666 0.145604 -0.583416 0.333789 -0.274448 -0.369498 -0.05675 -0.008037 0.238519 -0.159835 -0.053542 0.151526 0.116242 -0.154524 0.909714
v -0.100712 -0.290925 -0.044342 -0.04314 -0.231766 -0.053839 0.36203 0.245945 0.009351 0.210768 0.1376 0.018073 0.267546 0.081761 -0.218991 -0.085709 -0.071213 0.086244 0.401368 0.177689 -0.162732 -0.125514 -0.117481 0.103299 0.149505 0.587225 0.157382 0.08127 0.009701 0.051551 -0.834507 -0.062294 0.205545 0.100885 -0.09163 0.094761 -0.028769 0.031423 -0.090649 0.152648 0.169845 -0.155488 -0.071386 0.005395 -0.049836 -0.115801 0.153708 0.130724 -0.002099 0.041915
u -0.096724 -0.313756 -0.086795 -0.068944 -0.214699 -0.091863 0.367664 0.218204 0.067057 0.193604 0.072509 0.031485 0.299539 0.053263 -0.240255 -0.085377 -0.035751 0.103101 0.376981 0.175942 -0.160317 -0.131854 -0.089827 0.089563 0.163329 0.577358 0.109132 0.093237 -0.008197 0.046746 -0.824507 -0.07305 0.212001 0.166257 -0.056248 0.10007 -0.042284 -0.025137 -0.107979 0.15178 0.104958 -0.16381 -0.109412 0.06532 0.010805 -0.160886 0.170881 0.110655 0.026806 0.012117
c -0.061809 -0.288133 -0.102524 -0.046893 -0.215328 -0.040382 0.338105 0.148584 0.085361 0.196224 0.085338 0.065956 0.288495 0.09366 -0.227063 -0.084169 -0.058617 0.088698 0.35108 0.082116 -0.137078 -0.146346 -0.102882 0.107005 0.110934 0.590688 0.099572 0.074345 0.012052 0.052351 -0.720695 -0.091782 0.192674 0.068175 -0.07947 0.102927 -0.038484 -0.041222 -0.099654 0.088849 0.15336 -0.219973 -0.098984 0.154095 -0.003236 -0.121211 0.214666 0.136156 -0.007757 0.040086
l -0.092003 -0.296817 -0.097203 -0.080795 -0.201102 -0.020964 0.303225 0.189652 0.072742 0.187261 0.066396 0.046942 0.26793 0.057868 -0.238844 -0.05796 -0.015208 0.080043 0.354996 0.117972 -0.14764 -0.109846 -0.102728 0.098696 0.14347 0.588787 0.138498 0.113868 0.012431 0.038335 -0.825023 -0.101437 0.235758 0.115211 -0.032826 0.094328 -0.041 0.003565 -0.093881 0.116283 0.136328 -0.164166 -0.126362 0.093214 0.012878 -0.139756 0.196674 0.084937 -0.019499 0.036037
: -0.294668 0.252489 0.205257 0.181927 0.021469 -0.660424 0.672419 0.345039 -0.54242 -0.219293 -0.54084 -0.303069 0.076663 0.522831 -0.065089 -0.182098 -0.237447 -0.148253 -0.278719 0.348291 0.182634 0.129211 0.154624 0.530695 0.30352 1.167778 0.505702 -0.187532 0.349645 0.390822 -0.555527 0.20379 0.111797 0.241903 -0.45782 0.087149 0.04637 -0.198365 0.682889 0.276003 0.629873 -0.515141 0.047353 0.675345 -0.084548 0.621955 0.980701 0.348789 0.155159 0.264305
p -0.061634 -0.299121 -0.090071 -0.068939 -0.216287 -0.035892 0.363893 0.13766 0.092629 0.216749 0.075054 0.048447 0.329545 0.125055 -0.226585 -0.078585 -0.06738 0.113311 0.351672 0.094053 -0.139653 -0.168359 -0.077809 0.114904 0.128273 0.579022 0.066534 0.094019 0.035459 0.042568 -0.68374 -0.057872 0.173581 0.118341 -0.075631 0.131218 -0.025805 -0.057207 -0.136289 0.062205 0.130225 -0.242669 -0.115927 0.181171 -0.00259 -0.131952 0.230146 0.157707 0.014509 -0.003727
g -0.109522 -0.314951 -0.099952 -0.062892 -0.218413 -0.055946 0.326179 0.202708 0.089785 0.173226 0.049753 0.026146 0.2548 0.055227 -0.240083 -0.075452 -0.038123 0.098048 0.358813 0.136595 -0.095298 -0.110907 -0.10358 0.084358 0.174826 0.54051 0.121324 0.086714 -0.003341 0.019541 -0.781448 -0.039916 0.231422 0.116464 -0.062257 0.116818 -0.069908 -0.004336 -0.107968 0.13258 0.091186 -0.17483 -0.125367 0.094696 0.033352 -0.159001 0.210667 0.103331 0.008803 -0.01215
$ 0.026389 0.142971 0.920142 -0.224127 0.012166 0.028026 0.750109 -0.150404 0.155751 0.42173 -0.405795 -0.612926 1.074619 -0.759602 0.580064 -0.516543 0.028211 0.650669 -0.531542 0.202946 0.719294 -0.49239 -0.041341 -0.429039 -0.038019 0.848989 0.788909 -0.279986 -0.072957 0.251335 -0.416758 0.444645 0.415163 0.757146 -0.135098 -0.043708 0.427887 0.227734 -0.212434 -0.599488 0.509365 -0.445564 0.51249 0.315655 -0.835385 -0.379961 -0.155279 0.313184 -0.099803 0.074648
; -0.425045 0.060311 0.495415 0.186726 -0.214771 -0.162783 0.337138 -0.116972 0.25608 0.019598 -0.375135 0.191144 0.058844 -0.15446 0.068207 0.027418 -0.201074 0.00418 0.183435 -0.155888 0.348989 0.138496 0.109354 0.025591 -0.200501 0.626738 -0.126469 -0.379649 0.215292 0.105073 -0.285258 0.137839 0.149418 0.398077 -0.009443 -0.042816 0.094262 -0.612434 0.301569 -0.571007 0.332938 -0.623074 0.180029 0.541542 0.017266 0.193246 0.442542 0.053809 -0.057713 0.253165
_ -0.305418 0.540762 0.219758 0.241727 0.125014 -0.595234 0.416164 0.12968 0.18806 -0.126537 -0.416415 0.353071 0.175748 0.099187 0.287197 0.084693 -0.089416 -0.263297 0.461547 -0.079126 0.004342 -0.20905 0.029782 0.676556 0.206836 0.382833 -0.365051 0.015912 0.364221 -0.073262 -0.62905 0.253058 -0.209937 -0.033002 -0.208384 0.190361 0.146647 -0.33885 -0.15866 -0.277486 0.598887 -0.075773 -0.073082 0.376854 -0.233237 0.560777 0.51974 0.466234 0.397657 0.268474
k -0.229958 -0.313022 0.001217 0.002508 -0.19059 -0.074747 0.307048 0.258037 0.046899 0.101618 0.086808 0.01712 0.241393 0.059722 -0.241164 0.003726 0.004119 0.093705 0.392896 0.247729 -0.107677 -0.103192 -0.117328 0.087122 0.191333 0.599745 0.200489 0.077457 -0.064217 -0.015285 -1.004338 -0.08462 0.299202 0.212214 -0.059224 0.094845 -0.032958 -0.00276 -0.044391 0.21069 0.125842 -0.082231 -0.14904 -0.045301 0.048165 -0.136421 0.162539 0.108673 -0.041165 0.050289
j -0.234488 -0.307411 -0.014131 0.042696 -0.221855 -0.18531 0.375402 0.26024 0.042469 0.149525 0.123769 0.013426 0.234257 0.007391 -0.233471 -0.042897 -0.054685 0.074909 0.46071 0.302799 -0.192887 -0.078978 -0.061285 0.117423 0.169446 0.615588 0.196842 0.013268 -0.13755 0.022965 -0.985973 -0.083306 0.217881 0.25097 -0.039363 0.07337 -0.020515 -0.009358 -0.04543 0.259261 0.125717 -0.057839 -0.130429 -0.08574 0.044313 -0.153628 0.126383 0.065563 0.046442 0.033469
1 -0.252868 -0.2828 0.313191 -0.228196 -0.238158 -0.225785 0.39519 0.027223 -0.268598 0.196731 -0.276335 -0.502617 0.579088 -0.029979 -0.029759 -0.148866 -0.396395 -0.022854 -0.170429 0.3672 0.183767 -0.022875 -0.023058 -0.170886 0.138108 0.869379 0.559376 -0.135864 0.128508 0.145141 -0.820711 0.155132 0.13136 0.419679 0.033242 -0.009567 0.103245 -0.044124 -0.064622 -0.061987 0.173545 -0.395678 0.220864 0.332504 -0.289175 -0.00467 0.451677 0.170848 -0.057859 -0.193091
x -0.074208 -0.248235 -0.016217 0.050043 -0.260158 -0.063869 0.390495 0.098936 0.130032 0.281851 0.133884 0.065604 0.319146 0.101169 -0.230495 -0.064195 -0.167878 0.154062 0.341301 0.088725 -0.103333 -0.192978 -0.090392 0.117242 0.092052 0.587346 0.036419 0.065679 0.066982 0.017277 -0.718841 -0.063628 0.178832 0.10534 -0.06236 0.073652 -0.02155 -0.096737 -0.172585 0.047105 0.189298 -0.292029 -0.067738 0.139356 0.020046 -0.104266 0.233579 0.126885 0.010464 0.033509
? -0.307058 -0.124093 0.114911 -0.391433 -0.202867 -0.065373 0.459076 0.115101 -0.11748 0.279003 -0.362318 0.320213 0.407989 0.224565 0.557824 -0.168228 -0.095152 0.188259 0.357196 0.443917 -0.529286 -0.446212 0.476498 0.236152 0.326038 0.388764 -0.206387 0.150353 1.013484 -0.303876 -1.040015 0.362709 -0.432283 0.554301 -0.308529 0.030697 0.148805 0.171872 0.385039 -0.098204 -0.066249 -0.535371 0.159669 0.388267 -0.232736 0.191095 0.332374 0.155645 0.285411 0.774867
0 -0.139788 -0.213257 0.419114 -0.204042 -0.175271 -0.242984 0.41103 0.023387 -0.114248 0.187469 -0.26121 -0.60991 0.635588 -0.016797 0.10031 -0.150789 -0.304434 0.145123 -0.062829 0.127075 0.093413 -0.076132 -0.118948 -0.119647 0.055581 0.88912 0.496985 -0.099439 0.087677 0.203511 -0.750288 0.178591 0.117314 0.526229 0.001168 0.010197 0.05264 -0.074114 -0.135885 -0.148392 0.21144 -0.342373 0.23226 0.387855 -0.252779 -0.155939 0.448827 0.265642 -0.282765 -0.161514
2 -0.247471 -0.273847 0.412594 -0.134487 -0.1282 -0.176189 0.434881 -0.025046 -0.138697 0.22786 -0.292286 -0.534126 0.612015 -0.026714 -0.01298 -0.139756 -0.339059 -0.027685 -0.105956 0.295954 0.147786 -0.017956 -0.013869 -0.167833 0.127592 0.948284 0.583223 -0.163949 0.145768 0.138979 -0.839428 0.20066 0.123147 0.477591 0.080167 -0.026497 0.107584 -0.046425 -0.055014 -0.103555 0.177106 -0.39282 0.262631 0.346636 -0.297617 2.4e-05 0.418883 0.189755 -0.014698 -0.152633
q -0.102063 -0.250122 -0.080641 -0.006715 -0.250415 -0.242129 0.375218 0.189671 0.126711 0.211733 0.052893 -0.024794 0.28331 0.068414 -0.282635 -0.125984 -0.073069 0.079051 0.381546 0.192722 -0.214353 -0.135394 -0.059061 0.110712 0.065295 0.588144 0.059839 0.096883 -0.014436 0.079196 -0.764636 -0.077936 0.140292 0.242984 -0.034411 0.073654 -0.043004 -0.014178 -0.089355 0.191506 0.141925 -0.185999 -0.082198 0.115299 0.001582 -0.205667 0.168167 0.099163 0.102777 0.002973
% -0.9208 0.60392 1.1053 -0.39188 1.0204 2.1945 -0.49508 -1.9547 -1.0751 0.1454 1.2495 -1.4208 1.894 -1.3024 -0.1751 0.33084 -0.17029 0.169 -0.87306 0.22944 0.027846 0.33347 1.2866 0.23098 -0.12257 0.38349 0.24163 -0.67453 0.08332 0.76547 3.2612 0.62834 -0.016612 -0.12178 0.85848 -1.1687 -0.10173 0.070155 0.99368 0.029438 -0.065403 -0.50471 1.1739 -0.28263 -1.381 -0.43341 -0.58927 -0.19344 1.6497 -0.10516
/ -0.461209 0.165138 0.227582 0.069606 -0.319625 -0.41759 0.398022 -0.083401 0.112004 0.007251 -0.324566 0.085196 0.289638 0.26505 0.099555 -0.222477 -0.048535 -0.003577 0.140578 0.138947 -0.024303 -0.143308 0.065811 0.38923 0.117862 0.911258 -0.038058 -0.096211 0.223332 0.23874 -0.768295 0.12012 0.049021 0.220016 -0.103708 0.087678 0.102077 -0.280359 -0.122592 -0.286236 0.295113 -0.443251 0.317762 0.136132 -0.124561 0.404494 0.542454 0.512592 0.280193 0.396227
3 -0.255399 -0.307133 0.433782 -0.131038 -0.057713 -0.153849 0.435699 0.011317 -0.156703 0.260976 -0.291331 -0.557842 0.641165 -0.039991 -0.038496 -0.167751 -0.365618 -0.063578 -0.097696 0.277231 0.147177 0.017019 -0.027961 -0.194579 0.124261 0.962938 0.608374 -0.18089 0.183302 0.119952 -0.876607 0.217283 0.134897 0.470715 0.084661 -0.040016 0.086136 -0.035077 -0.026717 -0.097499 0.202602 -0.392163 0.282135 0.366254 -0.288078 -0.006747 0.392438 0.187011 0.002559 -0.156733
5 -0.250893 -0.261232 0.417105 -0.173705 -0.028985 -0.150796 0.463117 0.039616 -0.144915 0.263897 -0.302035 -0.599819 0.684162 -0.045818 -0.025248 -0.144092 -0.335536 -0.035408 -0.114463 0.272432 0.223262 0.036615 -0.045828 -0.196483 0.106546 0.925054 0.650541 -0.156306 0.146881 0.133878 -0.869859 0.201634 0.07951 0.518018 0.076533 -0.088019 0.079051 -0.018247 -0.01304 -0.147314 0.229106 -0.381003 0.269385 0.33849 -0.300929 -0.062031 0.430861 0.176173 -0.033477 -0.149351
4 -0.271857 -0.309262 0.417378 -0.142024 -0.05934 -0.146146 0.441755 0.035869 -0.169185 0.261271 -0.282833 -0.580828 0.655184 -0.029569 -0.043919 -0.173678 -0.359673 -0.070695 -0.107938 0.283909 0.168886 0.018977 -0.040161 -0.195266 0.143247 0.955463 0.614527 -0.174322 0.176841 0.112041 -0.888411 0.210716 0.119101 0.46585 0.051534 -0.047026 0.073206 -0.019763 -0.007526 -0.105635 0.212708 -0.402734 0.276529 0.348428 -0.28247 -0.022517 0.418746 0.168517 0.007614 -0.164719
8 -0.312309 -0.269684 0.404364 -0.192672 -0.121496 -0.174211 0.405702 0.034262 -0.260915 0.258938 -0.277007 -0.543257 0.71918 -0.079891 -0.044504 -0.136003 -0.392471 -0.022506 -0.144656 0.333858 0.205256 0.051441 -0.021089 -0.265623 0.154856 0.903429 0.64291 -0.138268 0.171913 0.130815 -0.901876 0.173654 0.128826 0.405372 0.070862 -0.042515 0.101224 -0.050941 -0.038774 -0.120254 0.191686 -0.38368 0.266557 0.330657 -0.293648 -0.065122 0.368226 0.187047 4.3e-05 -0.179592
6 -0.296907 -0.304524 0.436639 -0.164128 -0.072123 -0.15441 0.41973 0.014803 -0.197464 0.247847 -0.302512 -0.566711 0.702753 -0.055902 -0.041803 -0.146948 -0.372275 -0.043889 -0.101504 0.305243 0.191102 0.036428 -0.029265 -0.244113 0.158092 0.939208 0.65352 -0.163468 0.184421 0.113656 -0.912374 0.176553 0.09058 0.470773 0.089315 -0.053991 0.071861 -0.028305 -0.031573 -0.122459 0.188643 -0.397085 0.296204 0.32322 -0.310902 -0.035665 0.398262 0.167347 0.000791 -0.171886
7 -0.303468 -0.303228 0.429508 -0.152252 -0.070804 -0.152324 0.404278 0.026065 -0.18322 0.244253 -0.298434 -0.556329 0.710536 -0.057154 -0.055978 -0.141358 -0.384932 -0.042308 -0.129459 0.315311 0.207225 0.049727 -0.027575 -0.261785 0.138939 0.902041 0.666215 -0.158441 0.189086 0.097976 -0.918495 0.180697 0.098479 0.46027 0.09093 -0.076981 0.076703 -0.04302 -0.041013 -0.121426 0.184249 -0.385155 0.30384 0.311619 -0.296735 -0.028729 0.369173 0.173898 -0.017095 -0.156396
9 -0.375817 -0.301523 0.275594 -0.242097 -0.220167 -0.140354 0.377703 -0.029455 -0.326442 0.177862 -0.218437 -0.459087 0.691197 -0.089983 0.02485 -0.131482 -0.439329 0.007876 -0.123028 0.380468 0.163173 0.021116 0.034927 -0.262824 0.127029 0.890602 0.576011 -0.118298 0.181522 0.179062 -0.888613 0.179588 0.080223 0.399979 0.03897 0.013285 0.05682 -0.079523 -0.01819 -0.094489 0.117095 -0.351955 0.230691 0.285938 -0.369763 -0.067628 0.393357 0.155368 -0.023044 -0.195454
& -0.423849 -0.436683 0.130022 0.080904 -0.702191 -0.166636 0.093434 0.031654 0.08852 -0.126575 0.319398 0.188306 0.079274 0.117225 -0.610834 -0.047647 -0.30923 0.302941 0.258914 0.20407 0.171496 -0.4421 -0.353755 0.268191 -0.157889 0.723561 -0.004198 -0.150987 -0.145558 -0.103621 -0.764623 -0.113055 0.295165 0.361445 -0.219971 0.083146 0.045758 -0.361347 -0.219041 0.01719 0.49168 -0.727616 -0.109254 0.204109 -0.352763 -0.038326 0.244812 0.141744 -0.091271 -0.19062
z -0.148872 -0.341666 0.003254 0.007104 -0.168478 -0.105781 0.372134 0.240962 0.045054 0.196132 0.12222 0.016344 0.22243 0.01909 -0.188691 -0.072907 -0.028635 0.049961 0.489481 0.235141 -0.1963 -0.12263 -0.093582 0.073885 0.171989 0.614878 0.214229 0.056676 -0.053086 0.035175 -1.007542 -0.097902 0.245759 0.158564 -0.115176 0.072997 -0.077123 0.073262 -0.030215 0.267512 0.137685 -0.031069 -0.110975 -0.075261 0.049239 -0.157805 0.116814 0.083233 -0.009083 0.087894
! -0.288867 -0.138451 0.669311 -0.566531 0.036919 -0.557273 0.803617 -0.189258 -0.092754 0.647984 -0.21383 0.162766 0.233453 0.245408 0.418972 -0.129844 0.561978 0.98265 0.020891 0.226826 -0.293633 0.122063 0.313434 0.039992 1.020038 0.567297 -0.835363 0.405377 0.912307 -0.695655 -0.643863 0.445759 -0.400017 0.844098 -0.677297 0.167536 0.664248 -0.334673 0.243423 0.005588 0.344779 -0.655599 0.04916 -0.183792 -0.20416 0.016756 0.266737 0.31032 0.355164 0.716955
= -1.046077 0.893568 0.626006 0.569726 0.089121 -0.023327 0.986317 -0.122988 -0.103374 0.274914 0.11042 0.386355 0.089393 -0.00887 -0.014415 -0.452883 0.280485 -0.491126 -0.142467 0.169683 -0.818458 -0.411302 0.623195 0.392227 -0.056223 1.377403 0.488404 -0.327168 0.295602 0.388602 0.130965 0.039928 0.140003 0.799043 -0.322267 -0.166003 0.701468 -1.113372 -0.060533 -0.085687 0.927157 -0.573841 -0.120346 0.110264 -0.012272 -0.085549 0.243647 0.158163 0.5236 0.610966
# -1.156523 0.468472 0.126834 0.004703 0.11165 -0.514837 0.737177 0.005907 -0.326863 -0.187253 -0.45302 -0.119612 0.287266 0.659637 -0.261708 -0.202325 -0.129576 -0.477708 0.351709 -0.126588 -0.036334 -0.016596 -0.021337 0.443086 0.059312 1.082902 -0.474201 0.217193 0.80316 0.30093 -0.35379 -0.15691 0.290872 0.298942 -0.228266 0.252988 0.419955 -0.611341 -0.157689 -0.161864 0.457893 -0.457099 0.378355 0.034777 0.061506 0.45062 0.700257 0.324008 0.485935 0.530857
[ -0.07495 0.517351 0.694745 -0.249504 -0.234445 -0.355212 -0.06741 -0.09344 0.080035 0.036505 -0.408726 0.333718 0.274426 -0.05878 0.195635 -0.139475 -0.367475 -0.25261 0.15149 0.11424 0.202895 -0.349885 0.649465 0.461785 0.06979 -0.34454 -0.550455 -0.215861 0.187255 -0.345285 0.7163 -0.02995 -0.39849 -0.395805 -0.378345 -0.01646 0.56437 -0.591485 -0.11408 -0.351384 0.824595 -0.511295 -0.36668 0.382381 -0.27339 0.03583 0.108724 0.477235 0.270785 0.344405
+ -0.520338 0.063866 0.351631 0.082997 -0.217211 -0.124785 0.85952 -0.070244 0.033447 0.298085 0.004664 -0.068253 0.849799 0.104204 -0.255102 -0.028108 -0.095817 0.165899 0.060399 0.05217 0.06344 0.011863 0.393361 0.334129 0.21802 1.10829 0.280401 -0.184957 0.166401 0.426245 -0.803511 0.286891 -0.079581 0.467473 -0.006976 -0.261392 0.081917 -0.368952 0.009117 -0.090246 0.473791 -0.377377 0.30275 0.081049 -0.147884 0.316557 0.429692 0.207036 0.30429 0.345033
¥ 0.015182 0.65179 1.6895 0.46621 0.32657 -0.29146 0.69582 0.37398 0.60936 -0.39214 -0.4618 -0.90272 -0.004857 0.67671 1.1132 0.21357 -0.11518 -0.21067 -0.4545 0.041155 0.03603 0.24813 -0.6373 0.29566 0.10202 -1.5187 0.61706 0.08847 -0.7741 0.94968 1.1029 0.42828 -0.79818 1.4567 -0.19584 -0.55698 0.13142 -1.8296 -0.046114 -1.3802 0.096969 0.48922 1.2677 -1.3455 1.0315 0.95083 0.236 0.95792 0.8518 -0.76228
£ 0.53705 1.0197 1.174 -1.0921 0.049495 0.25693 -0.085272 -0.18729 0.062262 -0.20096 -0.36011 0.11176 0.16978 -2.6672 1.4455 -0.3087 0.8255 0.93178 -1.3854 -0.25887 1.5166 -0.62899 -0.32708 -0.52397 -0.84399 0.22603 0.90185 -0.78406 -0.62775 0.82309 2.2318 0.071304 0.57285 0.67247 0.003882 0.52489 1.2698 0.063376 0.1593 -1.9124 1.6429 -0.82135 -0.13345 0.72465 -1.6228 -0.97813 -0.65833 -0.35846 -0.59843 -0.069146
| -1.81595 0.380525 0.894445 0.50398 0.767395 -0.352396 1.281895 -0.346899 -0.196695 -0.58559 0.072015 -0.222143 0.410215 -0.360825 0.03802 0.492205 -0.299124 0.301338 0.18047 1.14014 -0.24594 -0.682565 1.09057 1.32066 0.17804 0.43996 -1.19643 -0.384674 -0.198115 0.13783 0.27136 0.30751 0.574105 -0.149355 0.08118 0.33278 0.99317 -0.137494 0.52314 -0.03857 0.325295 -0.180094 -0.73626 0.253 -0.713228 1.1525 0.15087 0.317955 1.55495 0.67015
] -0.887498 0.664765 0.63891 -0.174147 -0.003229 -0.481434 0.35211 -0.057514 -0.346248 0.152399 0.033652 0.511759 0.543822 -0.300842 0.086471 -0.280888 -0.210018 -0.13283 0.489909 0.486402 -0.398548 -0.359883 0.985688 0.93632 0.467098 0.665858 -0.651006 -0.48132 0.482832 -0.34555 -0.215368 -0.236473 -0.166958 -0.560908 -0.696794 -0.014488 0.706344 -0.797924 -0.094294 -0.124468 1.115328 -1.22424 -0.316618 0.575921 0.022458 0.17492 0.23412 0.398394 0.358486 0.697956
~ -0.35974 0.94839 1.0537 -0.046985 0.41969 0.063421 1.3793 -0.94921 -0.3331 0.24266 0.31988 -0.25937 0.18134 -0.52812 0.5287 -0.083691 -0.14416 0.76036 -0.99198 0.017798 -0.13585 -0.24684 1.2516 0.18319 -0.14066 1.0662 -0.80727 -0.22267 0.38443 0.021641 1.4013 -0.24161 0.11391 0.90836 -0.13271 -1.0249 0.6464 -1.4115 0.85492 0.18411 0.070086 -0.76722 0.22164 -0.36053 -0.63142 0.18967 0.88215 -0.62171 -0.75066 0.84411
\ -0.56888 0.92558 0.72886 0.49299 0.018528 -0.99899 0.45897 0.53309 -0.69731 -0.13726 -0.65431 1.1011 -0.62995 -0.61862 -0.389 -0.59244 -0.67199 0.95106 0.065679 -0.20711 -1.3982 -0.020197 1.4834 0.078576 0.2963 0.26236 -0.60204 0.56499 0.81979 -0.68553 1.6077 -0.017203 0.11643 1.7121 0.55242 -0.4538 0.25179 -0.61592 1.6335 -0.29288 0.38008 -1.2285 -0.26997 0.4803 -0.50296 0.64868 0.83182 0.71013 -0.22866 1.4826
{ -0.42855 1.0551 0.60421 0.53086 1.0873 -0.27428 1.0124 -0.27053 -0.68565 -0.41064 -0.68583 -0.044923 -0.36873 -0.33098 0.27742 -0.77139 -0.55224 0.40432 -0.67443 0.14401 -0.84078 -0.39425 1.9806 0.25795 -0.76139 0.3231 0.14664 0.5108 1.2996 -0.16187 1.8992 0.013185 -0.35427 1.3383 0.062622 -0.33935 -0.084399 -0.055773 1.0741 -0.16327 0.71859 -0.9531 -0.081052 0.46512 -0.48189 0.72531 0.6216 -0.075322 -0.13569 0.6105
é -0.085646 -0.209595 -0.465004 -0.260318 -0.588042 -0.315118 0.483792 0.431352 -0.089704 0.237008 0.375085 0.205516 0.266645 -0.134075 -0.293867 -0.468401 -0.064741 0.13785 0.274835 0.070714 -0.165515 -0.204673 -0.04829 0.222479 0.067675 0.915873 -0.139956 0.09347 -0.119919 0.260866 -1.029152 -0.173614 -0.046102 0.077559 -0.218667 -0.023975 -0.013914 -0.041599 -0.060848 0.147861 0.391871 -0.456461 0.031991 -0.318592 -0.282819 -0.340047 0.154143 -0.1295 0.398341 0.066142
ã -0.096974 -0.467335 -0.224312 -0.141977 -0.758902 -0.976301 0.478755 0.399347 -0.239959 0.648056 0.488095 0.367998 0.547074 -0.288187 -0.231958 -0.372859 0.067943 0.276822 0.533667 0.06123 -0.659839 -0.419789 0.067996 0.497455 0.264793 0.965376 -0.06834 0.016638 -0.171557 -0.108053 -0.801118 -0.159664 -0.346413 -0.015678 -0.131262 -0.044615 -0.021514 -0.202946 0.261361 0.13944 0.078273 -0.360677 -0.125398 -0.24011 -0.391296 -0.27002 0.364826 -0.210129 0.687449 0.190101
½ -0.6298 1.2239 0.23829 -0.39465 0.48035 0.83564 0.54225 -0.37185 -0.69184 -0.30545 -0.77878 -0.33474 0.10866 -0.45169 0.63008 -1.0593 -0.073459 0.53997 -1.405 -0.072439 0.34175 -0.46206 2.0729 0.054483 -0.49936 0.51127 0.85818 0.84791 0.73218 0.14634 1.6965 -0.67264 0.003149 1.5047 0.18131 -0.17519 0.28345 0.45129 0.19718 -0.73298 1.2904 -0.86459 0.27856 -0.29509 -0.94247 0.35337 0.57222 -0.029329 -0.40351 0.002004
> -0.60885 1.0596 0.93257 0.47133 -0.22134 -0.001014 1.476 -0.8897 -0.84182 -0.18855 0.13302 0.61165 0.52111 -1.2008 0.010792 0.18241 0.059783 -0.006449 -0.57684 -0.078064 -0.78423 -1.2988 1.3044 0.9139 -0.12896 0.61352 -0.61954 -0.5856 0.21124 -0.15894 1.2726 0.55268 -0.13582 0.5202 0.63426 -0.13056 0.67863 -0.84515 1.0497 0.47853 0.83901 0.051798 0.071248 0.39189 -0.45218 0.44446 0.9738 0.028828 0.97097 0.59603
} -0.67074 0.69856 0.6963 0.64603 1.2521 -0.42427 1.2962 -0.54202 -0.6257 -0.16579 -0.33556 0.3589 -0.37966 -0.60904 -0.19598 -0.25519 -0.63929 0.13424 -0.32247 0.23696 -0.75892 -0.32055 1.8227 0.27236 -0.36709 0.4829 -0.47975 0.071622 0.90614 -0.20907 1.4331 -0.12763 -0.045574 1.1664 -0.11534 -0.90693 0.21285 -0.49289 0.62188 0.16538 0.79304 -1.2645 -0.15463 0.76799 -0.61665 0.67754 0.39161 0.080127 0.10094 0.92917
* -0.062495 0.456652 1.037445 0.694978 -0.444851 -0.630432 1.78262 0.438002 0.635777 -0.470373 -0.180918 0.206947 0.148619 0.913368 -0.353387 -0.135106 -0.443913 -0.007058 0.341172 0.377992 -0.871228 -0.188265 0.270334 0.226628 0.376431 0.367744 -0.377593 -0.200799 -0.051402 0.542485 -0.430645 0.193477 -0.21081 0.911052 -0.153917 -0.043471 0.76124 -1.143913 0.579975 -0.013923 0.153095 -0.116598 0.556863 -0.035465 0.106865 0.625347 0.902923 0.630182 0.547874 0.62311
ç -0.128434 -0.321305 -0.28666 -0.166961 -0.537868 -0.514826 0.592128 0.393723 -0.114264 0.334291 0.368003 0.062789 0.435723 -0.240089 -0.271593 -0.27594 -0.004002 0.229044 0.517793 0.232255 -0.280042 -0.273137 0.016451 0.402075 0.110826 0.87619 -0.05696 0.058666 -0.160552 0.156811 -0.962373 -0.121239 -0.16928 0.168798 -0.146167 0.014767 -0.024001 -0.012738 0.022125 0.197278 0.359517 -0.322193 -0.053457 -0.294384 -0.269233 -0.293075 0.140598 -0.044161 0.500055 0.071417
í -0.157047 -0.295178 -0.2088 0.019075 -0.543153 -0.470509 0.505644 0.518714 -0.187513 0.442889 0.421159 0.126105 0.481212 -0.143512 -0.203376 -0.416924 -0.13513 0.206075 0.519044 0.403998 -0.432504 -0.390616 0.055773 0.337207 0.162371 0.914322 0.073692 -0.019828 -0.086728 0.034368 -0.965907 -0.238715 -0.003142 -0.037822 -0.214939 0.060519 -0.113081 -0.0794 -0.016156 0.192651 0.162762 -0.30607 -0.151842 -0.337839 -0.406087 -0.278259 0.184081 -0.154692 0.278722 0.074126
@ -0.115733 0.658415 0.842839 -0.031728 -0.281909 -0.914118 -0.00889 0.340941 0.300847 -0.22662 -0.599069 0.311915 0.292656 0.172926 0.466531 0.353369 0.120673 -0.468465 0.183079 -0.159562 0.137194 0.077664 0.359048 0.478585 0.341575 0.44333 0.450803 -0.084048 0.209135 0.06033 -0.632413 0.028052 0.006189 -0.08905 -0.21864 -0.242857 0.464075 -0.146092 -0.168924 -0.51337 0.510591 -0.262551 0.375306 0.70435 -0.097652 0.144208 0.327895 0.313461 0.077619 0.562807
à -0.114729 -0.221541 -0.373413 -0.113757 -0.551332 -0.700159 0.744531 0.348338 -0.048502 0.256617 0.101585 0.104328 0.473965 -0.32788 -0.105075 -0.44463 -0.043031 0.40173 0.515577 0.497174 -0.383614 -0.550294 -0.009412 0.453225 0.333528 0.866063 -0.054479 0.096453 -0.16373 -0.066586 -0.950352 -0.145077 0.059634 0.433506 -0.324737 0.029695 0.069333 -0.042278 -0.077588 0.245478 0.2353 -0.436984 -0.132524 -0.117393 -0.17301 -0.353725 0.288974 -0.042354 0.387022 0.222941
ó -0.119999 -0.207227 -0.243764 0.202147 -0.134113 -0.175637 0.882351 0.507005 0.214492 0.212698 0.213023 -0.119782 0.499292 -0.374481 -0.430058 -0.198101 0.114226 0.197132 0.578336 0.314535 -0.253755 -0.301575 -0.027048 0.369597 0.094063 0.906745 0.276164 0.096507 -0.023854 0.058632 -0.854808 -0.349698 0.343898 -0.125306 -0.20909 -0.138717 -0.296543 -0.067757 0.033471 0.328536 0.144612 -0.231691 0.006424 -0.166094 -0.546514 -0.052929 0.175559 -0.147903 0.051012 0.135049
< -0.60292 1.1734 0.81599 0.086194 0.36068 -0.064082 1.4942 -1.1903 -1.1872 -0.54148 0.57654 0.60091 0.77565 -0.80284 0.001209 0.38546 -0.10898 0.51757 -0.81487 -0.02306 -1.1795 -0.9481 1.3664 0.96261 -0.028653 0.69662 -0.1773 -0.072403 0.83599 0.70704 1.1316 0.41566 -0.3806 1.2744 0.33244 -0.86378 0.40199 -1.0978 0.51057 0.63694 0.93841 -0.004206 0.30094 0.41878 -0.35986 -0.20247 0.77569 0.056714 0.88472 1.1363
á -0.179835 -0.336924 -0.177569 -0.009237 -0.492969 -0.224572 0.465829 0.463788 -0.28 0.313321 0.382124 0.118134 0.500411 -0.256461 -0.14414 -0.318705 -0.195214 0.211653 0.445849 0.389371 -0.339354 -0.4441 -0.036251 0.285446 0.260619 0.868279 0.100404 -0.132477 -0.131966 0.037235 -1.042474 -0.169205 0.012869 0.0044 -0.103888 0.140511 -0.012273 -0.0178 -0.023231 0.162196 0.152472 -0.292806 -0.255933 -0.25739 -0.331355 -0.240377 0.181249 -0.188711 0.325388 -0.003292
â -0.053942 -0.202251 -0.399883 -0.109234 -0.58216 -0.321028 0.727702 0.512784 0.099474 0.156767 0.222572 0.065829 0.538772 -0.224632 -0.346304 -0.321347 0.06976 0.339869 0.335457 0.463229 -0.230387 -0.528076 0.073226 0.330367 0.178324 0.75577 -0.059018 0.232602 -0.133572 0.001474 -0.981245 -0.227685 0.116669 0.368757 -0.213786 0.046305 -0.110827 -0.0695 0.083635 0.207235 0.213408 -0.421696 -0.018762 -0.232763 -0.286341 -0.358749 0.323271 -0.098872 0.346912 -0.055449
» -0.28999 1.1882 -0.70877 -0.076805 -0.85963 -0.16825 0.78607 -0.44288 -0.72475 0.39172 0.42088 0.43137 -0.19109 -0.072619 0.21799 -0.63516 0.31557 0.89674 -0.086219 0.63323 0.18551 -0.2541 0.66965 0.49759 0.059136 0.50555 -1.0717 0.049116 -0.020687 -0.18797 0.70324 -0.13416 -0.56024 0.20888 -1.0204 0.15849 0.44553 -0.099059 0.55487 0.33543 0.98759 -0.94516 0.13039 -0.81772 -0.38716 0.23584 0.097736 -0.00136 0.35093 0.20752
ü -0.103029 -0.348633 -0.158805 -0.326796 -0.289952 -0.066024 0.646946 0.381831 -0.136105 0.013744 0.350837 -0.016875 0.209518 -0.196575 -0.21621 -0.107113 -0.00906 0.283179 0.192275 0.56424 0.037731 -0.539167 -0.045262 0.32343 0.173962 0.67421 -0.055986 -0.059587 -0.136475 0.110256 -1.156137 -0.132946 0.234985 0.154025 -0.206482 0.054274 0.099769 0.056213 -0.111149 0.280631 0.276697 -0.467459 -0.22593 -0.208779 -0.098865 -0.270997 0.313537 0.009425 0.055917 0.036339
« -0.39432 1.1785 -0.66896 -0.083153 -0.72642 -0.12686 0.53708 -0.38604 -0.55363 0.54345 0.36036 0.5755 0.087011 0.39546 0.10401 -0.93944 0.37444 0.97975 0.056676 0.67672 0.27723 -0.31888 0.6265 0.26414 0.22859 0.34688 -1.2719 0.14997 -0.13239 -0.45077 0.72328 -0.41852 -0.6367 0.29964 -1.1569 0.16457 0.49268 -0.009041 0.36271 0.40198 0.91649 -0.94713 0.052724 -0.87124 -0.31822 -0.059892 -0.11139 0.19277 0.2434 0.3398
¼ -0.42155 1.0329 0.87654 0.037628 0.19816 0.2104 0.76856 -0.33251 -0.2956 -0.36733 -0.53019 -0.49883 0.29329 -0.89353 -0.18257 -0.73283 -0.28507 0.95509 -0.76293 -0.27361 -0.15566 -0.50972 1.9236 0.1083 -0.48459 0.69156 0.85192 1.4066 1.358 0.11602 1.002 -0.56365 -0.39575 2.1122 0.14394 -0.10286 -0.63016 0.323 0.3204 -0.74364 1.9423 -1.0159 0.22254 -0.32582 -0.56508 0.29974 0.95935 0.087672 -0.42868 -0.74263
ñ -0.034632 -0.259709 -0.357563 0.080007 -0.43402 -0.5069 0.418035 0.445959 -0.205097 0.516515 0.358181 0.150082 0.468786 -0.248251 -0.202449 -0.587334 -0.173371 0.184785 0.421314 0.156751 -0.509005 -0.284485 -0.017016 0.149503 0.017789 1.003845 0.14495 0.078095 0.00734 -0.105083 -0.908879 -0.287035 -0.103997 -0.136168 -0.148035 0.039607 -0.098133 -0.112664 -0.028556 0.202133 0.092817 -0.321167 -0.109982 -0.343455 -0.363473 -0.400985 0.106655 -0.3504 0.307395 0.147488
ô -0.184335 -0.314326 -0.55064 -0.195842 -0.65215 -0.524096 0.627778 0.461357 0.084754 -0.019926 0.284676 -0.051867 0.350581 -0.320204 -0.318617 -0.451074 0.033387 0.120061 0.349302 0.355816 -0.245781 -0.480283 -0.064448 0.418687 -0.057539 0.659204 -0.21882 0.211037 -0.191609 0.098561 -0.997015 -0.239287 -0.035082 0.047965 -0.153155 0.036235 -0.123077 -0.044043 0.085791 0.220237 0.314968 -0.351336 0.18197 -0.430752 -0.236395 -0.337088 0.392043 0.082907 0.552279 0.102445
^ -0.42022 1.128 0.75598 0.96246 0.041526 -0.10654 0.76271 -0.47191 -0.35392 -0.25999 -0.27142 0.44903 -0.054534 -0.42509 -0.014297 -0.14909 -0.32741 0.011888 -0.093466 0.24008 -0.88197 -0.53251 1.4996 0.37609 -0.11412 1.1531 -0.26221 -0.063797 0.24082 0.081565 0.24716 -0.17293 -0.48877 1.1017 -0.16125 -0.8406 0.71055 -0.45152 0.53033 -0.096145 0.81459 -1.2253 -0.12003 0.34096 -0.14971 0.80952 0.1168 -0.053203 0.40627 0.88878
ö -0.140289 -0.372981 -0.108344 -0.197216 -0.306577 0.12242 0.578292 0.442832 -0.101483 0.100934 0.447039 -0.079821 0.245214 -0.121307 -0.110598 0.044762 0.014317 0.203278 0.273806 0.494212 0.034169 -0.470014 -0.070092 0.360602 0.224045 0.749751 0.02372 -0.000122 -0.130046 0.084224 -1.162251 -0.10482 0.339756 0.175218 -0.221652 0.059465 0.110631 0.118227 0.004242 0.242083 0.274201 -0.36899 -0.240297 -0.187453 -0.171084 -0.150684 0.306151 0.042591 -0.003992 -0.049629
è 0.027828 -0.192938 -0.605064 -0.326264 -0.659099 -0.267844 0.537279 0.484563 -0.038852 0.235105 0.293031 0.119562 0.197999 -0.249144 -0.258312 -0.501064 -0.083315 0.114836 0.297139 0.107024 -0.219922 -0.217847 -0.066321 0.226908 0.012277 0.856637 -0.28743 0.25111 -0.041783 0.205379 -1.076026 -0.274806 -0.007291 0.129393 -0.149163 -0.087138 -0.022964 0.012339 -0.001938 0.188265 0.369664 -0.487621 0.174153 -0.371198 -0.267571 -0.279376 0.187948 -0.083292 0.381366 0.070965
ú -0.129809 -0.349263 -0.27489 0.022983 -0.579698 -0.340275 0.495776 0.425893 -0.049972 0.369646 0.374202 0.154226 0.499134 -0.246341 -0.158488 -0.381493 -0.255773 0.209706 0.521121 0.372649 -0.36222 -0.37171 0.01721 0.29864 0.219198 0.824091 0.023035 -0.050827 -0.160409 0.004404 -0.981237 -0.151435 -0.00993 0.074615 -0.170107 0.077283 -0.080201 -0.13475 -0.055045 0.08352 0.127835 -0.330343 -0.174227 -0.30154 -0.213528 -0.287714 0.225077 -0.145456 0.352035 0.022472
¾ -0.38322 1.1397 0.58344 0.012951 0.40373 0.55426 1.0931 -0.44753 -0.23001 -0.83648 -0.8646 -0.73766 -0.099631 -0.54396 0.03499 -0.52416 -0.069313 0.69511 -1.3607 -0.040201 0.24215 -0.10097 1.8071 0.18929 -0.21334 0.99171 0.88692 1.2615 1.1342 0.427 0.52972 -0.37023 -0.29336 1.9941 0.19152 -0.48201 -0.31544 0.39092 0.16376 -0.63342 1.3213 -1.1221 0.63523 -0.33637 -0.74535 0.27969 1.1604 -0.095059 -0.10063 -0.21729
ë -0.154729 -0.410802 -0.17307 -0.280669 -0.444883 -0.117463 0.469594 0.34744 -0.04232 0.195374 0.245724 -0.043122 0.279801 -0.400417 -0.161465 -0.291828 -0.172993 0.092259 0.532287 0.285604 -0.27161 -0.216395 -0.082759 0.361331 0.093243 0.788628 -0.054563 -0.126201 -0.091231 0.060034 -1.222991 -0.100148 -0.006364 0.080583 0.046314 0.101581 0.048822 0.01122 -0.000207 0.26997 0.297614 -0.259664 -0.036553 -0.208984 -0.181267 -0.102277 0.177097 -0.111001 0.23404 -0.032525
î 0.07064 -0.063468 -0.595499 -0.238322 -0.817621 -0.25358 0.79603 0.728382 -0.061409 0.125763 0.184171 -0.071052 0.338639 -0.165909 -0.330371 -0.474063 0.172721 0.140011 0.128761 0.219687 -0.026032 -0.409505 0.052232 0.504275 -0.009895 0.748066 -0.325975 0.356338 0.011498 0.043526 -0.984441 -0.190423 -0.065686 0.095195 -0.372859 -0.177006 0.150296 0.02888 0.098786 0.33132 0.582 -0.489402 0.189989 -0.263003 -0.654226 -0.280417 0.153338 -0.060449 0.426676 0.173114
ê -0.059922 -0.309043 -0.433726 -0.237 -0.728218 -0.632921 0.700363 0.485358 -0.025652 0.247049 0.067145 0.200922 0.359356 -0.189584 -0.330515 -0.475092 -0.059683 0.257658 0.551678 0.272027 -0.300593 -0.328524 0.095031 0.287155 0.047187 0.874461 -0.199339 0.180896 -0.085229 0.037753 -0.93857 -0.185282 -0.038372 0.438749 -0.149174 0.03927 0.07918 -0.068612 0.005737 0.200423 0.216663 -0.420309 0.006513 -0.254208 -0.233321 -0.424136 0.130774 -0.110128 0.488907 0.317122
ø -0.176333 -0.352307 -0.340478 -0.183458 -0.295798 0.204928 0.303684 0.427184 0.000145 0.049392 0.382359 -0.271162 0.401775 -0.325804 -0.287908 0.208967 0.188214 0.241313 0.33747 0.643217 0.198225 -0.379761 -0.082248 0.552111 0.129101 0.773507 0.215655 0.27771 -0.051917 -0.173476 -1.215131 0.023878 0.219363 0.216811 -0.053505 0.006553 0.108769 0.057973 -0.075761 0.352819 0.270629 -0.47226 -0.373464 -0.211828 -0.50415 -0.121985 0.237001 0.131278 0.016583 -0.295355
æ 0.021015 -0.346903 -0.236807 -0.290261 -0.198956 0.252067 0.370414 0.458222 0.086588 0.220966 0.327084 0.343975 0.224953 -0.243715 -0.284278 0.051238 -0.232608 0.050881 0.354188 0.598837 0.114318 -0.185581 -0.13232 0.138016 0.428182 0.520877 -0.077879 -0.08296 -0.03134 0.060988 -1.287975 -0.003016 0.372388 0.191515 0.042683 0.005683 0.112423 -0.069036 -0.216019 0.384442 0.125066 -0.265942 -0.397154 -0.069831 -0.310913 -0.028442 0.082009 0.059415 0.058622 -0.22291
¡ -0.60001 -0.089898 0.63803 -0.16766 -0.80307 -0.66645 0.33374 -0.79781 -1.0927 1.5024 0.24373 -0.12771 -0.33154 0.24753 0.16374 -1.2456 0.23399 0.54249 0.18452 0.49676 -0.66389 -0.35111 0.48065 0.10818 0.22503 0.57482 -1.4672 0.6432 0.18641 -1.9923 -0.69348 0.91106 -1.738 0.5316 -1.0866 -0.41962 0.6867 -1.5264 0.24551 0.52637 0.1424 -0.62016 -0.80733 -1.2599 -1.3012 -0.99759 0.3712 0.20329 0.86989 0.089663
ì -0.031938 -0.251664 -0.592273 -0.047475 -0.560205 -0.737508 1.122582 0.001465 -0.597746 0.143851 -0.011369 0.365248 0.445588 -0.483745 0.073125 -0.49292 -0.438172 0.673955 0.389876 0.861586 -0.54117 -0.70025 0.042531 0.59474 0.322827 0.651936 -0.003421 0.005217 0.013184 -0.214993 -0.933839 -0.028774 0.111896 0.456692 -0.406626 0.138242 0.056136 -0.308598 -0.244387 0.264499 0.108596 -0.359878 0.108777 -0.276689 0.211201 0.004603 0.255129 -0.171298 0.702708 0.458192
ï -0.249074 -0.301412 -0.273887 -0.109288 -0.564402 -0.260749 0.436535 0.384232 0.16844 0.218347 0.332342 -0.051106 0.372152 -0.244356 -0.306518 -0.109632 -0.11716 0.323623 0.510631 0.395169 -0.233257 -0.108491 0.015396 0.323477 0.180373 0.800467 -0.137672 0.140503 -0.010181 0.237987 -1.146218 -0.117402 0.085427 0.074466 -0.115258 0.104201 -0.159918 -0.017058 -0.133602 0.046699 0.253524 -0.432346 -0.126261 -0.274446 -0.140756 -0.244665 0.179015 0.023553 0.272235 0.034186
ò 0.128119 -0.479806 -0.351315 0.050816 -0.42468 -0.250078 0.953524 0.360318 -0.302693 0.581384 0.27589 0.345783 0.457315 -0.179948 -0.277653 -0.256637 -0.068198 0.622348 0.441125 0.648027 -0.271839 -0.332271 -0.006579 0.358993 0.394395 0.742955 0.336824 -0.083517 -0.21147 -0.067643 -1.036567 -0.139218 0.234792 0.409543 0.02306 0.027142 -0.081464 -0.118103 -0.340509 0.122604 0.066654 -0.301739 -0.149039 -0.168071 -0.067578 -0.378718 0.224299 -0.028215 0.27764 0.203231
ä -0.248094 -0.379283 -0.213607 -0.236379 -0.412607 0.071717 0.50272 0.535034 -0.022726 0.055768 0.518845 -0.130952 0.284614 -0.102246 -0.166571 -0.023318 -0.016233 0.283343 0.310761 0.519007 -0.015996 -0.516338 -0.061468 0.474738 0.172818 0.719484 -0.089637 0.132603 -0.10249 -0.060345 -1.122711 -0.086824 0.419997 0.215446 -0.250869 0.044186 0.133962 0.085517 0.015418 0.211268 0.271676 -0.514524 -0.156267 -0.279596 -0.196325 -0.117861 0.295167 0.127746 -0.021252 -0.020635
¢ -1.5933 1.1767 1.2838 -1.2854 0.29476 0.47286 1.0876 -1.3009 0.08881 0.24644 -0.88233 0.31762 1.6627 -0.5967 0.36621 -0.70913 -0.87187 -0.10736 -0.46899 0.87975 0.8705 -1.6115 1.3786 -0.33042 -0.090899 -0.069041 -0.75057 -0.24849 1.3186 -0.53452 -0.38438 0.99079 0.26765 1.5811 0.000892 -0.055924 1.3861 -0.20576 -0.20438 0.16473 0.96015 -0.40548 0.84151 -0.29585 -0.093415 0.4492 -0.24464 0.45684 0.80702 0.6519
ß -0.227692 -0.203276 -0.156857 -0.551355 -0.320318 -0.48253 0.749505 0.333849 -0.22719 -0.076532 0.060742 0.028624 -0.037302 -0.09818 -0.414899 -0.225659 0.404519 0.317465 0.23919 0.655894 0.021141 -0.532735 0.043427 0.626846 0.07452 0.735621 -0.087568 0.338027 -0.112063 -0.099464 -0.995846 -0.25992 0.329734 0.324253 -0.43492 -0.164445 0.254376 -0.33761 -0.084279 0.259155 0.341924 -0.740975 -0.115735 -0.320294 -0.197817 -0.282472 0.258167 0.155454 0.285975 0.220287
å -0.257344 -0.419776 -0.357769 -0.197683 -0.345003 0.104628 0.495515 0.494889 -0.104166 0.15412 0.570118 -0.195301 0.415662 -0.240446 -0.159771 0.279712 0.058136 0.333841 0.36505 0.676913 0.054783 -0.37611 0.019446 0.651506 0.030558 0.734465 0.060357 0.294979 -0.053574 -0.163158 -1.155192 0.042005 0.286707 0.347858 -0.051405 0.006264 0.170949 0.043532 0.036724 0.183129 0.238364 -0.50391 -0.247108 -0.094224 -0.478384 -0.139019 0.240323 0.16816 0.086614 -0.236921
ý -0.469851 -0.270435 0.100359 -0.054392 -0.483639 -0.067051 0.482298 0.407418 -0.320405 0.275444 0.226645 -0.251416 0.351508 0.042411 -0.040412 0.01056 0.081665 0.170387 0.601648 0.727802 -0.305877 -0.47784 -0.038366 0.486588 0.220499 0.899336 0.216907 -0.135658 -0.01205 0.051854 -1.25319 -0.241986 0.217923 0.167141 -0.10566 0.242877 0.183631 0.179582 -0.215366 0.230653 0.203913 -0.298776 -0.291821 -0.175993 -0.069631 -0.046333 0.170911 -0.013519 -0.118101 0.063768
¿ -0.55967 0.91458 -0.18434 -0.99487 -0.92501 0.16824 -0.29654 -0.87179 -0.69826 1.3687 0.50534 0.51124 0.41798 -0.40252 1.3651 -0.08276 0.072642 0.76103 1.0732 0.8862 -1.3096 -0.5206 0.19289 0.99115 0.39971 0.52406 -0.93711 0.83885 0.81529 -0.96793 -0.46847 0.23854 -1.1435 1.0188 -0.48976 -0.6417 1.199 -1.2062 0.71084 -0.10223 -0.12426 -0.99052 -0.49876 -0.18052 -0.73284 -1.1849 0.074402 0.30772 1.2319 0.9656
ÿ -0.027708 -0.153597 -0.48743 -0.306407 0.02582 0.56916 0.232143 0.546352 -0.208205 0.615444 0.433998 0.359422 -0.437243 0.167928 -0.577698 -0.369027 -0.24035 -0.44336 0.43954 -0.377942 0.026267 0.469915 -0.209412 -0.194839 -0.254155 1.097995 -0.540062 -0.42344 0.59519 0.357833 -0.917315 -0.558455 -0.405732 0.241534 0.563405 -0.316026 0.256853 -0.171215 -0.32036 0.53102 0.465941 -0.571872 -0.020755 -0.552922 -0.061125 0.040919 -0.269458 -0.475998 -0.206985 0.0869
ù -0.223519 -0.286967 -0.395615 -0.097509 -0.337953 -0.44621 0.849857 0.233343 -0.071577 0.301034 0.116934 0.237045 0.498704 -0.234958 -0.134057 -0.343003 0.010095 0.457768 0.695995 0.468792 -0.365815 -0.289018 0.10091 0.539084 0.303663 0.890691 -0.010356 0.049009 -0.125238 -0.143806 -1.030913 -0.112836 0.200462 0.646684 -0.214114 0.109159 0.019985 -0.191201 -0.020036 0.302083 0.223025 -0.347821 -0.015155 -0.055008 0.181738 -0.305367 0.216879 0.040395 0.37237 0.214185
û -0.018969 -0.520766 -0.453605 -0.237533 -0.415942 -0.400802 0.818781 0.2208 -0.08435 0.012713 0.142759 0.253157 0.216948 -0.075696 -0.197775 -0.395689 0.230084 0.395447 -0.087087 0.087042 -0.147701 -0.352121 0.156996 0.267382 0.261647 1.073644 -0.466064 0.165826 0.092953 0.194595 -0.9973 -0.139359 -0.133469 0.445388 -0.196428 0.148316 0.049105 -0.618742 -0.206448 0.289881 0.051307 -0.572011 -0.137025 -0.200664 -0.219328 -0.345864 0.325231 -0.099767 0.620912 -0.180356
õ -0.408214 -0.477216 -0.585923 -0.180233 -0.490147 -0.255347 0.485304 0.568734 0.149715 0.148235 0.287502 -0.215265 0.622226 -0.582581 -0.351311 -0.185799 -0.051988 0.227409 0.65509 0.674526 -0.591565 -0.436476 -0.11719 0.678643 0.172057 0.782399 0.40455 0.20161 -0.116386 -0.026077 -0.959261 -0.267198 0.246576 0.051766 -0.083561 0.206004 -0.115384 -0.11973 0.206314 0.318998 0.153568 -0.184232 -0.43067 -0.258246 -0.339673 0.168389 0.443651 0.045741 0.04662 -0.005229
þ -0.242112 -0.355781 -0.08473 -0.376974 -0.380864 -0.099423 0.452342 0.499689 -0.005695 0.108407 0.238361 0.423068 0.497371 0.106454 -0.119148 -0.169796 -0.008889 0.224126 0.527822 0.401617 -0.13859 -0.254199 0.11844 0.256965 0.531543 0.993016 -0.079041 0.150814 -0.213695 0.083377 -1.359271 -0.255249 0.283566 0.386767 -0.376079 0.097993 0.058568 -0.486505 -0.066932 -0.08758 0.196081 -0.511609 -0.334121 -0.180582 -0.223326 -0.285002 0.301428 -0.009586 0.114087 -0.045703
ð -0.126706 -0.300028 0.005566 -0.186999 -0.377974 -0.051116 0.395643 0.567685 -0.035655 0.414312 0.395272 0.457722 0.41397 0.028019 -0.050932 0.051257 -0.16082 0.143463 0.614066 0.556705 -0.219414 -0.108959 0.058807 0.280162 0.59452 0.83274 0.320901 0.035832 -0.041299 0.108274 -1.356638 -0.080941 0.287055 0.331424 -0.166356 0.219719 0.011924 -0.221189 -0.277955 0.1025 0.324954 -0.241601 -0.384413 -0.095727 -0.202616 -0.291034 0.265946 0.142345 0.001514 -0.142556
ª -0.284395 -0.499315 0.3538 -0.002535 -0.942955 -1.244455 0.464835 -0.20669 -0.396994 -0.01115 0.176435 1.09181 -0.228455 0.175667 -0.404455 -0.16682 0.36599 0.806465 0.758675 -0.14291 -0.178608 -0.90818 0.556516 0.9022 0.18072 1.168465 -0.26689 -0.12091 0.03456 0.00065 -0.48964 0.55791 -0.07105 -0.55997 0.128835 0.071931 -0.63563 -0.38592 0.729135 -0.61524 -0.649635 -1.097005 0.108705 -0.290235 -0.54409 0.30005 1.42749 0.857895 1.37955 1.17405
· 0.01811 0.55496 1.5158 0.54085 -0.046677 -0.32663 1.9934 0.58688 -0.4574 0.43944 -0.43132 -0.35873 0.36714 0.61422 -1.0796 0.014189 -0.030508 0.010218 0.85952 -0.42837 -0.49101 -0.5549 0.75072 1.228 -0.24205 1.3782 -0.35824 -0.2346 -0.24942 0.79073 -1.2647 -0.059987 -0.12818 0.21232 0.12604 -0.90784 0.53999 -0.99262 -0.14398 0.21962 0.18058 0.090159 -0.91652 0.14597 -0.35407 0.4669 0.56463 -1.2064 -0.20678 0.52273
¤ -1.1415 0.35794 0.096667 -0.4488 -0.35213 -0.84807 -0.02116 -0.26299 0.13736 -0.41463 0.028188 0.67738 0.81935 0.078366 0.36423 0.21031 -0.76385 -0.47366 0.45781 1.1404 -0.50863 -0.92609 0.21374 0.35505 0.027646 1.0898 1.3928 0.049761 0.88533 0.53911 -1.1597 0.38152 -0.001465 0.39767 -0.36402 0.52571 0.12956 -0.77707 -0.18616 -0.039325 0.049113 -0.53989 -0.42685 0.5432 0.098303 -0.3824 0.65114 0.095805 0.82338 0.43742
¨ -0.40706 -0.21306 -0.031436 -0.013682 0.056539 -0.40167 1.141 0.00015 0.70005 -0.35022 0.53695 0.51355 0.67479 0.43264 -0.74761 0.58971 -1.015 -0.031521 0.5893 0.3831 -0.69915 -0.05346 0.90186 -0.27409 0.16477 1.4449 0.63907 0.92103 -0.20906 0.1369 -1.1756 -0.18168 0.52669 0.92829 -0.39855 -0.00718 0.81792 0.11122 0.57806 0.26988 0.69644 -1.0389 -0.16106 1.022 -0.11154 0.41281 0.88922 1.1155 -0.056679 0.10961
